<?xml version="1.0"?>
<opencv_storage>
<opencv_ml_svm>
  <format>3</format>
  <svmType>C_SVC</svmType>
  <kernel>
    <type>LINEAR</type></kernel>
  <C>1.</C>
  <term_criteria><iterations>1000000</iterations></term_criteria>
  <var_count>324</var_count>
  <class_count>2</class_count>
  <class_labels type_id="opencv-matrix">
    <rows>2</rows>
    <cols>1</cols>
    <dt>i</dt>
    <data>
      -1 1</data></class_labels>
  <sv_total>1</sv_total>
  <support_vectors>
    <_>
      5.16848743e-001 -1.43005097e+000 -1.30971611e+000 -6.12814009e-001
      6.42315030e-001 3.74349207e-001 5.51404238e-001 2.85326779e-001
      3.86158407e-001 -3.15884918e-001 -7.83402801e-001 -2.86582798e-001
      8.32830310e-001 8.49908352e-001 3.58277336e-002 -3.88502181e-001
      4.05590795e-003 4.34623033e-001 8.29653919e-001 -2.44991004e-001
      -1.43721327e-001 -6.51136696e-001 1.84093133e-001 -5.66721857e-001
      5.52504599e-001 3.56788039e-001 9.62531567e-001 -8.58758241e-002
      -1.18132517e-001 2.83657551e-001 8.50977227e-002 4.90772754e-001
      2.34235436e-001 3.34494472e-001 -2.12476011e-002 6.18634224e-001
      -1.07675688e-002 -3.06181520e-001 5.98282218e-001 9.80333209e-001
      5.05373359e-001 -2.13998869e-001 -5.83710670e-001 2.14846376e-002
      3.97813380e-001 -2.97164191e-002 -3.98542374e-001 2.58424133e-001
      -1.38876840e-001 7.79263079e-001 1.79862931e-001 -3.02936018e-001
      2.28574157e-001 -1.58579558e-001 5.98421335e-001 -5.25077343e-001
      1.71208056e-003 -8.78086407e-003 -3.12470198e-001 -3.19242954e-001
      2.69373576e-003 -2.66103093e-002 9.66740370e-001 5.30351341e-001
      -4.78774190e-001 1.42904833e-001 -2.98235267e-001 -7.81154707e-002
      -1.22116074e-001 2.07945108e-001 1.24294376e-002 6.44571304e-001
      -5.18125631e-002 8.08375254e-002 4.60737705e-001 -7.58960769e-002
      1.16064835e+000 4.80344057e-001 -8.13504398e-001 -3.11506957e-001
      -7.42071867e-001 -3.14020216e-002 5.19781448e-002 -4.97938305e-001
      -8.13675642e-001 8.09477508e-001 -4.85729240e-002 -1.60863206e-001
      -6.81578338e-001 -3.65392923e-001 1.06160566e-001 3.10774177e-001
      5.02144396e-001 -1.49587795e-001 3.63899499e-001 -4.10274565e-001
      -2.17292234e-001 2.09438920e-001 -7.38635194e-003 -4.04015303e-001
      -4.17323560e-001 4.08166170e-001 -3.98602217e-001 -3.65189195e-001
      -8.04383099e-001 5.63532263e-002 -3.57744038e-001 -2.39567921e-001
      8.64479959e-001 3.41471076e-001 1.09428927e-001 -1.27878144e-001
      -7.84322500e-001 -8.00619006e-001 1.11576989e-001 2.39621565e-001
      1.00464189e+000 1.60706714e-002 -3.12888533e-001 1.52364314e-001
      -4.50833678e-001 3.37385058e-001 -2.66387969e-001 2.10643724e-001
      7.60226175e-002 4.80333596e-001 8.75785708e-001 4.88888830e-001
      5.87518752e-001 -5.78181446e-001 -4.90070879e-001 -1.00435424e+000
      2.35409454e-001 1.03800818e-001 1.17584860e+000 4.03290242e-001
      6.29374802e-001 -6.49869889e-002 -1.27086675e+000 -7.41121769e-001
      -8.16253901e-001 -3.49048257e-001 -5.18519998e-001 4.86747831e-001
      2.37946898e-001 -2.52190441e-001 8.11476529e-001 -3.43797728e-002
      -6.41306043e-001 -3.93440366e-001 1.10983282e-001 -1.48930736e-002
      5.43812156e-001 6.20387137e-001 -5.67459874e-002 4.33492482e-001
      -4.04245049e-001 -2.88667440e-001 -8.95374835e-001 7.07022147e-003
      -6.37005642e-002 4.21897590e-001 4.43954259e-001 -1.61241651e-001
      -1.16625316e-001 -4.64455009e-001 -4.37195987e-001
      -4.42228824e-001 7.00754523e-001 -1.68991715e-001 6.44109845e-001
      1.15866862e-001 -2.95509070e-001 -7.08348211e-003 -5.99624217e-001
      -9.54789162e-001 -1.05795777e+000 3.84604722e-001 -4.53647017e-001
      1.52684107e-001 5.47727682e-002 -4.47779670e-002 4.07524817e-002
      1.30257197e-002 -1.80118382e-001 3.91858481e-002 -1.78312927e-001
      -1.23354696e-001 2.23515764e-001 -3.14496398e-001 -2.55450517e-001
      6.50908887e-001 -4.82446522e-001 -5.92395484e-001 -2.79792130e-001
      -7.86989868e-001 -3.62025082e-001 -7.75673240e-002 4.88040783e-002
      2.24618725e-002 9.23254713e-002 3.21876138e-001 -1.64704949e-001
      -5.38089454e-001 7.55765438e-001 -1.86887875e-001 -1.49785001e-002
      -3.10315251e-001 3.59877437e-001 -3.28515440e-001 -9.39734936e-001
      -7.18843877e-001 -1.02319174e-001 4.77826208e-001 6.73173368e-002
      2.17131421e-001 7.59800613e-001 -7.06102625e-002 2.77547151e-001
      1.64288003e-002 1.53387681e-001 -1.03809750e+000 -8.11238289e-001
      -4.43260193e-001 4.22790617e-001 2.74624258e-001 4.61621493e-001
      -1.23383753e-001 -6.00163579e-001 3.34973812e-001 -1.13111146e-001
      2.35305533e-001 -1.93067655e-001 2.72019416e-001 5.62777698e-001
      1.80132821e-001 -4.50721979e-001 6.50536120e-001 9.23779607e-001
      -6.45171225e-001 -1.53354561e+000 -1.42834103e+000
      -5.20195961e-001 -7.62984753e-001 2.54066497e-001 -2.66039073e-001
      -7.08958626e-001 5.67109406e-001 8.91762316e-001 1.00434113e+000
      -7.94146582e-003 -5.12353003e-001 1.34906501e-001 -3.95693839e-001
      -9.19817463e-002 1.07232377e-001 9.11055133e-002 -3.70281130e-001
      5.71110725e-001 3.01574115e-002 2.96394140e-001 5.64195253e-002
      -4.74146903e-001 -9.69618186e-003 2.32927874e-002 -3.82573962e-001
      -5.42811692e-001 8.21652710e-002 -5.43369353e-001 2.15508379e-002
      -4.45251793e-001 -4.71922368e-001 -1.00463750e-002
      -3.77307385e-001 1.10901892e+000 9.48733628e-001 1.21404672e+000
      3.70428652e-001 -6.56265259e-001 -1.06861532e+000 -1.80260122e-001
      -1.91479445e-001 1.00130215e-001 3.60492676e-001 -1.24282774e-003
      2.33532518e-001 -4.59435284e-001 8.39082971e-002 2.17706218e-001
      -1.00361384e-001 7.58514762e-001 2.97381997e-001 2.30560720e-001
      -4.65953052e-001 2.13917777e-001 -3.52981150e-001 -8.78056884e-003
      -4.14029986e-001 -2.20560774e-001 -2.84584850e-001
      -1.71711719e+000 -3.44427526e-001 -1.09268658e-001 4.09923762e-001
      7.30211362e-002 -5.63795209e-001 -7.29340255e-001 -2.21408367e-001
      -4.94536817e-001 6.06671333e-001 6.35175526e-001 -1.72075763e-001
      -8.56541693e-002 -9.62327778e-001 -3.04082572e-001
      -1.98058471e-001 -7.65486598e-001 -3.13122541e-001
      -9.16706562e-001 5.04366457e-001 -3.28689963e-002 -2.92734861e-001
      -6.62635505e-001 -1.36690885e-001</_></support_vectors>
  <uncompressed_sv_total>240</uncompressed_sv_total>
  <uncompressed_support_vectors>
    <_>
      2.00686231e-001 2.52503604e-001 2.52503604e-001 1.95585325e-001
      1.12989120e-001 5.52443489e-002 8.13435391e-002 7.69371316e-002
      8.56361091e-002 2.29210243e-001 2.52503604e-001 2.52503604e-001
      2.28313610e-001 9.42976028e-002 5.59034161e-002 8.83217230e-002
      1.04281701e-001 1.65942445e-001 8.43329430e-002 1.26035675e-001
      2.32763842e-001 2.29977325e-001 1.88622355e-001 1.53485864e-001
      1.27727345e-001 7.43970945e-002 8.08426365e-002 5.41430414e-002
      1.58400372e-001 2.52503604e-001 2.52503604e-001 2.52503604e-001
      1.09854288e-001 9.93125364e-002 6.12952486e-002 5.25600426e-002
      2.01836497e-001 2.83572644e-001 2.83572644e-001 2.47447118e-001
      7.30798319e-002 3.71083170e-002 4.95354459e-002 6.05359301e-002
      9.50904861e-002 2.54415631e-001 2.83572644e-001 2.83572644e-001
      1.37468100e-001 7.68872425e-002 6.65226132e-002 6.86350688e-002
      8.23915750e-002 1.09363854e-001 7.70157650e-002 2.08261907e-001
      2.83572644e-001 2.83572644e-001 2.00844124e-001 6.80472776e-002
      6.01157062e-002 5.16203195e-002 5.38796000e-002 1.22967869e-001
      2.00969011e-001 2.44317293e-001 1.40917212e-001 9.05878916e-002
      5.72665259e-002 8.52685049e-002 9.21438560e-002 8.75105485e-002
      2.49559164e-001 2.49559164e-001 2.45366633e-001 7.51137286e-002
      9.28796828e-002 1.21644370e-001 1.76355585e-001 1.78304464e-001
      2.49559164e-001 2.49559164e-001 2.11125106e-001 9.10535231e-002
      7.17781559e-002 9.37862992e-002 1.71493024e-001 2.24746004e-001
      2.49559164e-001 2.49559164e-001 1.52143985e-001 1.96247637e-001
      1.61049992e-001 9.70728770e-002 1.04110464e-001 7.86299855e-002
      1.38325274e-001 1.52696177e-001 1.55122638e-001 1.43070489e-001
      1.15423188e-001 9.29823816e-002 7.85794109e-002 1.21121868e-001
      1.04759529e-001 1.37438625e-001 1.49307057e-001 1.70101672e-001
      6.32765666e-002 5.24206534e-002 9.47807506e-002 1.36384070e-001
      1.77653626e-001 2.21334696e-001 1.64344862e-001 1.62438452e-001
      1.03113368e-001 4.10120897e-002 7.52289742e-002 2.16891274e-001
      2.69871742e-001 2.69871742e-001 2.69871742e-001 1.09967962e-001
      6.77602440e-002 4.30028662e-002 8.03813636e-002 3.71270329e-002
      4.52043600e-002 6.21357113e-002 1.22686431e-001 1.90436915e-001
      2.12222278e-001 2.53718227e-001 1.34190679e-001 6.57770485e-002
      4.63482961e-002 8.15483183e-002 2.10186899e-001 2.69871742e-001
      2.69871742e-001 2.69871742e-001 2.21404940e-001 9.84078720e-002
      9.19843763e-002 1.37816504e-001 2.40256399e-001 2.41922006e-001
      2.41922006e-001 1.84876978e-001 6.38165846e-002 3.95658016e-002
      5.22057414e-002 1.54854253e-001 1.86953276e-001 1.56945556e-001
      9.49737653e-002 1.08908363e-001 8.83066729e-002 7.87752792e-002
      7.81455263e-002 9.37004760e-002 1.66195437e-001 1.33046836e-001
      1.18182816e-001 2.17574954e-001 2.41922006e-001 2.41922006e-001
      2.41922006e-001 1.95765868e-001 1.08110286e-001 2.41922006e-001
      2.07992092e-001 1.52564034e-001 1.52679637e-001 1.76962346e-001
      1.40152156e-001 1.61345348e-001 1.67936504e-001 1.83544189e-001
      2.23822147e-001 2.25899741e-001 2.03407958e-001 1.19360425e-001
      1.32959142e-001 1.04227237e-001 1.19797714e-001 1.82386443e-001
      2.10079223e-001 1.98796824e-001 1.34278476e-001 1.09675296e-001
      7.80782104e-002 1.14248484e-001 9.31076482e-002 8.97775814e-002
      1.68391362e-001 2.25899741e-001 2.25899741e-001 2.25899741e-001
      2.25899741e-001 1.50986329e-001 1.82759553e-001 1.46491766e-001
      1.40180841e-001 2.14460179e-001 2.25899741e-001 1.74030110e-001
      1.53928906e-001 1.53626576e-001 9.20739174e-002 1.41821206e-001
      1.11471966e-001 9.13447067e-002 1.43418103e-001 2.02294514e-001
      1.38019174e-001 4.44804281e-002 4.91168089e-002 3.44265476e-002
      9.17458162e-002 1.19935535e-001 1.96388751e-001 2.26494879e-001
      2.10312128e-001 1.44600168e-001 5.87664396e-002 8.23594704e-002
      1.08017303e-001 2.64486462e-001 2.75510460e-001 2.75510460e-001
      2.75510460e-001 2.26703212e-001 1.72753692e-001 4.76849042e-002
      3.43902111e-002 3.13754156e-002 5.15383072e-002 3.74013558e-002
      8.49488601e-002 1.87976539e-001 2.68847883e-001 2.29689285e-001
      6.70183674e-002 4.28799763e-002 4.37909886e-002 5.09931035e-002
      9.16533321e-002 2.16454625e-001 2.75510460e-001 2.75510460e-001
      1.25691041e-001 8.38896036e-002 6.35608882e-002 1.13446176e-001
      1.75378203e-001 2.60299325e-001 2.66963810e-001 2.66963810e-001
      1.22114092e-001 1.93334088e-001 1.48924127e-001 1.00858688e-001
      1.29423603e-001 1.31512418e-001 1.14953548e-001 2.66963810e-001
      2.66963810e-001 1.62334621e-001 9.84886810e-002 5.73859587e-002
      2.73041483e-002 3.17313783e-002 4.31681052e-002 7.53716826e-002
      2.66963810e-001 2.66963810e-001 1.36317238e-001 1.70103088e-001
      9.54201147e-002 4.03878167e-002 5.47238477e-002 6.32306561e-002
      7.03645051e-002 2.66963810e-001 2.66963810e-001 1.95383057e-001
      1.86299920e-001 1.51835531e-001 1.39390230e-001 1.16535425e-001
      1.33767098e-001 7.87865669e-002 1.39489710e-001 1.94580570e-001
      1.97151586e-001 1.99759364e-001 1.42313778e-001 1.33467183e-001
      9.77392122e-002 1.13352805e-001 7.08217323e-002 6.95697889e-002
      1.06339648e-001 1.81766242e-001 2.80375093e-001 1.60565615e-001
      9.85809490e-002 8.57691690e-002 9.27995071e-002 6.83835521e-002
      2.08902732e-001 2.80375093e-001 2.80375093e-001 2.80375093e-001
      2.80375093e-001 1.28627181e-001 7.79084116e-002 7.37117901e-002
      4.20035310e-002 8.10298547e-002 1.54074460e-001 2.80375093e-001</_>
    <_>
      2.87081689e-001 1.06263928e-001 3.10510136e-002 3.09405904e-002
      1.56632215e-001 5.61921857e-002 1.06709786e-001 3.01601827e-001
      3.01601827e-001 2.25831583e-001 1.84902593e-001 5.00976183e-002
      2.97362730e-002 3.30460370e-002 2.99489889e-002 1.17530771e-001
      1.87178537e-001 9.72986370e-002 1.29219636e-001 4.43951748e-002
      3.73859368e-002 5.34081310e-002 1.48192689e-001 8.00992623e-002
      2.93523073e-001 3.01601827e-001 3.01601827e-001 6.34503588e-002
      3.57424282e-002 2.73731202e-002 3.78461555e-002 3.19641158e-002
      1.08918972e-001 3.01601827e-001 3.01601827e-001 9.89294872e-002
      3.23173732e-001 3.44291508e-001 1.77703664e-001 1.03702031e-001
      1.22763239e-001 1.03725195e-001 1.69848800e-001 1.71808228e-001
      1.85284033e-001 1.81891039e-001 1.56994432e-001 1.30844906e-001
      9.60946828e-002 1.16938703e-001 9.68315154e-002 9.53222215e-002
      1.53326467e-001 2.15906382e-001 7.33275786e-002 4.90981601e-002
      4.90284748e-002 6.62718639e-002 9.28703621e-002 3.03718805e-001
      3.44291508e-001 3.44291508e-001 9.90334526e-002 8.09897408e-002
      6.15965091e-002 5.55459820e-002 4.59215008e-002 8.23739693e-002
      8.29613134e-002 1.37285441e-001 7.88684562e-002 9.87796262e-002
      1.34774551e-001 9.59237590e-002 7.66241401e-002 6.82511255e-002
      7.72270262e-002 8.91662091e-002 9.14826989e-002 2.11405247e-001
      2.34947085e-001 1.45059019e-001 9.27144289e-002 1.01412073e-001
      2.11434230e-001 2.64653385e-001 2.64653385e-001 2.64653385e-001
      2.57514387e-001 2.16528967e-001 8.61504525e-002 1.24661624e-001
      9.69169661e-002 6.20284937e-002 7.37828240e-002 4.22140621e-002
      5.78488670e-002 8.20512772e-002 8.06564987e-002 1.10975489e-001
      2.64653385e-001 2.64653385e-001 2.64653385e-001 2.64653385e-001
      2.16343910e-001 1.25089839e-001 9.23013911e-002 7.66061172e-002
      9.19754878e-002 5.54903075e-002 5.12105450e-002 7.57459104e-002
      2.37399280e-001 7.47759268e-002 2.63705730e-001 3.17496508e-001
      1.17544085e-001 6.03756569e-002 4.24113907e-002 3.95740382e-002
      5.53298555e-002 9.04315412e-002 3.17496508e-001 3.17496508e-001
      3.17496508e-001 6.15354702e-002 1.04239926e-001 5.63705415e-002
      4.82665338e-002 6.77770898e-002 2.49075904e-001 3.80557366e-002
      6.54238760e-002 8.12219307e-002 9.23371091e-002 9.66823697e-002
      6.98865280e-002 8.03128779e-002 1.34936064e-001 2.75143474e-001
      3.17496508e-001 2.72878289e-001 7.85798952e-002 8.04821178e-002
      2.18675807e-002 1.78681370e-002 2.13338993e-002 2.86646318e-002
      1.07351989e-001 3.17995131e-001 3.17995131e-001 1.54368043e-001
      2.48686094e-002 4.32802811e-002 9.18947384e-002 7.77148977e-002
      3.19832005e-002 6.42869547e-002 1.71268478e-001 1.21049464e-001
      4.03733514e-002 3.81813534e-002 4.04048003e-002 5.53788431e-002
      1.20071165e-001 2.40141064e-001 3.17995131e-001 3.17995131e-001
      2.79314518e-001 4.91331816e-002 3.21424417e-002 6.21347800e-002
      2.14835018e-001 2.68577546e-001 2.14820802e-001 2.69722700e-001
      2.75532663e-001 8.96246508e-002 3.76465879e-002 3.22853364e-002
      1.39172882e-001 2.67515033e-001 2.48387873e-001 6.82748854e-002
      9.02772620e-002 5.29223941e-002 7.05198050e-002 1.21015765e-001
      1.25394091e-001 1.90800667e-001 2.67515033e-001 2.67515033e-001
      1.81056708e-001 2.04771027e-001 8.54038000e-002 1.06528729e-001
      1.41570494e-001 1.30475551e-001 1.64538890e-001 2.67515033e-001
      2.67515033e-001 1.48202345e-001 1.40402913e-001 1.21126384e-001
      9.11254138e-002 1.05344556e-001 1.33870319e-001 1.80286050e-001
      2.67515033e-001 2.06417218e-001 7.22017139e-002 1.13959327e-001
      7.70853758e-002 7.82629848e-002 1.28848180e-001 1.62393138e-001
      1.31013751e-001 9.39980820e-002 5.07708974e-002 5.33914603e-002
      2.65424609e-001 2.76023559e-002 4.81133349e-002 1.22882463e-001
      1.61750257e-001 1.33865386e-001 1.87899917e-001 2.66126245e-001
      2.66126245e-001 2.36015230e-001 1.35003164e-001 4.31244373e-002
      9.58740711e-002 1.43522382e-001 2.66126245e-001 2.66126245e-001
      1.12551987e-001 7.14964643e-002 2.66126245e-001 3.05261314e-002
      4.18624915e-002 8.62947032e-002 2.32485205e-001 2.60832936e-001
      2.66126245e-001 2.66126245e-001 1.53310254e-001 6.37868121e-002
      2.86477860e-002 3.83861139e-002 6.85023442e-002 1.09545991e-001
      8.90470073e-002 1.55363679e-001 2.86377460e-001 2.86377460e-001
      2.86377460e-001 2.65818089e-001 4.53899056e-002 5.28239645e-002
      6.41258359e-002 9.46353674e-002 1.87145814e-001 2.86377460e-001
      2.86377460e-001 2.86377460e-001 1.43618584e-001 7.20248148e-002
      6.16882406e-002 6.19474389e-002 1.38378918e-001 2.41615281e-001
      2.86377460e-001 2.26325676e-001 1.01606287e-001 4.29823287e-002
      3.23330313e-002 4.99622859e-002 9.26268026e-002 1.24481536e-001
      8.26264471e-002 1.12398587e-001 9.65427160e-002 9.50463116e-002
      5.41535765e-002 6.25985414e-002 7.85267577e-002 1.20655283e-001
      1.69524565e-001 2.52882630e-001 2.52882630e-001 2.52882630e-001
      2.34429181e-001 1.95429683e-001 1.65642649e-001 1.46637708e-001
      1.61339447e-001 1.48579732e-001 1.30576804e-001 1.07966393e-001
      7.84442276e-002 1.81553572e-001 1.11790277e-001 8.47016275e-002
      1.15828194e-001 1.57824203e-001 1.61616892e-001 1.29580259e-001
      1.17893860e-001 1.15984462e-001 2.52882630e-001 2.36128032e-001
      1.82056770e-001 1.74209014e-001 1.68548107e-001 1.13144703e-001
      9.78446975e-002 8.02523643e-002 9.92252678e-002 2.52882630e-001
      2.10229844e-001 1.13523498e-001 1.06645331e-001 8.90606120e-002</_>
    <_>
      7.32333213e-002 1.14831008e-001 1.05420448e-001 7.33963847e-002
      1.03489563e-001 1.01249874e-001 6.10841960e-002 4.54692468e-002
      6.15438819e-002 3.01937938e-001 3.01937938e-001 1.87155426e-001
      1.03972293e-001 1.30276397e-001 1.45623118e-001 8.44836831e-002
      6.26551136e-002 1.66194379e-001 1.29016265e-001 3.01937938e-001
      3.01937938e-001 1.44255340e-001 9.03607458e-002 9.58330035e-002
      6.18959926e-002 3.64986435e-002 5.98410368e-002 3.01937938e-001
      3.01937938e-001 3.01937938e-001 1.08895801e-001 1.06882393e-001
      1.33082822e-001 9.13282707e-002 8.25948343e-002 2.25424707e-001
      2.75531679e-001 2.55028158e-001 1.51672825e-001 6.20502159e-002
      6.17265292e-002 5.91247268e-002 3.76347527e-002 6.75289035e-002
      2.67590016e-001 2.22390532e-001 1.31064519e-001 1.45305321e-001
      7.43789077e-002 6.33214265e-002 3.81754041e-002 4.72543687e-002
      2.19120011e-001 2.75531679e-001 2.75531679e-001 2.47877911e-001
      1.13224484e-001 5.48337698e-002 6.71031848e-002 8.60143974e-002
      5.71405329e-002 1.19782060e-001 2.75531679e-001 2.75531679e-001
      7.54870176e-002 7.39308372e-002 4.92621697e-002 6.71590194e-002
      7.62172118e-002 9.67076421e-002 2.75531679e-001 2.75531679e-001
      1.42436981e-001 8.03990737e-002 8.73047188e-002 6.24543987e-002
      5.97536601e-002 3.12640741e-002 9.25251469e-002 3.03186446e-001
      2.90522844e-001 1.12999186e-001 7.15605095e-002 8.81973729e-002
      8.60053077e-002 1.42315954e-001 8.85757804e-002 1.32794097e-001
      1.70426339e-001 1.33776411e-001 1.77617371e-001 8.91315937e-002
      7.89185762e-002 3.30633819e-002 5.36521897e-002 8.78143236e-002
      3.03186446e-001 3.03186446e-001 3.03186446e-001 6.16041124e-002
      7.04421103e-002 8.66669640e-002 1.05691992e-001 1.37271017e-001
      2.17348173e-001 3.03186446e-001 3.03186446e-001 1.81615561e-001
      9.91349593e-002 2.73394912e-001 2.73394912e-001 2.73394912e-001
      1.69392049e-001 9.08856615e-002 7.45427385e-002 5.38904294e-002
      5.93743436e-002 2.23150387e-001 2.73394912e-001 2.73394912e-001
      1.32727653e-001 1.34700522e-001 1.11748204e-001 1.10219665e-001
      9.20777991e-002 1.30972907e-001 6.40481040e-002 1.15116030e-001
      2.16157645e-001 2.73394912e-001 2.73394912e-001 2.29417667e-001
      1.68154746e-001 9.78996381e-002 8.00916329e-002 8.66285786e-002
      1.01820797e-001 9.36601460e-002 8.15019459e-002 1.17622264e-001
      1.11485079e-001 1.50608554e-001 1.41795442e-001 1.27029464e-001
      2.58461773e-001 1.77063048e-001 1.57871380e-001 1.20298348e-001
      1.52528271e-001 1.57151073e-001 1.48293748e-001 1.94668293e-001
      2.58461773e-001 2.58461773e-001 1.45206437e-001 1.77636877e-001
      1.10281318e-001 1.48380950e-001 1.65085092e-001 2.16433227e-001
      2.58461773e-001 2.58461773e-001 1.36394426e-001 1.02717362e-001
      1.00685798e-001 6.09508976e-002 8.09225738e-002 1.01779498e-001
      1.37783766e-001 1.57337293e-001 1.53564870e-001 1.86966151e-001
      1.54822946e-001 1.36918187e-001 8.42453763e-002 8.91344622e-002
      9.88384485e-002 1.41535714e-001 1.64396480e-001 2.17062280e-001
      1.47727057e-001 1.08540051e-001 9.45001543e-002 4.06911336e-002
      6.11316152e-002 1.18529372e-001 2.80166924e-001 2.80166924e-001
      2.67998755e-001 5.97926751e-002 8.74455422e-002 7.03862980e-002
      9.30474550e-002 2.03719944e-001 2.80166924e-001 2.80166924e-001
      2.80166924e-001 1.18102834e-001 1.05707154e-001 1.17213003e-001
      8.11929852e-002 6.21506348e-002 6.94725066e-002 7.71268457e-002
      8.78632367e-002 8.66225511e-002 1.05988361e-001 7.50261173e-002
      1.30701691e-001 1.49263144e-001 2.34281704e-001 2.80166924e-001
      2.80166924e-001 2.28935763e-001 7.33488873e-002 5.82328141e-002
      7.07267374e-002 5.16998954e-002 4.74815369e-002 1.19612232e-001
      2.62335271e-001 2.93336928e-001 2.93336928e-001 2.15932578e-001
      8.71749595e-002 1.13048173e-001 7.01586679e-002 5.69625907e-002
      5.24175726e-002 7.17061013e-002 8.29617009e-002 1.89687952e-001
      2.09879950e-001 1.41910523e-001 8.29295292e-002 5.90997599e-002
      5.65287955e-002 3.54790688e-002 1.00192524e-001 2.04908937e-001
      2.93336928e-001 2.93336928e-001 1.41583875e-001 1.78491458e-001
      8.70038345e-002 5.28818369e-002 5.45372218e-002 7.59362504e-002
      6.85523152e-002 2.34640092e-001 2.93336928e-001 2.93336928e-001
      1.56814784e-001 1.00246131e-001 8.17552805e-002 4.13295217e-002
      5.01078703e-002 6.85284808e-002 1.37035936e-001 1.95168629e-001
      1.66638583e-001 2.23862231e-001 2.01026171e-001 1.09300017e-001
      6.55800030e-002 7.58590475e-002 6.39621690e-002 1.11765482e-001
      1.51352316e-001 1.92238972e-001 2.93262929e-001 1.63934633e-001
      9.03153718e-002 7.68589973e-002 6.97432533e-002 5.98227493e-002
      1.29171729e-001 2.93262929e-001 2.93262929e-001 2.93262929e-001
      2.93262929e-001 1.65566817e-001 7.29847178e-002 9.56924632e-002
      7.91201517e-002 1.18803412e-001 1.69889182e-001 2.93262929e-001
      1.50337368e-001 2.37312019e-001 2.18028411e-001 9.65342671e-002
      7.92452097e-002 3.87812182e-002 4.46389988e-002 8.53655189e-002
      1.00955687e-001 1.02590561e-001 2.36484483e-001 2.80872911e-001
      2.80872911e-001 2.80872911e-001 9.41261724e-002 3.49619053e-002
      5.35614453e-002 5.32042682e-002 2.80872911e-001 2.80872911e-001
      2.80872911e-001 8.88848305e-002 7.68742189e-002 5.04057221e-002
      4.82019410e-002 6.65943474e-002 1.01134807e-001 1.28899455e-001
      2.80872911e-001 2.80872911e-001 2.22759932e-001 9.67423692e-002
      3.80706154e-002 3.87030207e-002 5.70181869e-002 7.53928050e-002</_>
    <_>
      6.96322843e-002 1.42706737e-001 1.12885073e-001 8.77859443e-002
      1.47157446e-001 1.12772167e-001 6.77989498e-002 3.94471623e-002
      6.25345781e-002 2.95073956e-001 2.95073956e-001 2.13862136e-001
      1.01856016e-001 1.35757223e-001 1.20234281e-001 7.76891261e-002
      6.16274066e-002 1.65098250e-001 1.19494841e-001 2.95073956e-001
      2.95073956e-001 1.99886799e-001 1.21921726e-001 7.95820281e-002
      3.84489186e-002 2.67569553e-002 5.62879406e-002 2.95073956e-001
      2.95073956e-001 2.95073956e-001 1.34685412e-001 1.34085193e-001
      1.05064161e-001 7.42921829e-002 7.02727064e-002 1.81584984e-001
      2.73381799e-001 2.43800044e-001 1.48341343e-001 5.86329475e-002
      5.24331927e-002 4.99876551e-002 5.34723550e-002 7.18032494e-002
      2.73381799e-001 2.73381799e-001 1.14862397e-001 9.91395339e-002
      4.89015058e-002 5.49066216e-002 4.04346697e-002 6.67476058e-002
      2.43389681e-001 2.73381799e-001 2.73381799e-001 2.27582082e-001
      1.15110792e-001 6.81303293e-002 6.36404827e-002 5.98564409e-002
      6.37288839e-002 9.15350020e-002 2.73381799e-001 2.73381799e-001
      1.22857466e-001 8.41526538e-002 4.93768863e-002 5.51434271e-002
      4.94058952e-002 1.13463812e-001 2.73381799e-001 2.73381799e-001
      1.49966568e-001 7.91703686e-002 4.04541232e-002 2.65725516e-002
      4.86455634e-002 3.50093730e-002 1.02511041e-001 2.78473675e-001
      2.78473675e-001 9.07918662e-002 6.02334030e-002 4.76485193e-002
      1.05238579e-001 1.87051952e-001 1.83148906e-001 1.80087090e-001
      2.01676339e-001 1.17383055e-001 2.23900780e-001 1.11021198e-001
      5.89032769e-002 3.91452834e-002 5.27966991e-002 6.93510622e-002
      2.78473675e-001 2.78473675e-001 2.78473675e-001 8.63548145e-002
      4.72202227e-002 4.49438244e-002 1.05949335e-001 2.15868920e-001
      2.51812369e-001 2.78473675e-001 2.78473675e-001 1.43365219e-001
      8.68210346e-002 2.73287743e-001 2.73287743e-001 2.73287743e-001
      2.25199416e-001 1.43422455e-001 5.75082041e-002 3.70806158e-002
      5.09274043e-002 1.61777198e-001 2.73287743e-001 2.73287743e-001
      1.47562578e-001 1.63516462e-001 1.40192375e-001 9.42851827e-002
      7.74202272e-002 8.83450583e-002 5.51929809e-002 4.77221496e-002
      1.55262366e-001 2.73287743e-001 2.73287743e-001 2.73287743e-001
      2.23190308e-001 9.91349891e-002 9.84809846e-002 8.59226584e-002
      5.48796020e-002 5.45138083e-002 4.13418934e-002 8.27551931e-002
      1.34591326e-001 1.39543161e-001 1.27931133e-001 1.48347393e-001
      2.48867184e-001 2.05807820e-001 1.71012774e-001 1.34406760e-001
      1.31323531e-001 1.23794727e-001 1.43451378e-001 1.70765951e-001
      2.48867184e-001 2.48867184e-001 2.48867184e-001 2.10277796e-001
      1.09955780e-001 1.07321255e-001 1.03710979e-001 2.15452194e-001
      2.48867184e-001 2.48867184e-001 1.43498570e-001 7.70839825e-002
      4.86963317e-002 3.05200070e-002 5.52023053e-002 6.50924668e-002
      1.26981735e-001 1.56905487e-001 1.82521373e-001 2.48867184e-001
      1.94520280e-001 1.00732006e-001 4.52446565e-002 5.27316369e-002
      6.16906434e-002 1.41739935e-001 1.65405080e-001 2.27473795e-001
      2.33660772e-001 1.48013428e-001 1.05082981e-001 6.74030334e-002
      6.66099116e-002 8.47743228e-002 2.61227131e-001 2.62728423e-001
      1.87546507e-001 1.11997887e-001 6.30745068e-002 7.76672512e-002
      1.32935598e-001 2.59428561e-001 2.62728423e-001 2.62728423e-001
      2.62728423e-001 1.28416389e-001 1.67313024e-001 1.34130761e-001
      1.09874733e-001 6.00758791e-002 4.06671092e-002 4.24406081e-002
      7.05877692e-002 5.45788296e-002 9.61473510e-002 1.13429174e-001
      1.08154498e-001 2.19909355e-001 2.62728423e-001 2.62728423e-001
      2.62728423e-001 1.42185003e-001 5.52022494e-002 6.72935769e-002
      5.73551245e-002 2.92867422e-002 2.55538858e-002 7.64334500e-002
      1.86747417e-001 2.87757367e-001 2.87757367e-001 2.20083237e-001
      1.01369143e-001 1.05147019e-001 5.41766658e-002 3.81982885e-002
      3.36533226e-002 5.66119142e-002 1.28154486e-001 2.22726032e-001
      2.19463632e-001 1.87308639e-001 7.70833641e-002 4.13952358e-002
      3.15973870e-002 5.67584820e-002 1.24038093e-001 2.07400262e-001
      2.87757367e-001 2.87757367e-001 1.32408932e-001 1.79674029e-001
      7.24116191e-002 3.98019291e-002 4.58600633e-002 7.64744431e-002
      9.65851173e-002 2.87757367e-001 2.87757367e-001 2.87757367e-001
      1.61934391e-001 9.78953764e-002 5.90598583e-002 3.58091518e-002
      4.67633754e-002 7.85077661e-002 1.36413917e-001 1.60873100e-001
      2.11336255e-001 2.66940475e-001 1.96400836e-001 8.13709497e-002
      3.32631469e-002 4.27634865e-002 5.63407913e-002 1.01545781e-001
      1.35562569e-001 2.24330127e-001 3.01175326e-001 1.55557752e-001
      7.37756789e-002 6.39885738e-002 7.58455917e-002 6.82037249e-002
      1.36662170e-001 3.01175326e-001 3.01175326e-001 3.01175326e-001
      3.01175326e-001 1.28317162e-001 4.62088622e-002 7.04479665e-002
      6.39720634e-002 7.59905055e-002 1.29813194e-001 3.01175326e-001
      2.00138286e-001 2.68932074e-001 2.28395939e-001 7.52945542e-002
      3.91025059e-002 4.82147932e-002 5.59205562e-002 4.66039889e-002
      1.27525523e-001 1.16639107e-001 2.63139546e-001 2.77540267e-001
      2.77540267e-001 1.95470706e-001 8.76443759e-002 4.63342406e-002
      3.47891375e-002 6.68227971e-002 2.77540267e-001 2.77540267e-001
      2.77540267e-001 6.59372360e-002 5.83475418e-002 5.83980046e-002
      4.97146361e-002 6.40402362e-002 1.56561673e-001 1.54675886e-001
      2.77540267e-001 2.77540267e-001 1.85800090e-001 7.95286670e-002
      4.64720987e-002 5.90816066e-002 6.20387457e-002 9.65413526e-002</_>
    <_>
      1.08715713e-001 1.88238740e-001 1.35936812e-001 1.03840522e-001
      1.03915036e-001 7.26184174e-002 6.85506836e-002 4.44754139e-002
      6.62643015e-002 2.72342861e-001 2.72342861e-001 2.07286447e-001
      1.61863670e-001 1.16015442e-001 6.79713711e-002 1.11258432e-001
      1.00653641e-001 2.03915730e-001 1.09593563e-001 2.72342861e-001
      2.72342861e-001 2.16626957e-001 1.35283664e-001 8.17084610e-002
      8.16091374e-002 4.67872173e-002 8.12792629e-002 2.72342861e-001
      2.72342861e-001 2.72342861e-001 1.26948550e-001 1.05343170e-001
      6.69396743e-002 1.69705063e-001 1.37884066e-001 2.10270584e-001
      2.64565140e-001 2.36305803e-001 9.73485783e-002 7.77039677e-002
      5.89199215e-002 3.80869806e-002 6.37562424e-002 1.34500861e-001
      2.64565140e-001 2.64565140e-001 1.07592508e-001 4.79098521e-002
      3.73882577e-002 6.69296980e-002 9.46401507e-002 1.09414279e-001
      2.64565140e-001 2.64565140e-001 2.64565140e-001 2.47049734e-001
      1.11106329e-001 7.62026832e-002 4.90463749e-002 4.25040498e-002
      1.13606885e-001 1.47605106e-001 2.47732893e-001 2.64565140e-001
      1.53029010e-001 1.08188413e-001 7.10529760e-002 4.73578386e-002
      6.06330857e-002 9.10364017e-002 2.53866464e-001 2.64565140e-001
      1.73601821e-001 6.14411943e-002 5.81553690e-002 5.30213565e-002
      1.07142568e-001 2.11791694e-001 2.38341406e-001 2.77400881e-001
      2.77400881e-001 4.68173996e-002 3.52731496e-002 6.07756563e-002
      6.88953102e-002 9.16309729e-002 1.31938145e-001 1.54160991e-001
      1.73934594e-001 7.21516311e-002 1.62693024e-001 1.15519255e-001
      1.15555540e-001 8.28768238e-002 7.39478171e-002 1.89871058e-001
      2.77400881e-001 2.77400881e-001 2.77400881e-001 4.38062809e-002
      4.90529463e-002 6.01498969e-002 6.80575445e-002 9.91436094e-002
      2.77400881e-001 2.77400881e-001 2.77400881e-001 8.66377503e-002
      6.86153695e-002 2.00522855e-001 2.43921280e-001 2.43921280e-001
      2.33804554e-001 1.22960150e-001 1.11385904e-001 9.32524800e-002
      1.01387784e-001 1.82320774e-001 2.43921280e-001 2.28593290e-001
      1.24345176e-001 1.11561365e-001 1.12593606e-001 2.34624818e-001
      2.43921280e-001 2.43921280e-001 4.66525555e-002 3.86628546e-002
      9.18327495e-002 2.13278711e-001 2.43921280e-001 2.43921280e-001
      1.84077755e-001 1.14930712e-001 9.58061665e-002 1.15726829e-001
      9.20560732e-002 6.25366271e-002 4.10501808e-002 5.74557781e-002
      8.04640874e-002 1.39185742e-001 2.06295133e-001 2.02069804e-001
      2.38573343e-001 2.38573343e-001 1.93388909e-001 1.04111955e-001
      7.16950893e-002 8.54902864e-002 2.11941391e-001 2.38573343e-001
      2.38573343e-001 2.38573343e-001 2.38573343e-001 1.73884630e-001
      1.21563964e-001 8.11232477e-002 8.22048113e-002 1.05448134e-001
      1.42899007e-001 2.09756508e-001 2.38573343e-001 1.90952584e-001
      1.02793284e-001 2.29980163e-002 3.70541587e-002 4.94159050e-002
      1.10875428e-001 2.17763290e-001 2.38573343e-001 2.38573343e-001
      2.28661925e-001 1.38608992e-001 7.50482604e-002 5.42802997e-002
      4.45013046e-002 5.22314310e-002 1.13890365e-001 1.92406610e-001
      1.18013263e-001 1.52611658e-001 1.38001159e-001 1.23006098e-001
      1.00909002e-001 1.97204411e-001 2.74472475e-001 1.77617088e-001
      1.03449032e-001 3.55381742e-002 7.26510510e-002 8.49200785e-002
      1.36799723e-001 2.70613700e-001 2.74472475e-001 2.74472475e-001
      1.42835855e-001 4.89091873e-002 1.35840371e-001 2.02489182e-001
      1.99674234e-001 1.80671737e-001 9.22460482e-002 8.18185061e-002
      5.22836633e-002 4.03242856e-002 6.78108782e-002 6.19304962e-002
      1.44450963e-001 2.48592570e-001 2.74472475e-001 2.74472475e-001
      2.74472475e-001 9.78173316e-002 2.85179932e-002 3.20990495e-002
      5.71045019e-002 3.04457359e-002 3.54843065e-002 5.56347929e-002
      1.87441766e-001 2.89572388e-001 2.89572388e-001 2.82929838e-001
      1.13248967e-001 1.19548306e-001 6.33538291e-002 4.05212343e-002
      2.72882283e-002 5.38547672e-002 6.88493252e-002 1.86621919e-001
      2.89572388e-001 2.13302732e-001 7.54582509e-002 4.28752229e-002
      2.84954421e-002 3.47355790e-002 6.76025599e-002 1.36856958e-001
      2.89572388e-001 2.89572388e-001 1.50322035e-001 2.24193588e-001
      6.86105788e-002 3.41208279e-002 1.95997693e-002 4.33762781e-002
      4.54742014e-002 2.21395940e-001 2.89572388e-001 2.89572388e-001
      1.87600642e-001 9.39758718e-002 4.98103015e-002 2.34414637e-002
      2.58025043e-002 4.94771935e-002 7.02479929e-002 1.95867658e-001
      2.24095836e-001 2.69774169e-001 2.73060173e-001 1.54263347e-001
      7.18327761e-002 3.38685103e-002 4.13478985e-002 4.95088361e-002
      1.07196510e-001 1.70925632e-001 3.10066849e-001 1.58709317e-001
      4.03342918e-002 2.17371397e-002 3.17340530e-002 5.36026172e-002
      8.67944583e-002 3.10066849e-001 3.10066849e-001 3.10066849e-001
      3.10066849e-001 1.37854978e-001 4.51345108e-002 3.08309738e-002
      5.92836998e-002 6.04731813e-002 9.92095768e-002 2.69235760e-001
      1.60869256e-001 2.90260732e-001 2.90260732e-001 1.65116504e-001
      4.93767634e-002 3.49553600e-002 2.98410133e-002 3.80823724e-002
      6.99749812e-002 7.24303350e-002 2.84161001e-001 2.90260732e-001
      2.90260732e-001 1.68083563e-001 6.78443387e-002 4.44468372e-002
      2.63616368e-002 2.91727260e-002 2.90260732e-001 2.90260732e-001
      2.90260732e-001 7.17598572e-002 2.72730775e-002 3.42545211e-002
      3.79579328e-002 3.76109891e-002 7.35444352e-002 8.93218219e-002
      2.90260732e-001 2.90260732e-001 1.24516807e-001 5.84776327e-002
      6.04282729e-002 5.79754822e-002 3.64419185e-002 4.30626757e-002</_>
    <_>
      1.23424381e-001 1.79532513e-001 2.54960507e-001 2.26939514e-001
      2.07962289e-001 8.87365267e-002 6.40784651e-002 3.57149653e-002
      5.35864905e-002 2.54960507e-001 2.54960507e-001 2.03869686e-001
      9.13104042e-002 5.01677766e-002 5.24675064e-002 9.57719311e-002
      1.10528089e-001 1.63287863e-001 1.26671642e-001 2.54960507e-001
      2.54960507e-001 2.31382892e-001 2.54960507e-001 1.38919264e-001
      7.42582306e-002 5.12447730e-002 6.66634962e-002 2.54960507e-001
      2.54960507e-001 2.54960507e-001 1.09339438e-001 5.26741073e-002
      4.60696481e-002 4.76255380e-002 9.82997864e-002 1.43507063e-001
      2.40290523e-001 1.49138033e-001 1.01096295e-001 3.61433625e-002
      3.34687680e-002 6.75514266e-002 1.85439572e-001 2.32796833e-001
      2.40290523e-001 1.90468729e-001 9.33443159e-002 5.80367818e-002
      5.66389523e-002 4.76372689e-002 1.14790931e-001 2.40290523e-001
      2.40290523e-001 2.40290523e-001 2.40290523e-001 2.28496969e-001
      1.80143461e-001 8.61867666e-002 4.79728840e-002 4.42971624e-002
      5.70359454e-002 1.18511334e-001 1.99511215e-001 2.40290523e-001
      1.60271481e-001 1.03495553e-001 1.21889502e-001 7.28451684e-002
      1.37587830e-001 2.32260302e-001 2.40290523e-001 2.40290523e-001
      1.31890759e-001 8.20058659e-002 6.44876659e-002 7.98574612e-002
      7.67681971e-002 1.43316075e-001 2.73758620e-001 2.73758620e-001
      2.73758620e-001 6.72793984e-002 7.64893442e-002 9.41678211e-002
      6.50472865e-002 7.58559257e-002 8.58459920e-002 1.30261213e-001
      1.43928036e-001 8.52129236e-002 1.56316623e-001 1.19681530e-001
      7.38105997e-002 1.14265569e-001 1.13293566e-001 2.73758620e-001
      2.73758620e-001 2.73758620e-001 2.73758620e-001 5.77416979e-002
      7.51165152e-002 8.44639987e-002 7.00149387e-002 1.25804335e-001
      2.53158331e-001 2.73758620e-001 2.73758620e-001 9.54466388e-002
      9.92204249e-002 2.26398364e-001 2.58004516e-001 2.58004516e-001
      2.58004516e-001 1.32605597e-001 8.50709677e-002 8.68527889e-002
      6.74030259e-002 1.87130064e-001 2.57474869e-001 2.58004516e-001
      1.48718178e-001 9.09394920e-002 7.22040311e-002 6.00971133e-002
      1.46757543e-001 1.39767677e-001 8.71635154e-002 7.50500038e-002
      1.92916110e-001 2.58004516e-001 2.58004516e-001 2.03632683e-001
      1.13080755e-001 1.16421394e-001 7.19007179e-002 1.56288326e-001
      1.35927945e-001 1.35055751e-001 1.47674128e-001 1.50757030e-001
      1.12885587e-001 1.20048262e-001 1.79266810e-001 1.73280254e-001
      1.96675211e-001 1.95247859e-001 1.78329647e-001 1.29270539e-001
      1.00070491e-001 7.22259954e-002 7.49189556e-002 1.81779251e-001
      1.61943033e-001 2.07684860e-001 1.81398422e-001 1.50749251e-001
      1.74779683e-001 1.63418934e-001 1.69873178e-001 1.79372519e-001
      2.02252030e-001 1.75717369e-001 1.85921922e-001 1.88167349e-001
      1.73897758e-001 1.49179846e-001 1.32702321e-001 1.11703776e-001
      1.33153424e-001 1.94957659e-001 1.99612334e-001 1.81077719e-001
      2.02771693e-001 2.10365012e-001 1.81558430e-001 1.93168908e-001
      1.16284035e-001 1.17458574e-001 1.39896363e-001 1.42028406e-001
      1.03970706e-001 9.94717851e-002 1.02575921e-001 1.55032963e-001
      1.63423359e-001 2.36758709e-001 2.51124829e-001 2.51124829e-001
      1.17674246e-001 3.92313898e-002 4.70998883e-002 7.53592476e-002
      1.13083079e-001 2.38199547e-001 2.51124829e-001 2.51124829e-001
      2.16159999e-001 7.13435560e-002 1.29475489e-001 1.14775442e-001
      1.59413546e-001 2.17309609e-001 1.89050317e-001 1.40863597e-001
      1.46338761e-001 1.15409210e-001 1.07571587e-001 7.56870583e-002
      4.10013236e-002 7.84836859e-002 2.09898785e-001 2.51124829e-001
      2.51124829e-001 2.19398230e-001 1.25177801e-001 1.02787547e-001
      8.43120664e-002 5.37824109e-002 6.87720850e-002 2.24546328e-001
      2.75352240e-001 2.75352240e-001 1.57714188e-001 1.10359170e-001
      9.65445787e-002 1.80797204e-001 1.13871291e-001 1.00698367e-001
      1.26851156e-001 1.63242817e-001 1.37130931e-001 1.31920561e-001
      1.66677147e-001 2.10063294e-001 6.63651079e-002 4.44035158e-002
      5.12381382e-002 9.82631743e-002 2.75352240e-001 2.75352240e-001
      2.75352240e-001 1.54291838e-001 9.53493118e-002 1.41426533e-001
      8.31550509e-002 9.26822126e-002 9.92013216e-002 1.78654328e-001
      1.87419519e-001 2.75352240e-001 1.79633409e-001 1.67173594e-001
      2.20309377e-001 2.06656307e-001 2.23834887e-001 1.83747321e-001
      1.90607160e-001 1.47605374e-001 1.57979384e-001 1.71512336e-001
      2.13048652e-001 1.77464664e-001 2.24449024e-001 2.24449024e-001
      2.06733763e-001 1.82499811e-001 9.91935059e-002 1.09214365e-001
      9.97624248e-002 1.24645352e-001 1.35435283e-001 1.36201754e-001
      1.73261568e-001 1.53648376e-001 2.24449024e-001 1.12239838e-001
      1.38156712e-001 1.32359192e-001 1.28412172e-001 1.26786679e-001
      1.97569430e-001 2.24449024e-001 1.77428350e-001 1.73107103e-001
      1.03973329e-001 1.14873901e-001 6.94814101e-002 8.28120485e-002
      1.68584377e-001 1.43306881e-001 1.96644664e-001 1.89628974e-001
      1.55412197e-001 1.09259814e-001 1.02240667e-001 9.84359980e-002
      1.56434804e-001 1.35508940e-001 5.96422814e-002 1.15470961e-001
      2.71960825e-001 2.71960825e-001 2.71960825e-001 1.06496908e-001
      1.02500387e-001 1.84952810e-001 1.51571363e-001 1.60633340e-001
      2.09218562e-001 1.84755415e-001 1.27206832e-001 1.00742474e-001
      9.11312997e-002 7.95729086e-002 1.07589990e-001 1.33138090e-001
      1.30666062e-001 2.71960825e-001 2.71960825e-001 2.71960825e-001
      1.35422274e-001 7.27208182e-002 7.95743242e-002 1.17983848e-001</_>
    <_>
      1.54833943e-001 2.40936264e-001 2.40936264e-001 2.18196169e-001
      1.40918165e-001 9.19455290e-002 3.17962430e-002 6.41300306e-002
      1.18051939e-001 2.07384512e-001 1.31261870e-001 9.81498361e-002
      6.40137270e-002 6.32394850e-002 7.01208338e-002 1.43385336e-001
      2.40936264e-001 2.20155135e-001 9.75712836e-002 1.79768592e-001
      2.40936264e-001 2.35010713e-001 2.40936264e-001 2.40936264e-001
      8.66732076e-002 5.37855253e-002 4.86411899e-002 2.40936264e-001
      2.40936264e-001 2.40936264e-001 1.70445770e-001 9.38146189e-002
      7.22424537e-002 1.08687639e-001 1.21777214e-001 1.57222688e-001
      1.23880677e-001 5.83702438e-002 4.01017368e-002 4.39591780e-002
      5.80006465e-002 7.38856345e-002 2.60123879e-001 2.60123879e-001
      1.24648385e-001 1.23882607e-001 4.00457904e-002 2.47239862e-002
      2.89618839e-002 5.43018356e-002 7.11685419e-002 2.60123879e-001
      2.48998106e-001 1.22386955e-001 2.60123879e-001 2.60123879e-001
      1.34982005e-001 7.37475231e-002 6.75465316e-002 7.82980993e-002
      1.91432610e-001 2.17076942e-001 2.60123879e-001 2.60123879e-001
      1.70742229e-001 5.96956611e-002 3.83920744e-002 6.32169694e-002
      1.20004505e-001 2.60123879e-001 2.60123879e-001 2.60123879e-001
      1.37404710e-001 6.83833435e-002 3.89126576e-002 3.28927413e-002
      8.73931423e-002 7.99119920e-002 1.72933280e-001 2.03702927e-001
      2.01347768e-001 7.50728697e-002 6.63424134e-002 4.81678322e-002
      3.55785079e-002 7.44469315e-002 2.97804102e-002 3.90841328e-002
      4.60050404e-002 9.54500213e-002 2.70153344e-001 1.53802574e-001
      6.67696446e-002 5.71088977e-002 1.18946314e-001 3.00629705e-001
      3.13533008e-001 3.13533008e-001 3.13533008e-001 1.18247226e-001
      9.20799673e-002 6.37185276e-002 5.15504628e-002 1.35679513e-001
      2.33522654e-001 3.13533008e-001 2.84698337e-001 1.63318619e-001
      1.06008098e-001 2.48068526e-001 2.48068526e-001 2.45569885e-001
      1.69299990e-001 1.84961334e-001 7.27172643e-002 2.91105025e-002
      4.34317924e-002 2.48068526e-001 2.48068526e-001 2.48068526e-001
      2.10493386e-001 9.48145688e-002 5.70415966e-002 7.03117922e-002
      5.74603006e-002 1.34272769e-001 8.49828422e-002 1.60121888e-001
      2.48068526e-001 2.48068526e-001 2.48068526e-001 1.76625714e-001
      7.97713846e-002 4.93460894e-002 5.20866737e-002 1.60301864e-001
      2.12965906e-001 2.36667916e-001 1.65480524e-001 1.46718249e-001
      8.62629637e-002 7.70441890e-002 6.98747113e-002 1.00759119e-001
      2.58121014e-001 2.58121014e-001 2.52192080e-001 1.28987074e-001
      1.03920244e-001 9.62596014e-002 1.11886404e-001 1.30083695e-001
      2.58121014e-001 2.58121014e-001 2.58121014e-001 1.41531944e-001
      8.29344466e-002 9.55552310e-002 1.37210578e-001 2.04851910e-001
      2.58121014e-001 2.58121014e-001 1.81167111e-001 1.66469231e-001
      1.45613134e-001 1.02119878e-001 9.64967310e-002 8.21511894e-002
      8.82598609e-002 9.82237011e-002 1.28656939e-001 1.79160520e-001
      1.79447487e-001 1.49948582e-001 1.17042996e-001 1.01016834e-001
      9.05249417e-002 1.06316254e-001 1.17899463e-001 1.34751454e-001
      1.39409006e-001 1.10814914e-001 6.31351769e-002 6.01749383e-002
      9.67801586e-002 2.18945906e-001 2.59040177e-001 2.59040177e-001
      2.56991446e-001 5.71992174e-002 4.92838584e-002 4.76395600e-002
      1.00747600e-001 1.69592053e-001 2.59040177e-001 2.59040177e-001
      2.11756021e-001 8.40135589e-002 1.15933739e-001 1.34662345e-001
      1.40717313e-001 1.81153178e-001 1.64550558e-001 1.38937235e-001
      1.99319318e-001 1.17695071e-001 1.04555808e-001 3.26521285e-002
      5.14742099e-002 1.32317439e-001 2.59040177e-001 2.59040177e-001
      2.10550085e-001 2.52251923e-001 8.57671648e-002 4.15011048e-002
      5.69528788e-002 5.24642542e-002 7.44748861e-002 1.78406954e-001
      2.63254076e-001 2.63254076e-001 2.36771762e-001 1.92242190e-001
      8.04053992e-002 1.36773646e-001 9.03068110e-002 8.96621794e-002
      1.01042442e-001 1.68169886e-001 1.90041393e-001 1.86999366e-001
      2.29115143e-001 1.57841042e-001 5.42630292e-002 3.80304903e-002
      3.61755714e-002 3.55789848e-002 8.63338336e-002 1.98978320e-001
      2.63254076e-001 2.63254076e-001 1.47148296e-001 1.89643562e-001
      6.49960414e-002 5.74981868e-002 5.51720187e-002 6.26537800e-002
      1.54437572e-001 2.58523762e-001 2.63254076e-001 2.63254076e-001
      1.70495540e-001 1.10054217e-001 9.37110707e-002 6.73444644e-002
      7.52900615e-002 8.48907009e-002 9.43326950e-002 1.55334979e-001
      1.71085149e-001 1.75188780e-001 2.83775121e-001 1.84217796e-001
      1.08454324e-001 7.72642493e-002 7.97104314e-002 9.44062918e-002
      1.01778567e-001 1.35136485e-001 3.02279353e-001 1.66441470e-001
      8.87352303e-002 5.66149279e-002 5.88781387e-002 7.65972435e-002
      1.04381919e-001 3.02279353e-001 3.02279353e-001 3.02279353e-001
      3.02279353e-001 2.37167478e-001 8.06895345e-002 5.36640696e-002
      5.84628731e-002 7.80823901e-002 1.04574613e-001 2.42010534e-001
      1.26660660e-001 2.82381207e-001 2.82381207e-001 2.39618093e-001
      1.18659273e-001 4.83191125e-002 7.49047995e-002 4.94492538e-002
      8.97558853e-002 5.50636053e-002 2.02451646e-001 2.82381207e-001
      2.82381207e-001 2.82381207e-001 5.51256910e-002 4.77518216e-002
      2.18079053e-002 3.66892330e-002 2.48519719e-001 2.82381207e-001
      2.82381207e-001 1.10445812e-001 5.07390983e-002 3.24018486e-002
      4.66475785e-002 4.37445901e-002 7.41755441e-002 7.52781779e-002
      2.82381207e-001 2.82002002e-001 1.45132869e-001 6.89810440e-002
      3.79053354e-002 2.79070288e-002 2.12751757e-002 3.55057158e-002</_>
    <_>
      9.66346487e-002 1.72667757e-001 2.41703212e-001 1.39515609e-001
      7.09954947e-002 3.67820524e-002 2.47505251e-002 3.78081501e-002
      4.71444391e-002 2.51979768e-001 2.51979768e-001 2.51979768e-001
      1.02550656e-001 9.27138329e-002 5.89734837e-002 1.16991863e-001
      1.43210620e-001 1.76085860e-001 9.51169208e-002 1.82205707e-001
      2.51979768e-001 2.51979768e-001 1.95177644e-001 6.73030764e-002
      4.73701954e-002 6.48153275e-002 6.68304041e-002 2.24274039e-001
      2.51979768e-001 2.51979768e-001 2.46560320e-001 1.89537078e-001
      1.32970735e-001 1.42030329e-001 1.79898441e-001 1.56598389e-001
      1.46776542e-001 1.02436088e-001 6.60621971e-002 3.54732051e-002
      6.90267682e-002 1.42404258e-001 2.58626312e-001 2.51509994e-001
      1.72315702e-001 3.61807495e-002 3.25541683e-002 2.84342412e-002
      4.64262478e-002 7.97143206e-002 1.79368481e-001 2.58626312e-001
      2.58626312e-001 1.03337556e-001 1.33292332e-001 9.29423645e-002
      9.71687511e-002 9.18516964e-002 1.81680247e-001 2.58626312e-001
      2.58626312e-001 2.03508303e-001 1.26764894e-001 7.84190372e-002
      5.30674271e-002 7.98940063e-002 1.26332909e-001 2.58626312e-001
      2.58626312e-001 2.58626312e-001 2.58626312e-001 1.38386220e-001
      4.65848297e-002 5.28887287e-002 4.80291322e-002 7.48834759e-002
      1.01299733e-001 1.54771626e-001 2.49981105e-001 2.81962603e-001
      1.06835216e-001 4.48777862e-002 7.02555999e-002 7.74721727e-002
      9.61023271e-002 9.24675837e-002 7.07466602e-002 9.69705433e-002
      8.02953020e-002 6.03268929e-002 1.15402609e-001 8.26118886e-002
      1.22870460e-001 1.40769824e-001 2.80019522e-001 2.81962603e-001
      2.81962603e-001 2.81962603e-001 2.81962603e-001 1.01896860e-001
      7.63432756e-002 8.93895850e-002 1.05626218e-001 1.15218118e-001
      1.32943749e-001 2.81929225e-001 2.81962603e-001 2.54306287e-001
      7.78469220e-002 7.97179863e-002 2.44053468e-001 2.70543307e-001
      2.70543307e-001 8.54957700e-002 6.19792566e-002 6.75012320e-002
      9.10517871e-002 1.27297774e-001 9.50601771e-002 1.60768330e-001
      2.05754578e-001 1.87993377e-001 1.40688613e-001 1.32570937e-001
      1.75670132e-001 1.49902388e-001 1.24104522e-001 8.00810158e-002
      1.20880611e-001 2.70543307e-001 2.70543307e-001 1.89502954e-001
      1.14828348e-001 8.88336897e-002 1.08232811e-001 1.82776466e-001
      1.29990742e-001 1.50688231e-001 1.92009613e-001 1.98684111e-001
      1.35421723e-001 1.75554886e-001 2.04780340e-001 2.08579570e-001
      7.20059499e-002 4.96374480e-002 8.45702887e-002 9.36387554e-002
      2.08290890e-001 2.61050791e-001 1.22746855e-001 1.38064310e-001
      9.60275307e-002 6.62204176e-002 5.73985465e-002 1.12982005e-001
      1.57978967e-001 2.78512686e-001 2.78512686e-001 2.01229319e-001
      1.29578620e-001 8.44059438e-002 1.07316762e-001 1.16552420e-001
      1.48736909e-001 1.81173578e-001 2.78512686e-001 1.89650372e-001
      1.23121358e-001 1.50346875e-001 1.33841291e-001 8.09271187e-002
      1.01337008e-001 1.62407443e-001 2.78512686e-001 2.78512686e-001
      2.78512686e-001 1.15404017e-001 9.59329680e-002 7.83045888e-002
      1.00605406e-001 8.54356512e-002 1.31967351e-001 1.54856712e-001
      2.47042686e-001 2.47042686e-001 2.47042686e-001 2.47042686e-001
      1.62536442e-001 1.16040148e-001 6.76562414e-002 7.74636939e-002
      9.16148126e-002 9.80597138e-002 8.67312402e-002 2.45432928e-001
      2.47042686e-001 2.47042686e-001 1.01855516e-001 1.07077822e-001
      1.43373564e-001 2.35736907e-001 2.47042686e-001 2.18286321e-001
      1.11253835e-001 8.78897831e-002 9.23343748e-002 1.51430279e-001
      1.10533834e-001 1.12849958e-001 1.29452378e-001 1.46232262e-001
      1.21574208e-001 1.57572880e-001 1.82301000e-001 2.05329195e-001
      1.21637776e-001 1.10590443e-001 1.03854515e-001 2.47440249e-001
      2.47440249e-001 2.47440249e-001 1.46352366e-001 1.03953384e-001
      8.92907232e-002 1.80216491e-001 1.65982321e-001 1.39556453e-001
      1.65892348e-001 1.78273961e-001 1.47096664e-001 1.66030750e-001
      1.61063477e-001 1.70577779e-001 7.34956637e-002 1.09932482e-001
      9.57527235e-002 1.70345411e-001 2.47440249e-001 2.47440249e-001
      2.47440249e-001 1.38714388e-001 6.47879764e-002 1.38193995e-001
      1.49151459e-001 1.39391333e-001 1.76703602e-001 1.80341750e-001
      1.74199104e-001 1.67936966e-001 1.68214887e-001 1.36498347e-001
      1.18931487e-001 1.41628742e-001 1.69987455e-001 2.47119993e-001
      2.55518466e-001 1.23182312e-001 1.01834074e-001 9.75620002e-002
      1.13638103e-001 7.64967203e-002 9.74868685e-002 2.23924577e-001
      2.78074265e-001 2.78074265e-001 1.47989288e-001 7.44496658e-002
      7.51606524e-002 7.50836805e-002 8.77530575e-002 1.08512372e-001
      2.61479497e-001 2.78074265e-001 2.16555402e-001 7.30662122e-002
      7.93805271e-002 7.67441690e-002 8.63506198e-002 6.91490769e-002
      7.92686269e-002 2.78074265e-001 2.78074265e-001 2.78074265e-001
      7.29375109e-002 6.05388209e-002 6.62360787e-002 8.62657055e-002
      1.20333210e-001 1.15733281e-001 2.05124542e-001 2.49224812e-001
      2.49224812e-001 1.41832918e-001 8.92400518e-002 9.53087136e-002
      1.08881786e-001 1.64961293e-001 1.45235628e-001 1.37399882e-001
      1.39661014e-001 1.68185934e-001 1.33542225e-001 1.49843201e-001
      1.38866886e-001 1.52070671e-001 1.47061706e-001 1.41366526e-001
      2.42209896e-001 2.49224812e-001 2.49224812e-001 1.11040056e-001
      1.03407323e-001 1.59169808e-001 2.05617160e-001 1.54335022e-001
      1.75800309e-001 1.51338175e-001 1.73679039e-001 1.99314147e-001
      1.17675871e-001 1.59426287e-001 1.65774599e-001 1.65037706e-001</_>
    <_>
      8.07700604e-002 8.39555040e-002 2.34065950e-001 2.60428995e-001
      2.60428995e-001 9.10477191e-002 5.85012399e-002 6.68810979e-002
      7.83141926e-002 1.25916764e-001 1.17304951e-001 1.56059638e-001
      1.94744870e-001 1.86406001e-001 1.16449296e-001 1.35634691e-001
      1.65757164e-001 1.33199498e-001 1.10987745e-001 9.02635679e-002
      1.49950996e-001 2.60428995e-001 2.60428995e-001 1.90454051e-001
      1.22814961e-001 1.17444962e-001 1.15592174e-001 1.94703475e-001
      1.66008264e-001 1.59186170e-001 1.76698968e-001 2.04897940e-001
      1.20880924e-001 1.74790382e-001 2.39105463e-001 2.09279284e-001
      7.96309933e-002 6.59167096e-002 7.74364546e-002 8.42066109e-002
      2.27779984e-001 2.41085842e-001 1.16645761e-001 1.36486053e-001
      9.82152149e-002 6.31360039e-002 7.21525252e-002 1.04769722e-001
      1.61729112e-001 2.74499506e-001 2.74499506e-001 1.77448258e-001
      1.16150327e-001 7.25065842e-002 1.51595950e-001 1.30259320e-001
      1.34008899e-001 1.83314428e-001 2.74499506e-001 1.85368329e-001
      1.21143378e-001 1.73384637e-001 1.42386392e-001 1.08412310e-001
      1.07513703e-001 1.59742430e-001 2.74499506e-001 2.74499506e-001
      2.74499506e-001 1.17947452e-001 1.13721587e-001 7.98553973e-002
      8.69671926e-002 1.10467702e-001 1.23035327e-001 1.64707750e-001
      2.41524458e-001 2.41524458e-001 2.29504436e-001 2.28870824e-001
      1.45906255e-001 1.03935681e-001 8.61083493e-002 8.35056752e-002
      7.33290017e-002 9.03471708e-002 1.05979331e-001 2.21134409e-001
      2.41524458e-001 2.41524458e-001 9.81935263e-002 1.44326493e-001
      1.54474586e-001 2.41524458e-001 2.41524458e-001 2.41524458e-001
      1.26246095e-001 9.34247896e-002 9.47630703e-002 1.41039625e-001
      1.55711308e-001 1.40846089e-001 1.19716823e-001 1.36705279e-001
      1.40441716e-001 1.24944739e-001 1.94637671e-001 2.09317863e-001
      1.03610396e-001 1.02720603e-001 1.17702559e-001 2.30032682e-001
      2.42344290e-001 2.42344290e-001 1.45867363e-001 1.04246631e-001
      1.12503745e-001 1.78557292e-001 1.69320881e-001 1.41217843e-001
      1.79095328e-001 1.68102384e-001 1.21926762e-001 1.56640410e-001
      1.79002523e-001 1.58159450e-001 7.02565238e-002 1.05100885e-001
      1.13244325e-001 1.60824820e-001 2.42344290e-001 2.42344290e-001
      2.42344290e-001 1.50049686e-001 7.91692287e-002 1.21985085e-001
      1.66535467e-001 1.67995736e-001 1.95658833e-001 1.72443956e-001
      1.70251831e-001 1.61858112e-001 1.88123524e-001 1.44553617e-001
      1.53595492e-001 1.30107790e-001 1.38360336e-001 2.74967164e-001
      2.52194613e-001 1.10515602e-001 8.65637362e-002 1.23460442e-001
      9.71861035e-002 1.02932870e-001 8.81104916e-002 1.74240187e-001
      2.76765078e-001 2.76765078e-001 1.44060910e-001 7.21404031e-002
      8.82145688e-002 6.31056949e-002 9.52682346e-002 1.16784602e-001
      2.71654844e-001 2.76765078e-001 2.21899703e-001 7.66015574e-002
      6.06801622e-002 9.40861255e-002 8.68791416e-002 8.63728598e-002
      8.82244259e-002 2.76765078e-001 2.76765078e-001 2.76765078e-001
      7.55392909e-002 5.68634905e-002 6.64848611e-002 8.73471573e-002
      1.20620884e-001 1.39150485e-001 1.73774436e-001 2.45433196e-001
      2.45433196e-001 1.40655756e-001 1.06290281e-001 1.01687625e-001
      9.13315266e-002 1.73011646e-001 1.56089813e-001 1.39670253e-001
      1.43841103e-001 1.41704530e-001 1.46699265e-001 1.07229337e-001
      1.39322340e-001 1.36332586e-001 1.81205153e-001 1.59892410e-001
      2.28368804e-001 2.45433196e-001 2.45433196e-001 1.07615143e-001
      1.30026370e-001 1.39008105e-001 2.10136443e-001 1.92587391e-001
      1.75368294e-001 1.50348976e-001 1.55623659e-001 2.15953469e-001
      1.21101759e-001 1.54469401e-001 1.49139896e-001 1.80384636e-001
      6.48472384e-002 6.74407780e-002 6.70019537e-002 8.64984840e-002
      2.21336678e-001 2.30810523e-001 2.30810523e-001 2.12926000e-001
      7.69323260e-002 1.95745260e-001 2.00344399e-001 1.86873063e-001
      1.79385230e-001 1.35802537e-001 1.89552322e-001 2.24929795e-001
      2.23485753e-001 1.94915220e-001 7.56697953e-002 4.53828126e-002
      2.73259543e-002 4.45830934e-002 1.00624152e-001 1.94583729e-001
      2.03737602e-001 2.11736679e-001 1.15181364e-001 2.30810523e-001
      2.20735610e-001 1.06245540e-001 1.06625207e-001 7.69953579e-002
      1.19652860e-001 1.82739943e-001 2.05088973e-001 2.30750903e-001
      1.43006280e-001 2.10619375e-001 2.56926626e-001 2.56926626e-001
      1.39025182e-001 5.93036674e-002 6.14559203e-002 9.50892642e-002
      1.06658362e-001 1.80245221e-001 1.84620306e-001 2.56926626e-001
      2.56926626e-001 1.90642297e-001 5.40422313e-002 5.52549213e-002
      6.14489652e-002 1.18347093e-001 2.56926626e-001 2.56926626e-001
      2.56788701e-001 2.09247038e-001 5.64241745e-002 3.26495692e-002
      5.68424650e-002 6.97887987e-002 1.16445541e-001 2.56926626e-001
      2.56926626e-001 2.12346897e-001 1.60707250e-001 6.24473020e-002
      2.65293494e-002 5.01376316e-002 5.35712801e-002 1.19487651e-001
      2.51855224e-001 2.11495891e-001 1.59686238e-001 2.10144863e-001
      1.95907280e-001 8.22328106e-002 1.13110684e-001 1.31730631e-001
      2.51855224e-001 2.51855224e-001 1.74798653e-001 9.71757770e-002
      1.05234645e-001 1.53355315e-001 9.74365324e-002 1.82209507e-001
      1.75082982e-001 2.51855224e-001 2.51855224e-001 2.37838209e-001
      8.69097114e-002 6.90151975e-002 7.45342076e-002 3.85518931e-002
      7.43970424e-002 8.37647393e-002 2.51855224e-001 2.51855224e-001
      1.32821694e-001 5.76307401e-002 6.75911754e-002 7.83791617e-002
      5.93227297e-002 1.24416493e-001 1.15181617e-001 2.51855224e-001</_>
    <_>
      1.43776312e-001 8.96584317e-002 5.81215061e-002 3.71844880e-002
      8.20343569e-002 1.24006093e-001 2.54039228e-001 2.54039228e-001
      1.84744030e-001 3.30881812e-002 2.80853584e-002 3.23050246e-002
      3.95004675e-002 9.01874527e-002 1.58738732e-001 2.54039228e-001
      2.54039228e-001 1.14620522e-001 1.13407046e-001 9.55351442e-002
      8.46940875e-002 1.06466338e-001 2.18482360e-001 2.54039228e-001
      2.54039228e-001 2.08002716e-001 1.63533345e-001 6.62244335e-002
      6.20825998e-002 7.51245692e-002 1.07903704e-001 2.54039228e-001
      2.54039228e-001 2.54039228e-001 2.54039228e-001 1.66343853e-001
      4.64180820e-002 5.62399030e-002 5.82860708e-002 6.80757165e-002
      1.02354452e-001 1.54307917e-001 2.31767565e-001 2.82109797e-001
      1.13926336e-001 4.10657227e-002 7.36434683e-002 7.75623918e-002
      9.28935781e-002 8.62397477e-002 9.24696922e-002 8.99500400e-002
      9.30636153e-002 5.98405935e-002 1.39535367e-001 8.50807875e-002
      1.01079203e-001 1.34554133e-001 2.82109797e-001 2.82109797e-001
      2.82109797e-001 2.82109797e-001 2.82109797e-001 1.00637615e-001
      7.77988806e-002 7.99355358e-002 1.14157580e-001 1.16137452e-001
      1.76987126e-001 2.47309625e-001 2.82109797e-001 2.66578972e-001
      8.14110413e-002 1.26309678e-001 1.25499174e-001 1.52145594e-001
      1.66157544e-001 1.54578209e-001 1.34421661e-001 1.35707989e-001
      1.06062420e-001 1.07373610e-001 1.09830603e-001 9.18118358e-002
      1.38036773e-001 1.91583946e-001 1.52262822e-001 1.61039427e-001
      1.59803182e-001 1.09594852e-001 1.98725566e-001 1.54643938e-001
      1.43230915e-001 2.03651011e-001 1.76572472e-001 2.10445002e-001
      2.21633524e-001 2.42944643e-001 2.42944643e-001 2.01981664e-001
      1.51252896e-001 1.51464999e-001 2.42944643e-001 2.04532251e-001
      1.47269934e-001 1.76637620e-001 1.46738946e-001 1.80248752e-001
      7.37498701e-002 6.33628592e-002 7.11860955e-002 1.07003853e-001
      2.24368721e-001 2.37040162e-001 1.30709037e-001 1.08351476e-001
      1.06680289e-001 7.18102455e-002 7.20946416e-002 8.94962028e-002
      1.66039065e-001 2.80319631e-001 2.80319631e-001 1.94545805e-001
      1.13554247e-001 9.15173441e-002 1.65280908e-001 1.00333504e-001
      1.38966322e-001 1.89639077e-001 2.80319631e-001 1.88486695e-001
      1.41650409e-001 1.30234748e-001 9.93708521e-002 1.21945173e-001
      9.40351933e-002 1.56175524e-001 2.80319631e-001 2.80319631e-001
      2.80319631e-001 1.17335111e-001 8.28935280e-002 6.43218383e-002
      1.23353250e-001 8.64985958e-002 1.06087714e-001 1.76557571e-001
      2.45713279e-001 2.45713279e-001 2.17167303e-001 2.45713279e-001
      1.76770583e-001 1.19994059e-001 6.65662661e-002 6.29009977e-002
      1.01207264e-001 1.05141133e-001 9.52528939e-002 2.17734873e-001
      2.45713279e-001 2.45713279e-001 1.10562608e-001 1.12089738e-001
      1.62759170e-001 2.45713279e-001 2.45713279e-001 2.08805099e-001
      1.03612237e-001 7.82506615e-002 1.03037484e-001 1.44908369e-001
      1.20024644e-001 1.22159794e-001 1.51351452e-001 1.65370211e-001
      9.83190611e-002 1.58975884e-001 1.73251435e-001 2.07189709e-001
      1.40530854e-001 7.77860805e-002 6.70188740e-002 8.70020315e-002
      7.95184299e-002 7.35142231e-002 1.61120236e-001 2.42705509e-001
      2.42705509e-001 1.17356747e-001 7.71663487e-002 7.54015297e-002
      1.01944230e-001 9.05615464e-002 6.63142353e-002 8.02272484e-002
      2.22376481e-001 1.76830068e-001 1.87367365e-001 1.77326679e-001
      1.51936725e-001 1.76002473e-001 1.61013201e-001 1.37802571e-001
      1.82558715e-001 2.42705509e-001 2.42705509e-001 1.74695194e-001
      1.65124401e-001 1.16776690e-001 1.43881887e-001 2.19928116e-001
      2.34022647e-001 1.97272405e-001 2.42705509e-001 2.42705509e-001
      1.61121756e-001 1.09967977e-001 1.77245930e-001 2.58396178e-001
      2.73511171e-001 1.19507693e-001 1.09823018e-001 9.10776481e-002
      9.15125832e-002 1.18924171e-001 8.08636695e-002 2.19165355e-001
      2.76763290e-001 2.76763290e-001 1.52857602e-001 7.48799890e-002
      6.27682060e-002 6.59914985e-002 9.19530839e-002 8.67619812e-002
      2.58002490e-001 2.76763290e-001 2.01528773e-001 7.95478895e-002
      6.62454590e-002 7.36929104e-002 8.45588520e-002 9.03342515e-002
      7.83120692e-002 2.76763290e-001 2.76763290e-001 2.76763290e-001
      7.57912546e-002 4.78067063e-002 6.53013214e-002 6.75190166e-002
      1.33029416e-001 1.32579118e-001 2.17673317e-001 2.45433494e-001
      2.45433494e-001 1.46435484e-001 9.68203545e-002 7.28140995e-002
      1.22534558e-001 1.63704634e-001 1.65939271e-001 1.52964652e-001
      1.58915028e-001 1.82227120e-001 1.30634934e-001 1.52217880e-001
      1.07717998e-001 1.66761383e-001 1.75078481e-001 1.58250749e-001
      2.21401349e-001 2.45433494e-001 2.45433494e-001 1.19972803e-001
      9.91059020e-002 1.47650599e-001 1.67494670e-001 1.49531737e-001
      1.81395888e-001 1.70759037e-001 1.64604798e-001 1.69679224e-001
      1.50900409e-001 1.45062178e-001 1.50347769e-001 1.46467403e-001
      1.65880337e-001 1.77907899e-001 1.55212104e-001 1.69798344e-001
      1.65752396e-001 1.58547208e-001 1.55684084e-001 1.45869404e-001
      1.58557147e-001 1.46907464e-001 1.69467956e-001 1.23250581e-001
      2.23891959e-001 2.31634304e-001 2.31634304e-001 2.07861871e-001
      1.84733436e-001 1.43675074e-001 1.33699208e-001 1.52985126e-001
      1.59345940e-001 1.66842312e-001 1.61462799e-001 1.43939331e-001
      1.32690758e-001 1.14717565e-001 9.40898210e-002 1.09422080e-001
      1.44768760e-001 2.07731768e-001 2.31634304e-001 2.31634304e-001
      2.11332679e-001 1.17807195e-001 9.67431739e-002 9.60036293e-002</_>
    <_>
      7.65475184e-002 7.01401457e-002 6.66190907e-002 1.07005954e-001
      2.21568570e-001 2.48419732e-001 1.26635715e-001 9.38554555e-002
      1.07920960e-001 5.84355332e-002 9.38608721e-002 8.42858106e-002
      1.81208178e-001 2.83657461e-001 2.83657461e-001 1.50979504e-001
      1.08434156e-001 7.99735337e-002 1.42166108e-001 1.16645902e-001
      1.28383383e-001 2.11117342e-001 2.83657461e-001 1.68664634e-001
      1.50283173e-001 1.26683518e-001 1.29039034e-001 9.62746888e-002
      1.18360378e-001 1.37172982e-001 2.83657461e-001 2.83657461e-001
      2.83657461e-001 1.19787306e-001 9.11955312e-002 6.28861263e-002
      8.58233571e-002 1.20273784e-001 1.16957173e-001 1.75985351e-001
      2.44507834e-001 2.44507834e-001 1.84559107e-001 2.44507834e-001
      1.59085467e-001 9.68959555e-002 8.04508924e-002 9.44135562e-002
      7.68104717e-002 9.45716798e-002 8.65080431e-002 2.36121014e-001
      2.44507834e-001 2.44507834e-001 9.97991860e-002 1.22191407e-001
      1.62126675e-001 2.44507834e-001 2.44507834e-001 2.21751541e-001
      1.18307255e-001 9.83077809e-002 8.42535421e-002 1.37569427e-001
      1.32298946e-001 1.53684646e-001 1.20775990e-001 1.36874616e-001
      1.30448729e-001 1.77533403e-001 1.78921416e-001 2.12920085e-001
      1.16400674e-001 8.61179754e-002 8.17276984e-002 6.14902563e-002
      8.67544785e-002 6.41950741e-002 1.84661537e-001 2.39547402e-001
      2.39547402e-001 1.15439653e-001 8.90268385e-002 7.75277987e-002
      8.12103897e-002 1.13430478e-001 6.24672472e-002 9.12434980e-002
      2.01856181e-001 1.79157540e-001 1.92332610e-001 1.71461090e-001
      1.53599814e-001 1.75942034e-001 1.60696432e-001 1.38654917e-001
      1.99451923e-001 2.39547402e-001 2.39547402e-001 1.93945616e-001
      1.33011147e-001 1.13262549e-001 1.76018357e-001 2.31609911e-001
      2.08594695e-001 2.05665946e-001 2.39547402e-001 2.39547402e-001
      1.19351067e-001 1.14759386e-001 1.56460598e-001 2.63513625e-001
      2.53326088e-001 1.09043412e-001 1.08768739e-001 1.04092441e-001
      9.19992179e-002 9.20199677e-002 8.95009190e-002 1.86038777e-001
      2.81470329e-001 2.81470329e-001 1.55384615e-001 8.44848230e-002
      7.21055344e-002 5.90091906e-002 8.45692530e-002 1.02774940e-001
      2.81470329e-001 2.81470329e-001 1.97118893e-001 7.88661242e-002
      7.54669979e-002 8.17370787e-002 9.05342326e-002 9.25379023e-002
      9.38779637e-002 2.81470329e-001 2.81470329e-001 2.81470329e-001
      8.23401734e-002 5.28937355e-002 6.74832761e-002 9.03187022e-002
      1.22607484e-001 1.17958024e-001 1.84276789e-001 2.41006002e-001
      2.41006002e-001 1.51205376e-001 9.17530209e-002 9.25965011e-002
      1.04626544e-001 1.61086679e-001 1.48185357e-001 1.25931725e-001
      1.47796124e-001 1.75777942e-001 1.45155370e-001 1.25289127e-001
      1.10422671e-001 1.67411476e-001 1.96890265e-001 1.72664821e-001
      2.41006002e-001 2.41006002e-001 2.41006002e-001 1.31480962e-001
      1.09686069e-001 1.38345346e-001 2.00644031e-001 1.92346096e-001
      1.87303260e-001 1.35142773e-001 1.69243008e-001 1.85021684e-001
      1.53626695e-001 1.56621888e-001 1.29739657e-001 1.56497970e-001
      1.63026839e-001 1.45670742e-001 1.32135540e-001 1.86760575e-001
      1.70612663e-001 1.40995190e-001 1.52866066e-001 1.32448927e-001
      1.75767511e-001 1.51561931e-001 1.19120516e-001 1.20012283e-001
      2.29802087e-001 2.29802087e-001 2.29802087e-001 1.95809335e-001
      1.80468902e-001 1.47333130e-001 1.50728732e-001 1.70213535e-001
      1.64421052e-001 1.53880745e-001 1.75377741e-001 1.45071745e-001
      1.32239267e-001 9.84857082e-002 1.15605809e-001 1.27832264e-001
      1.53181106e-001 2.29802087e-001 2.29802087e-001 2.29802087e-001
      2.12954566e-001 1.13206394e-001 1.06772743e-001 1.07734762e-001
      1.52568370e-001 1.86846599e-001 2.61297613e-001 2.61297613e-001
      1.16747893e-001 5.62983118e-002 7.12571740e-002 7.95609504e-002
      1.10052183e-001 1.76610619e-001 2.00522438e-001 2.61297613e-001
      2.61297613e-001 1.54976740e-001 6.01285137e-002 4.80714515e-002
      6.47905916e-002 1.24812506e-001 2.61297613e-001 2.61297613e-001
      2.61297613e-001 2.01042593e-001 5.58229126e-002 4.42654602e-002
      4.80127595e-002 6.52357116e-002 1.27856612e-001 2.57069439e-001
      2.61297613e-001 2.10664526e-001 1.55327633e-001 6.05836660e-002
      4.20048945e-002 3.64738330e-002 5.45142516e-002 1.37183681e-001
      2.52292246e-001 2.24244028e-001 1.71748534e-001 1.99132651e-001
      1.38471782e-001 1.07079692e-001 9.87640098e-002 1.51967898e-001
      2.52292246e-001 2.52292246e-001 1.77816883e-001 9.45715234e-002
      1.04389913e-001 1.13282613e-001 1.35868028e-001 1.73512846e-001
      1.92438930e-001 2.52292246e-001 2.52292246e-001 2.37319648e-001
      7.83558190e-002 5.86250499e-002 7.30584636e-002 5.85592650e-002
      5.40336519e-002 1.03826240e-001 2.52292246e-001 2.52292246e-001
      1.22231141e-001 5.07218167e-002 6.31939471e-002 7.78919235e-002
      7.97059461e-002 1.03179798e-001 1.50044039e-001 2.52292246e-001
      2.38033652e-001 2.38033652e-001 1.72604069e-001 1.31597623e-001
      1.32816985e-001 1.43921807e-001 1.54798150e-001 1.44437566e-001
      2.38033652e-001 2.04939827e-001 2.38033652e-001 2.38033652e-001
      2.38033652e-001 1.69477418e-001 1.18757896e-001 8.79687667e-002
      9.98684615e-002 1.33868039e-001 2.38033652e-001 1.73023120e-001
      1.07621074e-001 1.02876849e-001 9.43458825e-002 8.86109471e-002
      1.03452973e-001 1.41282976e-001 2.38033652e-001 1.91814631e-001
      2.05292791e-001 2.14988798e-001 1.36520535e-001 9.96398106e-002
      7.35371262e-002 7.87390172e-002 9.70146880e-002 1.39032736e-001</_>
    <_>
      1.98860899e-001 1.65655866e-001 1.41988382e-001 7.84798786e-002
      8.98005441e-002 8.85076150e-002 1.05019920e-001 1.32209897e-001
      2.21620500e-001 2.12877035e-001 2.85317749e-001 2.85317749e-001
      8.53191167e-002 8.36682096e-002 7.15947598e-002 5.91645725e-002
      9.02364179e-002 1.80432141e-001 1.55676633e-001 2.54184961e-001
      2.85317749e-001 2.17526779e-001 1.10546507e-001 1.00807942e-001
      7.58349895e-002 9.54002738e-002 1.75239235e-001 1.66168958e-001
      2.85317749e-001 2.85317749e-001 2.15373069e-001 5.28575778e-002
      3.40187028e-002 2.49340292e-002 3.91056202e-002 1.00801237e-001
      2.71847367e-001 3.25485498e-001 2.70699531e-001 4.79843430e-002
      5.57211936e-002 4.77648452e-002 3.58762704e-002 6.08563460e-002
      1.05410174e-001 3.25485498e-001 3.25485498e-001 1.86380103e-001
      2.54333895e-002 3.13498601e-002 2.86302865e-002 3.48885693e-002
      5.73041365e-002 1.15813211e-001 1.53960183e-001 3.25485498e-001
      3.25485498e-001 1.02641754e-001 4.55254801e-002 2.65537947e-002
      1.32229617e-002 1.95955224e-002 3.41053754e-002 2.27474153e-001
      3.25485498e-001 1.83106124e-001 6.68143183e-002 3.83135974e-002
      3.33691873e-002 3.17616463e-002 3.32558788e-002 4.31394279e-002
      3.35969031e-001 3.35969031e-001 8.64689797e-002 2.80546956e-002
      2.95094401e-002 2.04376914e-002 3.00806500e-002 5.58440126e-002
      1.64499924e-001 3.35969031e-001 2.90989280e-001 6.85408488e-002
      2.69970261e-002 3.31551284e-002 9.91882477e-003 1.78501699e-002
      4.98610027e-002 2.93556094e-001 3.04350644e-001 2.81850010e-001
      1.42515644e-001 8.34927782e-002 4.81897593e-002 3.45187299e-002
      3.83910462e-002 4.40446548e-002 8.24631825e-002 3.35969031e-001
      2.49300972e-001 1.50930986e-001 6.76913112e-002 5.08774258e-002
      2.67356653e-002 2.40343735e-002 4.59911264e-002 1.25059262e-001
      6.92757592e-002 1.59611076e-001 3.04050595e-001 3.04050595e-001
      1.82122633e-001 7.56039023e-002 3.11598647e-002 2.61212699e-002
      6.02137223e-002 5.37917726e-002 2.08061978e-001 3.04050595e-001
      3.04050595e-001 9.71762910e-002 3.05713378e-002 1.50488829e-002
      1.04851490e-002 2.38597021e-002 3.81221659e-002 4.91244607e-002
      2.02524051e-001 3.04050595e-001 3.04050595e-001 1.87860772e-001
      4.57150452e-002 1.66888740e-002 3.57621349e-002 1.16742924e-002
      2.60627642e-002 1.76159427e-001 3.04050595e-001 2.90874392e-001
      1.24265984e-001 4.29956019e-002 1.65228005e-002 9.41667054e-003
      1.09523654e-001 2.65082300e-001 2.65082300e-001 2.65082300e-001
      1.58746287e-001 9.48519185e-002 5.42829372e-002 4.19503562e-002
      5.77840470e-002 1.27653226e-001 2.63578832e-001 2.30518535e-001
      2.54943371e-001 1.78131297e-001 9.76940840e-002 7.09396303e-002
      6.29436895e-002 7.07837939e-002 4.18764763e-002 6.89505711e-002
      2.04253450e-001 2.65082300e-001 2.65082300e-001 1.74960867e-001
      1.02027312e-001 5.28913289e-002 4.57606986e-002 7.16736987e-002
      9.77584124e-002 1.85285091e-001 2.65082300e-001 2.65082300e-001
      1.73179060e-001 1.03152715e-001 6.07781857e-002 6.75222427e-002
      1.94226459e-001 2.02158928e-001 2.01512158e-001 1.98253423e-001
      1.60415664e-001 8.95095840e-002 7.85786062e-002 6.34161681e-002
      1.00304380e-001 2.26402432e-001 2.26402432e-001 2.04084933e-001
      1.40255183e-001 1.70981020e-001 1.26447350e-001 9.23496112e-002
      1.23285659e-001 1.98585868e-001 1.05003357e-001 9.63421911e-002
      1.23627916e-001 1.75432026e-001 2.20317110e-001 1.66422933e-001
      1.20093420e-001 9.92502570e-002 8.81637037e-002 2.23108366e-001
      1.37951896e-001 1.36017799e-001 1.59542069e-001 2.26402432e-001
      2.26402432e-001 1.82954609e-001 1.95822120e-001 2.26402432e-001
      3.43691893e-002 3.60673293e-002 4.18029800e-002 1.61504939e-001
      2.95938313e-001 2.95938313e-001 2.10939750e-001 4.34183218e-002
      4.70000580e-002 8.49719252e-003 8.91343597e-003 3.77046764e-002
      1.03406556e-001 2.85797417e-001 2.95938313e-001 1.49280533e-001
      4.07661200e-002 1.30587248e-002 8.19458887e-002 5.65756373e-002
      4.80059385e-002 6.16410263e-002 2.14583576e-001 2.95938313e-001
      2.95938313e-001 1.72132328e-001 1.05252661e-001 1.41911991e-002
      1.09998649e-002 1.66130643e-002 3.09347194e-002 1.44973740e-001
      2.95938313e-001 2.95938313e-001 2.44320229e-001 4.45059165e-002
      3.76721546e-002 4.43773270e-002 1.08580165e-001 1.45822063e-001
      2.56721020e-001 2.49166697e-001 1.72718808e-001 1.04759783e-001
      5.79151139e-002 5.33267930e-002 8.40568244e-002 1.20914727e-001
      1.95882410e-001 2.55865186e-001 2.12682843e-001 1.61943242e-001
      1.27542853e-001 9.51438397e-002 3.97683494e-002 4.81206663e-002
      5.08636497e-002 7.17075095e-002 1.75075307e-001 2.68398315e-001
      2.68398315e-001 2.68398315e-001 1.27553552e-001 6.60167485e-002
      9.40529257e-002 7.32434094e-002 1.01735748e-001 2.09350839e-001
      2.06032559e-001 2.68398315e-001 2.68398315e-001 1.72185495e-001
      6.93639964e-002 8.84035453e-002 1.01540260e-001 1.23987615e-001
      1.87013626e-001 1.99933141e-001 1.58585414e-001 1.54827431e-001
      1.11020155e-001 1.88235283e-001 1.52132481e-001 1.81326956e-001
      1.59633085e-001 1.90172657e-001 2.26336345e-001 1.76658839e-001
      1.97935358e-001 2.03294948e-001 7.43773580e-002 6.95514381e-002
      6.79409206e-002 7.94033483e-002 1.62613899e-001 1.88193306e-001
      2.26336345e-001 2.26336345e-001 1.87025696e-001 1.47774249e-001
      1.01288751e-001 1.28978267e-001 9.62849930e-002 1.61799610e-001
      2.22276166e-001 2.24401101e-001 2.26336345e-001 2.26336345e-001</_>
    <_>
      2.85387188e-001 3.25311393e-001 2.71316111e-001 4.35433611e-002
      5.42595983e-002 5.11578657e-002 3.45452167e-002 5.70041835e-002
      9.97123718e-002 3.25311393e-001 3.25311393e-001 1.92826122e-001
      2.52493974e-002 3.50981802e-002 2.33830009e-002 3.21856290e-002
      5.81880063e-002 1.06965311e-001 1.51795313e-001 3.25311393e-001
      3.25311393e-001 9.76584107e-002 4.81717288e-002 2.66549606e-002
      1.37069570e-002 1.65609587e-002 3.99612188e-002 2.15033337e-001
      3.25311393e-001 1.85724944e-001 6.41953200e-002 4.84426208e-002
      2.91092247e-002 2.72442792e-002 3.96166667e-002 3.73246931e-002
      3.42697114e-001 3.42697114e-001 9.06726867e-002 3.47092822e-002
      2.97807101e-002 1.65320076e-002 2.45881248e-002 6.48401901e-002
      1.60568669e-001 3.42697114e-001 2.93528557e-001 6.85525835e-002
      3.49860117e-002 2.66758539e-002 1.11640673e-002 1.25812879e-002
      4.80365045e-002 2.92526215e-001 2.99305797e-001 2.73827255e-001
      1.41892239e-001 8.69526416e-002 5.08314781e-002 3.22255753e-002
      3.17951255e-002 5.79707175e-002 7.87653923e-002 3.42697114e-001
      2.34486848e-001 1.36936799e-001 7.84844682e-002 3.91821004e-002
      1.87523551e-002 2.60499381e-002 4.38222438e-002 1.17635190e-001
      3.43502164e-001 1.82042703e-001 4.97229733e-002 1.76733360e-002
      2.45358758e-002 7.09482748e-003 1.07270516e-002 5.36115319e-002
      3.43502164e-001 3.43502164e-001 1.16593935e-001 2.78678816e-002
      1.24858962e-002 1.56040043e-002 6.47671288e-003 2.69953962e-002
      1.47335857e-001 3.43502164e-001 3.09112608e-001 2.17558146e-001
      9.08852890e-002 4.49890643e-002 2.38524824e-002 2.03394610e-002
      2.38258764e-002 4.87249307e-002 1.63978949e-001 3.43502164e-001
      1.61105618e-001 8.31737742e-002 5.45919314e-002 3.22921574e-002
      2.32700370e-002 3.66172008e-002 9.71856415e-002 3.12380493e-001
      1.10511877e-001 2.65194863e-001 2.65194863e-001 2.65194863e-001
      1.76087871e-001 7.87678286e-002 5.70274778e-002 4.80563231e-002
      8.21120888e-002 1.20039292e-001 2.51781613e-001 2.47819379e-001
      2.36908376e-001 1.94554970e-001 8.43557641e-002 7.11563230e-002
      8.41869116e-002 7.87435174e-002 5.52216694e-002 7.21623674e-002
      1.97071239e-001 2.65194863e-001 2.65194863e-001 1.47014230e-001
      1.10997513e-001 5.76026849e-002 5.97936139e-002 7.87983462e-002
      8.26272219e-002 1.96739495e-001 2.65194863e-001 2.65194863e-001
      1.55146822e-001 1.08218707e-001 6.23193048e-002 7.30217174e-002
      2.06030980e-001 2.06926733e-001 2.25476414e-001 2.16970757e-001
      1.72783285e-001 7.56345466e-002 7.03304410e-002 1.02033108e-001
      1.27550885e-001 2.26369426e-001 2.26369426e-001 2.00568661e-001
      1.56201035e-001 1.42084271e-001 7.62742683e-002 1.04410306e-001
      1.45715311e-001 2.01125041e-001 1.12280548e-001 1.02333367e-001
      1.35082155e-001 2.05922678e-001 2.26369426e-001 1.36436880e-001
      1.05113998e-001 1.19202986e-001 1.02646708e-001 1.96078867e-001
      1.49376735e-001 1.37852862e-001 1.61869898e-001 1.78004876e-001
      2.02242181e-001 1.77033365e-001 2.12539062e-001 1.92870200e-001
      2.26894364e-001 2.26894364e-001 1.55954897e-001 9.64548588e-002
      7.95421600e-002 7.28462040e-002 9.57297310e-002 1.16628513e-001
      1.80765301e-001 2.26894364e-001 2.26894364e-001 1.64774373e-001
      1.27182975e-001 9.20546129e-002 8.04056972e-002 8.85479823e-002
      1.09107696e-001 2.26894364e-001 1.91837013e-001 1.55755624e-001
      1.50996834e-001 1.06069796e-001 1.02448493e-001 1.29153937e-001
      1.65026262e-001 1.88919649e-001 2.13406906e-001 2.26894364e-001
      2.26894364e-001 2.26523459e-001 1.56932846e-001 1.17962532e-001
      1.10624500e-001 1.74404517e-001 2.09537372e-001 2.26894364e-001
      5.35604693e-002 5.76416478e-002 1.06328800e-001 1.53835952e-001
      2.29918614e-001 2.35688880e-001 1.95024699e-001 9.84462276e-002
      6.31420612e-002 6.27641231e-002 7.09094107e-002 1.30337492e-001
      2.04402238e-001 2.17543915e-001 2.34166458e-001 1.72354266e-001
      1.09460786e-001 9.15745422e-002 7.17294514e-002 6.44595027e-002
      6.07892573e-002 7.50602111e-002 1.82493910e-001 2.72230387e-001
      2.72230387e-001 2.72230387e-001 1.49523914e-001 8.36347938e-002
      7.96182379e-002 7.43518844e-002 1.10107079e-001 1.65596962e-001
      2.14737445e-001 2.72230387e-001 2.72230387e-001 1.63295418e-001
      7.77753443e-002 8.15759003e-002 1.10765308e-001 1.54690310e-001
      1.92458227e-001 2.16396779e-001 1.64678723e-001 1.52497947e-001
      1.10758990e-001 1.62704960e-001 1.37294054e-001 1.78930968e-001
      1.55881330e-001 1.49524495e-001 2.22524852e-001 1.88611135e-001
      1.90643296e-001 1.62390977e-001 8.74402076e-002 6.47783652e-002
      7.16570988e-002 8.89133811e-002 1.61011949e-001 2.23594785e-001
      2.32396945e-001 2.32396945e-001 1.99682444e-001 1.27454638e-001
      1.04441382e-001 1.24684893e-001 9.10802856e-002 1.67963684e-001
      2.01345548e-001 2.32396945e-001 2.32396945e-001 2.32396945e-001
      1.72698036e-001 1.26890391e-001 1.79302767e-001 1.03871107e-001
      8.61372724e-002 1.49365574e-001 1.85238644e-001 1.72940597e-001
      2.04484075e-001 2.23747641e-001 1.71722353e-001 2.12690264e-001
      1.24702960e-001 1.11393400e-001 1.14903629e-001 2.02111706e-001
      2.09911361e-001 2.23747641e-001 1.62764251e-001 9.26990137e-002
      1.09276034e-001 6.60348460e-002 1.26227051e-001 1.68407008e-001
      2.23747641e-001 2.07075045e-001 2.06667557e-001 2.23747641e-001
      1.31998464e-001 9.46932957e-002 6.14359453e-002 1.15492918e-001
      1.05687894e-001 2.22064957e-001 1.91729486e-001 2.23747641e-001</_>
    <_>
      1.11271985e-001 2.58367091e-001 2.58367091e-001 2.58367091e-001
      2.10473120e-001 9.83951762e-002 6.32855371e-002 5.33294119e-002
      7.81844929e-002 1.16353944e-001 2.02712819e-001 2.25059316e-001
      2.58367091e-001 2.29274780e-001 9.44885537e-002 7.60916248e-002
      7.57776350e-002 8.17203075e-002 5.51667400e-002 7.07615092e-002
      1.71464711e-001 2.58367091e-001 2.58367091e-001 1.80162355e-001
      1.10504337e-001 8.02425593e-002 5.59015870e-002 7.76409730e-002
      9.08860043e-002 1.86980978e-001 2.58367091e-001 2.58367091e-001
      1.82299465e-001 1.18842497e-001 7.55622908e-002 7.12521747e-002
      1.88952938e-001 1.98501036e-001 1.94173217e-001 2.24311784e-001
      1.81545928e-001 7.84655958e-002 7.54897445e-002 9.81540978e-002
      1.18236825e-001 2.24311784e-001 2.24311784e-001 1.79569498e-001
      1.58807352e-001 1.62995324e-001 9.19929147e-002 1.19409382e-001
      1.62807047e-001 2.09395900e-001 1.05475061e-001 1.12305336e-001
      1.19024791e-001 1.93997025e-001 2.21882045e-001 1.61325350e-001
      1.03966534e-001 1.17649086e-001 1.02598697e-001 1.89356998e-001
      1.43573865e-001 1.34383634e-001 1.56851754e-001 1.95626721e-001
      2.24311784e-001 1.75409272e-001 2.09470734e-001 2.00324878e-001
      2.24072605e-001 2.13452578e-001 1.53301358e-001 8.73713940e-002
      1.01048797e-001 8.29752758e-002 1.02930062e-001 1.27057090e-001
      1.94783583e-001 2.25824028e-001 2.25824028e-001 1.68443978e-001
      1.17818058e-001 9.69413966e-002 9.43919867e-002 9.73018259e-002
      1.06657818e-001 2.25824028e-001 1.82248175e-001 1.29883856e-001
      1.62977785e-001 1.08432092e-001 1.11325189e-001 1.40570134e-001
      1.63232580e-001 1.88336059e-001 2.17527330e-001 2.25824028e-001
      2.16588512e-001 2.25824028e-001 1.52380303e-001 1.25560090e-001
      1.33467317e-001 1.68680623e-001 1.98811114e-001 2.25824028e-001
      5.41514307e-002 5.52732907e-002 8.52807611e-002 1.47159517e-001
      2.11184129e-001 2.44981289e-001 2.07715839e-001 1.25975788e-001
      6.48808107e-002 6.05851412e-002 6.67845830e-002 1.11779928e-001
      1.89368084e-001 1.97076842e-001 2.25144580e-001 1.75473228e-001
      1.27741367e-001 8.75762403e-002 6.79443032e-002 5.37427925e-002
      4.99218367e-002 7.16394559e-002 1.47166282e-001 2.68439502e-001
      2.91965783e-001 2.91965783e-001 1.73361748e-001 8.87043476e-002
      7.40928948e-002 6.60256594e-002 1.02321714e-001 1.34279281e-001
      1.81086138e-001 2.91965783e-001 2.91965783e-001 1.86132729e-001
      7.32262507e-002 8.72120634e-002 9.89463478e-002 1.45051837e-001
      1.91725552e-001 2.17395604e-001 1.66226670e-001 1.64784893e-001
      1.17721744e-001 1.49829626e-001 1.46518946e-001 1.75382495e-001
      1.45548686e-001 1.65323809e-001 2.17431232e-001 1.90062523e-001
      1.81557447e-001 1.75400406e-001 9.76192504e-002 7.04226121e-002
      6.53030798e-002 8.51288140e-002 1.39516532e-001 2.05491930e-001
      2.38139659e-001 2.38139659e-001 2.25682497e-001 1.23797774e-001
      1.03584550e-001 1.02361321e-001 7.47579634e-002 1.62583828e-001
      2.00261757e-001 2.38139659e-001 2.38139659e-001 2.38139659e-001
      1.59292907e-001 1.16862237e-001 1.90718308e-001 1.02607101e-001
      9.44903716e-002 1.56474903e-001 1.92501426e-001 1.67502746e-001
      1.94596037e-001 2.25255564e-001 1.52423263e-001 2.14905158e-001
      1.18531637e-001 1.19477592e-001 1.25181407e-001 1.89540282e-001
      1.91032648e-001 2.25890502e-001 1.59286842e-001 9.04455706e-002
      9.07230899e-002 5.39248325e-002 1.26094267e-001 1.68896854e-001
      2.25890502e-001 2.25890502e-001 2.25890502e-001 2.25890502e-001
      1.43833473e-001 8.55066031e-002 5.24749793e-002 1.03201397e-001
      1.16756566e-001 2.15035573e-001 2.05649793e-001 2.25890502e-001
      3.39695923e-002 1.47306677e-002 1.60271134e-002 1.53243830e-002
      2.40091216e-002 5.69523498e-002 3.29324991e-001 3.29324991e-001
      1.71716034e-001 4.99206334e-002 1.86550468e-002 1.16869919e-002
      1.53007070e-002 2.60370690e-002 3.53100523e-002 1.52391657e-001
      3.29324991e-001 2.51741707e-001 1.34828985e-001 1.07300974e-001
      8.86461958e-002 5.48414513e-002 5.99847585e-002 4.36093621e-002
      1.86507717e-001 3.29324991e-001 2.83643842e-001 1.42201513e-001
      7.29765743e-002 4.67007421e-002 2.39899643e-002 5.76747023e-002
      5.72876409e-002 1.51226953e-001 3.29324991e-001 3.29324991e-001
      6.43584803e-002 1.79853681e-002 1.20140035e-002 1.22067574e-002
      2.31795777e-002 4.12326790e-002 9.45750922e-002 2.89701551e-001
      2.92465836e-001 1.13913596e-001 1.89165231e-002 1.30252624e-002
      1.62488185e-002 4.01682071e-002 5.09573668e-002 9.17134285e-002
      2.04681456e-001 3.49765271e-001 1.94455028e-001 4.39335145e-002
      2.81723123e-002 1.24554299e-002 2.93107498e-002 4.11783196e-002
      1.00660972e-001 3.54061902e-001 3.54061902e-001 3.54061902e-001
      5.20304032e-002 1.57729611e-002 1.60727203e-002 2.54331268e-002
      2.74260677e-002 4.40162122e-002 2.43042782e-001 3.54061902e-001
      2.00752556e-001 3.37107815e-002 1.20185688e-002 1.52150970e-002
      4.14013453e-002 3.98158729e-002 6.77540898e-002 1.45258799e-001
      3.13087493e-001 3.46267819e-001 9.75824445e-002 1.47533081e-002
      1.81845389e-002 2.77963802e-002 2.70915572e-002 6.41921088e-002
      1.21141918e-001 2.92654604e-001 3.63287389e-001 5.90585507e-002
      1.32992417e-002 1.45156076e-002 2.45990753e-002 1.79341603e-002
      2.98648831e-002 1.29121393e-001 3.63287389e-001 3.63287389e-001
      1.65790841e-001 2.06333529e-002 1.95735358e-002 2.18305010e-002
      1.13011254e-002 3.28646414e-002 1.06602192e-001 3.63287389e-001</_>
    <_>
      3.62266153e-001 1.45866230e-001 2.60943454e-002 1.37265883e-002
      3.13857086e-002 3.21762748e-002 4.87342849e-002 1.64373606e-001
      3.62266153e-001 3.62266153e-001 5.88401929e-002 1.80282630e-002
      1.27333328e-002 3.79153155e-002 3.91497239e-002 8.14268067e-002
      3.16428661e-001 3.62266153e-001 1.93841830e-001 8.57945830e-002
      4.66811955e-002 3.09186559e-002 5.87383211e-002 8.34806710e-002
      1.11175604e-001 1.79314137e-001 2.29857042e-001 1.15603596e-001
      5.00228703e-002 3.20919231e-002 3.63609605e-002 7.49608204e-002
      1.01987228e-001 1.38240784e-001 2.24950150e-001 2.10728481e-001
      1.94964334e-001 4.24544811e-002 1.86594352e-002 1.67616624e-002
      3.00691817e-002 4.58290614e-002 1.14330731e-001 3.51560414e-001
      3.51560414e-001 1.09539561e-001 7.32024983e-002 4.55407090e-002
      3.31115387e-002 5.30461743e-002 5.92531003e-002 2.32773885e-001
      3.51560414e-001 3.51560414e-001 6.19544759e-002 3.37523818e-002
      2.40097046e-002 3.90284434e-002 5.51613420e-002 1.02485426e-001
      1.40067115e-001 2.43246481e-001 1.78994536e-001 4.10245359e-002
      3.46569680e-002 3.10164578e-002 4.65505794e-002 6.01180829e-002
      1.05847217e-001 2.55691260e-001 3.51560414e-001 1.52643353e-001
      8.34964961e-002 7.04906434e-002 5.39853312e-002 3.89072448e-002
      5.31697646e-002 6.66486248e-002 3.01703483e-001 3.01703483e-001
      1.94763526e-001 1.00013420e-001 7.06000030e-002 6.18158318e-002
      6.85157403e-002 9.20872986e-002 1.25413433e-001 3.01703483e-001
      2.89639443e-001 1.31065264e-001 2.13016365e-002 1.35530746e-002
      1.70422941e-002 2.09881179e-002 7.14391023e-002 1.76022381e-001
      3.01703483e-001 3.01703483e-001 7.63273463e-002 7.41868019e-002
      4.20582816e-002 3.78235355e-002 4.55517396e-002 1.65230587e-001
      3.01703483e-001 3.01703483e-001 2.43249595e-001 9.44873840e-002
      2.18733042e-001 1.78080410e-001 1.23364665e-001 1.31280795e-001
      1.16221458e-001 1.44927397e-001 1.69768140e-001 2.02498913e-001
      2.14122146e-001 1.77487269e-001 1.23789102e-001 8.88300240e-002
      1.10792138e-001 1.68418899e-001 1.72165275e-001 1.84662431e-001
      1.75004318e-001 1.65507898e-001 2.21760139e-001 2.21760139e-001
      1.52069286e-001 1.79742619e-001 1.51600182e-001 1.19711466e-001
      1.12946935e-001 1.31679773e-001 2.21760139e-001 2.21760139e-001
      1.65143713e-001 1.30939707e-001 1.32782519e-001 2.13256031e-001
      1.67312369e-001 1.49047121e-001 1.05985537e-001 1.73057884e-001
      9.86289456e-002 9.32224467e-002 9.67402086e-002 1.73216999e-001
      1.84974074e-001 2.06382573e-001 2.31060341e-001 1.88636869e-001
      1.14771016e-001 5.14017045e-002 6.97583482e-002 1.25671700e-001
      2.22325131e-001 2.23012015e-001 2.30550796e-001 2.34042361e-001
      1.95286423e-001 8.61951485e-002 1.90652698e-001 1.19986303e-001
      1.67180911e-001 2.34042361e-001 2.34042361e-001 1.60145819e-001
      1.69584811e-001 9.92118120e-002 9.72488970e-002 7.75684044e-002
      1.12499326e-001 2.34042361e-001 2.34042361e-001 2.34042361e-001
      1.51089549e-001 1.02943525e-001 5.65083288e-002 5.82586899e-002
      1.57351177e-002 1.59669127e-002 4.66342717e-002 8.56215507e-002
      1.84532031e-001 2.52259821e-001 2.24638611e-001 9.99906361e-002
      2.27478854e-002 5.26650883e-002 3.18666324e-002 4.80034649e-002
      1.67889580e-001 2.95097768e-001 2.95097768e-001 2.95097768e-001
      9.89997536e-002 5.00116237e-002 2.29091141e-002 6.54813424e-002
      2.37410069e-001 2.95097768e-001 1.93692386e-001 1.14143059e-001
      3.75507623e-002 1.54031534e-002 1.29756909e-002 4.17497493e-002
      7.83989653e-002 2.95097768e-001 2.95097768e-001 2.95097768e-001
      2.17117295e-001 4.76058275e-002 2.26763859e-002 2.94851474e-002
      2.77528793e-001 1.95849478e-001 9.23187211e-002 6.93696886e-002
      6.31622747e-002 3.52916718e-002 3.38907391e-002 5.10319248e-002
      1.60799980e-001 2.65800267e-001 1.83537394e-001 1.31151587e-001
      8.10974464e-002 8.65671784e-002 5.39949015e-002 3.59122828e-002
      3.82389054e-002 1.09493271e-001 3.45440358e-001 2.29676530e-001
      5.33102602e-002 2.39761434e-002 4.33823131e-002 1.44361379e-002
      2.16942765e-002 1.14318170e-001 3.45440358e-001 3.45440358e-001
      3.36196244e-001 9.96729881e-002 4.66824658e-002 5.07551543e-002
      2.07955614e-002 1.56385005e-002 4.70931679e-002 3.45440358e-001
      2.00456008e-001 1.57346189e-001 1.32451460e-001 1.06716722e-001
      8.77066553e-002 4.93113138e-002 3.99274863e-002 3.48193757e-002
      6.63812160e-002 1.20337963e-001 3.50845784e-001 2.39529476e-001
      1.28396705e-001 8.78207088e-002 3.84773314e-002 3.17634009e-002
      2.85716355e-002 3.81958187e-002 3.50845784e-001 3.50845784e-001
      1.15773663e-001 4.79944572e-002 3.85362394e-002 2.78612692e-002
      2.80507058e-002 5.07182106e-002 1.88261136e-001 3.50845784e-001
      3.50845784e-001 2.99382031e-001 5.42701818e-002 4.23642844e-002
      4.71692532e-002 3.98070104e-002 6.72280043e-002 9.76442471e-002
      7.34106600e-002 2.88088679e-001 2.88088679e-001 2.18673348e-001
      6.76641911e-002 2.91429963e-002 1.87564418e-002 1.48535026e-002
      2.42876690e-002 8.78670663e-002 2.12217778e-001 2.88088679e-001
      2.88088679e-001 1.23925753e-001 6.69558719e-002 3.52297761e-002
      3.76914367e-002 7.07251057e-002 2.18631282e-001 2.88088679e-001
      2.88088679e-001 8.79370049e-002 5.63069955e-002 4.81435582e-002
      4.33116071e-002 6.15011342e-002 8.10327008e-002 2.00358018e-001
      2.78377801e-001 2.88088679e-001 1.22313678e-001 1.02183491e-001
      9.19516087e-002 8.88065845e-002 1.13974355e-001 1.74585059e-001</_>
    <_>
      1.94943562e-001 2.20444724e-001 2.06416160e-001 2.04796612e-001
      2.20444724e-001 2.20444724e-001 1.66703016e-001 1.94044590e-001
      2.11678326e-001 1.83058381e-001 1.50587693e-001 1.32789135e-001
      2.12926820e-001 2.01376021e-001 1.42153859e-001 1.37511611e-001
      2.02298209e-001 2.12530166e-001 1.39844537e-001 1.62431881e-001
      1.37497857e-001 1.39069453e-001 1.96180135e-001 2.20444724e-001
      1.86857045e-001 1.53053433e-001 1.29338562e-001 1.25688419e-001
      8.93850476e-002 8.28975961e-002 1.18488617e-001 1.46651983e-001
      6.35902882e-002 5.01322672e-002 6.27053082e-002 1.06075473e-001
      1.08665898e-001 1.00307353e-001 1.36836454e-001 1.37249231e-001
      1.11177012e-001 7.01695085e-002 6.22108355e-002 8.41304287e-002
      9.82893929e-002 1.45364508e-001 2.84576207e-001 3.49002481e-001
      2.64295459e-001 1.24500498e-001 8.10487792e-002 8.00572187e-002
      7.90372938e-002 8.57303217e-002 6.28260523e-002 6.48894683e-002
      1.68529987e-001 3.49002481e-001 1.92288637e-001 4.05020602e-002
      3.03000882e-002 3.78711820e-002 4.74382490e-002 7.34283924e-002
      1.53476343e-001 3.49002481e-001 3.49002481e-001 2.67253160e-001
      8.74939710e-002 7.89028034e-002 4.40915264e-002 4.42952178e-002
      2.23417282e-001 2.57038683e-001 2.57038683e-001 1.28238767e-001
      7.85727352e-002 7.73114190e-002 1.27260596e-001 1.29945517e-001
      1.83746710e-001 1.52701557e-001 1.23904645e-001 7.19457865e-002
      5.97602315e-002 1.13126397e-001 2.51013756e-001 2.57038683e-001
      2.24944577e-001 2.05522954e-001 7.64932334e-002 1.28026694e-001
      2.57038683e-001 2.57038683e-001 1.46233648e-001 1.23782061e-001
      1.22434132e-001 6.35353252e-002 5.99202141e-002 5.95966503e-002
      4.62621227e-002 4.62055467e-002 8.86152238e-002 2.56252885e-001
      2.57038683e-001 2.57038683e-001 8.46551880e-002 5.87700158e-002
      1.30346671e-001 1.31940469e-001 1.11945890e-001 1.27139583e-001
      1.67501360e-001 1.90197125e-001 1.85903788e-001 1.86636850e-001
      1.47337735e-001 5.99788763e-002 7.26721734e-002 6.98860511e-002
      1.24982759e-001 1.73104882e-001 8.19839388e-002 7.62812570e-002
      6.67078122e-002 6.42209873e-002 1.97204903e-001 2.18268797e-001
      2.32931897e-001 2.32931897e-001 2.32931897e-001 2.32931897e-001
      2.32931897e-001 2.32931897e-001 2.32931897e-001 8.69253203e-002
      9.06437188e-002 1.02463447e-001 1.57106325e-001 2.32931897e-001
      1.75658509e-001 1.77397236e-001 2.09549412e-001 1.44917399e-001
      2.20825709e-002 2.65043527e-002 6.56792372e-002 3.22120905e-001
      3.08345377e-001 5.15261292e-002 3.07121389e-002 2.62989961e-002
      2.33338065e-002 3.42001170e-002 4.74018008e-002 1.93408594e-001
      3.22120905e-001 3.22120905e-001 8.80122036e-002 5.57556227e-002
      2.23044194e-002 2.58593876e-002 2.86829676e-002 2.67979037e-002
      3.73624004e-002 2.31153905e-001 3.22120905e-001 2.05187291e-001
      5.01889139e-002 4.35805060e-002 2.60407515e-002 4.00362685e-002
      5.39026745e-002 9.04328302e-002 3.22120905e-001 3.22120905e-001
      3.08580011e-001 5.94120435e-002 2.02489980e-002 2.31435839e-002
      3.83378528e-002 6.39957041e-002 1.84044003e-001 2.89186895e-001
      2.89186895e-001 1.38921514e-001 9.20498073e-002 3.25932913e-002
      2.55845282e-002 3.77144404e-002 4.85345237e-002 7.06537589e-002
      2.71131396e-001 2.89186895e-001 2.89186895e-001 9.83504578e-002
      3.99780013e-002 2.17421837e-002 4.90333699e-002 8.52406099e-002
      1.62427157e-001 2.89186895e-001 2.89186895e-001 1.62672892e-001
      6.56104535e-002 3.14257927e-002 3.50293033e-002 3.74944843e-002
      6.02491908e-002 2.56283224e-001 2.89186895e-001 2.89186895e-001
      1.38349563e-001 5.04961163e-002 4.79460768e-002 3.72074880e-002
      1.13518164e-001 1.29119232e-001 1.75514162e-001 2.07741767e-001
      2.18241602e-001 1.77899182e-001 1.82816565e-001 1.72715202e-001
      1.71645045e-001 7.94453993e-002 9.34396684e-002 1.18988633e-001
      1.53254747e-001 2.18241602e-001 1.45313531e-001 1.11691765e-001
      1.40925154e-001 1.19547568e-001 1.06689662e-001 1.80148676e-001
      1.90349296e-001 1.92211896e-001 2.18241602e-001 1.99187309e-001
      1.57686710e-001 1.54037908e-001 1.08546086e-001 1.41877890e-001
      1.36529729e-001 1.63197026e-001 2.18241602e-001 2.18241602e-001
      2.18241602e-001 1.24931470e-001 1.93536386e-001 1.67920098e-001
      4.94459793e-002 5.10832481e-002 7.35982582e-002 1.12498954e-001
      2.82480985e-001 2.82480985e-001 1.12603985e-001 6.62599131e-002
      3.97408120e-002 5.95419183e-002 6.78373426e-002 8.92620385e-002
      1.26110792e-001 2.82480985e-001 2.82480985e-001 2.21700385e-001
      5.70253432e-002 3.35715227e-002 1.10245511e-001 8.30153003e-002
      1.04653545e-001 1.40594274e-001 2.13774040e-001 2.82480985e-001
      2.25625828e-001 1.35891095e-001 1.18956536e-001 1.16322123e-001
      8.30207020e-002 6.61689118e-002 6.12326525e-002 1.54226109e-001
      2.82480985e-001 2.82480985e-001 2.23003924e-001 1.73861578e-001
      5.89168184e-002 1.04493342e-001 1.91694275e-001 1.65304750e-001
      1.42683014e-001 1.72627538e-001 1.02326930e-001 4.99168783e-002
      5.19534945e-002 4.03554663e-002 1.04904898e-001 2.79558033e-001
      2.79558033e-001 1.88484818e-001 7.37957582e-002 2.60524582e-002
      3.37976031e-002 4.25257199e-002 1.65123031e-001 2.50531435e-001
      2.79558033e-001 1.02924347e-001 7.18613490e-002 1.35858998e-001
      2.21655056e-001 1.87525213e-001 2.19600737e-001 1.32194206e-001
      2.79558033e-001 2.79558033e-001 2.79558033e-001 1.83034182e-001
      5.56853227e-002 5.21156304e-002 5.57471067e-002 1.00512035e-001</_>
    <_>
      7.56535530e-002 1.67643368e-001 2.19324157e-001 1.64304450e-001
      7.40656257e-002 4.05451767e-002 4.52103317e-002 3.58728990e-002
      5.45803048e-002 1.50434524e-001 1.94097698e-001 1.84744239e-001
      1.12670541e-001 8.12052563e-002 1.53892726e-001 2.39456058e-001
      1.78420871e-001 1.72444195e-001 6.77630231e-002 1.64131731e-001
      2.39456058e-001 2.39456058e-001 2.39456058e-001 8.23833942e-002
      8.08632895e-002 6.37944490e-002 4.47879806e-002 1.27431497e-001
      2.11866856e-001 2.39456058e-001 2.39456058e-001 2.39456058e-001
      2.39456058e-001 2.39456058e-001 1.81605920e-001 1.23167261e-001
      8.41931477e-002 6.19920157e-002 5.34709431e-002 5.61070815e-002
      9.74766240e-002 2.12193787e-001 2.60624409e-001 2.60624409e-001
      1.65328890e-001 4.65665311e-002 3.03319581e-002 3.26346382e-002
      3.62857431e-002 6.87342137e-002 1.07464701e-001 2.60624409e-001
      2.60624409e-001 1.04540452e-001 8.08966830e-002 9.03103799e-002
      9.09435153e-002 1.34517744e-001 2.60624409e-001 2.60624409e-001
      2.60624409e-001 2.23144963e-001 1.02828227e-001 7.92002976e-002
      6.67001307e-002 7.06084594e-002 5.34690507e-002 1.87135592e-001
