<?xml version="1.0"?>
<opencv_storage>
<opencv_ml_svm>
  <format>3</format>
  <svmType>C_SVC</svmType>
  <kernel>
    <type>LINEAR</type></kernel>
  <C>1.</C>
  <term_criteria><iterations>1000000</iterations></term_criteria>
  <var_count>144</var_count>
  <class_count>2</class_count>
  <class_labels type_id="opencv-matrix">
    <rows>2</rows>
    <cols>1</cols>
    <dt>i</dt>
    <data>
      -1 1</data></class_labels>
  <sv_total>1</sv_total>
  <support_vectors>
    <_>
      6.42232895e-001 -1.42899704e+000 -1.64875257e+000 -6.27289116e-001
      5.10307968e-001 4.51159745e-001 9.09821093e-001 8.75679672e-001
      9.89608169e-002 -9.98921871e-001 -1.65993229e-001 7.70186901e-001
      1.56153893e+000 1.63355374e+000 -8.81512091e-002 -5.40577412e-001
      2.48255268e-001 3.29414159e-001 1.35316992e+000 3.16103518e-001
      4.44200784e-001 -1.45841813e+000 -1.64125651e-001 -1.09235775e+000
      1.52165890e+000 6.00896120e-001 1.51030886e+000 3.22663814e-001
      -1.22160010e-001 1.13231075e+000 -9.85622406e-001 1.97725855e-002
      -7.91607916e-001 7.17320561e-001 2.24882424e-001 1.66809702e+000
      -4.74967837e-001 -9.66438130e-002 8.53238285e-001 -2.01496363e-001
      1.01822841e+000 3.96472141e-002 -9.40604031e-001 -3.89887244e-001
      -7.69702792e-001 -9.20430943e-002 -5.56770384e-001
      -6.48686707e-001 -1.15619516e+000 9.15580213e-001 -4.01346266e-001
      -2.13574290e-001 -6.87152028e-001 -6.85549855e-001 5.17372847e-001
      3.41373593e-001 1.14215469e+000 -8.75479698e-001 2.72098094e-001
      -1.43694878e+000 -3.57484788e-001 7.46150166e-002 6.89882636e-001
      -3.17031622e-001 -6.03248060e-001 6.90585256e-001 -6.22179151e-001
      -5.91768861e-001 -9.19537246e-001 -8.12948495e-003
      -5.05557418e-001 -1.50868937e-001 1.45044219e+000 2.48524725e-001
      1.59678125e+000 6.29965067e-002 -3.13766599e-001 -1.96856618e+000
      -8.98307800e-001 -6.09060705e-001 9.74201322e-001 9.37884510e-001
      3.50803018e-001 1.85782507e-001 -1.16128182e+000 -4.44262356e-001
      -1.02262759e+000 1.00710475e+000 2.75627077e-001 1.03731167e+000
      5.52328169e-001 -4.56814207e-002 -1.22497618e-001 1.05496097e+000
      1.40983200e+000 -5.86991072e-001 -2.11963010e+000 -1.50117588e+000
      -1.10925816e-001 -1.25695181e+000 -4.69382912e-001
      -5.48431277e-001 -8.91310275e-001 9.03959036e-001 8.64960790e-001
      1.25044036e+000 4.27334487e-001 -3.79254162e-001 5.75898528e-001
      -1.04578868e-001 8.66241097e-001 -7.02196717e-001 2.88662314e-002
      -9.35414970e-001 9.57034945e-001 4.57640201e-001 4.94216979e-001
      8.93215388e-002 3.07297915e-001 1.92833260e-001 -2.74256754e+000
      -5.59779823e-001 -2.91365951e-001 7.92812169e-001 4.67374414e-001
      -2.05462858e-001 -1.51286292e+000 -4.25661057e-001
      -5.10782123e-001 4.23757374e-001 1.15900445e+000 -5.97734630e-001
      4.49420661e-001 -6.64722323e-001 -8.86375532e-002 -1.16995347e+000
      -9.90575910e-001 -2.55590618e-001 -9.16795075e-001 8.36501181e-001
      -9.99802649e-002 -1.73780531e-001 -7.62348056e-001
      -5.00718117e-001</_></support_vectors>
  <uncompressed_sv_total>307</uncompressed_sv_total>
  <uncompressed_support_vectors>
    <_>
      2.00686231e-001 2.52503604e-001 2.52503604e-001 1.95585325e-001
      1.12989120e-001 5.52443489e-002 8.13435391e-002 7.69371316e-002
      8.56361091e-002 2.29210243e-001 2.52503604e-001 2.52503604e-001
      2.28313610e-001 9.42976028e-002 5.59034161e-002 8.83217230e-002
      1.04281701e-001 1.65942445e-001 8.43329430e-002 1.26035675e-001
      2.32763842e-001 2.29977325e-001 1.88622355e-001 1.53485864e-001
      1.27727345e-001 7.43970945e-002 8.08426365e-002 5.41430414e-002
      1.58400372e-001 2.52503604e-001 2.52503604e-001 2.52503604e-001
      1.09854288e-001 9.93125364e-002 6.12952486e-002 5.25600426e-002
      2.49559164e-001 2.49559164e-001 2.45366633e-001 7.51137286e-002
      9.28796828e-002 1.21644370e-001 1.76355585e-001 1.78304464e-001
      2.49559164e-001 2.49559164e-001 2.11125106e-001 9.10535231e-002
      7.17781559e-002 9.37862992e-002 1.71493024e-001 2.24746004e-001
      2.49559164e-001 2.49559164e-001 1.52143985e-001 1.96247637e-001
      1.61049992e-001 9.70728770e-002 1.04110464e-001 7.86299855e-002
      1.38325274e-001 1.52696177e-001 1.55122638e-001 1.43070489e-001
      1.15423188e-001 9.29823816e-002 7.85794109e-002 1.21121868e-001
      1.04759529e-001 1.37438625e-001 1.49307057e-001 1.70101672e-001
      1.38019174e-001 4.44804281e-002 4.91168089e-002 3.44265476e-002
      9.17458162e-002 1.19935535e-001 1.96388751e-001 2.26494879e-001
      2.10312128e-001 1.44600168e-001 5.87664396e-002 8.23594704e-002
      1.08017303e-001 2.64486462e-001 2.75510460e-001 2.75510460e-001
      2.75510460e-001 2.26703212e-001 1.72753692e-001 4.76849042e-002
      3.43902111e-002 3.13754156e-002 5.15383072e-002 3.74013558e-002
      8.49488601e-002 1.87976539e-001 2.68847883e-001 2.29689285e-001
      6.70183674e-002 4.28799763e-002 4.37909886e-002 5.09931035e-002
      9.16533321e-002 2.16454625e-001 2.75510460e-001 2.75510460e-001
      1.86299920e-001 1.51835531e-001 1.39390230e-001 1.16535425e-001
      1.33767098e-001 7.87865669e-002 1.39489710e-001 1.94580570e-001
      1.97151586e-001 1.99759364e-001 1.42313778e-001 1.33467183e-001
      9.77392122e-002 1.13352805e-001 7.08217323e-002 6.95697889e-002
      1.06339648e-001 1.81766242e-001 2.80375093e-001 1.60565615e-001
      9.85809490e-002 8.57691690e-002 9.27995071e-002 6.83835521e-002
      2.08902732e-001 2.80375093e-001 2.80375093e-001 2.80375093e-001
      2.80375093e-001 1.28627181e-001 7.79084116e-002 7.37117901e-002
      4.20035310e-002 8.10298547e-002 1.54074460e-001 2.80375093e-001</_>
    <_>
      1.36090577e-001 1.62442610e-001 1.13934949e-001 5.65367304e-002
      1.00043617e-001 6.52401745e-002 3.00052036e-002 1.97490305e-002
      3.59485559e-002 2.75458604e-001 2.19382584e-001 8.27811658e-002
      4.79854457e-002 5.11744618e-002 4.68649231e-002 6.11215979e-002
      1.73263565e-001 2.75458604e-001 1.89051777e-001 2.75458604e-001
      2.75458604e-001 2.42341414e-001 1.37041509e-001 4.52144928e-002
      3.11221555e-002 1.81305464e-002 4.44532894e-002 2.75458604e-001
      2.75458604e-001 2.46265277e-001 1.44414321e-001 1.15005031e-001
      6.74506128e-002 8.56465474e-002 2.59104937e-001 2.75458604e-001
      1.48100629e-001 2.72897393e-001 1.72210842e-001 9.59566757e-002
      1.08016886e-001 6.99946135e-002 1.67496234e-001 1.79297641e-001
      1.24166049e-001 1.18093841e-001 9.85922664e-002 8.84146765e-002
      1.41197994e-001 2.59202898e-001 2.12713793e-001 1.58957049e-001
      2.72897393e-001 2.06466779e-001 7.50626773e-002 8.06618333e-002
      6.02509342e-002 6.22251071e-002 1.17453717e-001 2.72897393e-001
      2.72897393e-001 2.12243035e-001 6.16224296e-002 8.10667351e-002
      1.48830220e-001 2.58281648e-001 1.80078894e-001 2.51296818e-001
      1.36145130e-001 1.15430810e-001 7.17655495e-002 6.59050494e-002
      4.75590974e-002 3.60260271e-002 2.67397147e-002 4.86111417e-002
      1.91518947e-001 2.91423947e-001 2.91423947e-001 1.90481603e-001
      6.84574470e-002 8.78212154e-002 5.03313653e-002 2.25235652e-002
      4.59978692e-002 7.12648183e-002 1.33790702e-001 2.82994449e-001
      2.67480075e-001 1.40903562e-001 5.95353134e-002 2.94093434e-002
      2.71172803e-002 2.14843694e-002 5.32291420e-002 1.60936669e-001
      2.91423947e-001 2.91423947e-001 1.29751980e-001 2.11354509e-001
      6.98224306e-002 3.34802493e-002 2.94805262e-002 4.36154269e-002
      7.97416419e-002 2.91423947e-001 2.91423947e-001 2.91423947e-001
      7.72216469e-002 1.41691923e-001 3.28908116e-001 3.28908116e-001
      3.28908116e-001 2.63976425e-001 6.59241900e-002 5.78974262e-002
      5.95959015e-002 6.17525391e-002 9.03145298e-002 2.11207211e-001
      2.74996966e-001 2.44825855e-001 1.09748892e-001 7.20824301e-002
      5.31557724e-002 5.13420850e-002 1.05281651e-001 1.61882386e-001
      3.28908116e-001 2.81358480e-001 1.59110367e-001 7.04088807e-002
      5.18901087e-002 6.25593066e-002 8.04576427e-002 5.67154251e-002
      4.85410579e-002 5.76555207e-002 9.72577482e-002 1.92326382e-001
      1.14818960e-001 7.09762126e-002 6.75558671e-002 6.51007816e-002</_>
    <_>
      2.87081689e-001 1.06263928e-001 3.10510136e-002 3.09405904e-002
      1.56632215e-001 5.61921857e-002 1.06709786e-001 3.01601827e-001
      3.01601827e-001 2.25831583e-001 1.84902593e-001 5.00976183e-002
      2.97362730e-002 3.30460370e-002 2.99489889e-002 1.17530771e-001
      1.87178537e-001 9.72986370e-002 1.29219636e-001 4.43951748e-002
      3.73859368e-002 5.34081310e-002 1.48192689e-001 8.00992623e-002
      2.93523073e-001 3.01601827e-001 3.01601827e-001 6.34503588e-002
      3.57424282e-002 2.73731202e-002 3.78461555e-002 3.19641158e-002
      1.08918972e-001 3.01601827e-001 3.01601827e-001 9.89294872e-002
      1.34774551e-001 9.59237590e-002 7.66241401e-002 6.82511255e-002
      7.72270262e-002 8.91662091e-002 9.14826989e-002 2.11405247e-001
      2.34947085e-001 1.45059019e-001 9.27144289e-002 1.01412073e-001
      2.11434230e-001 2.64653385e-001 2.64653385e-001 2.64653385e-001
      2.57514387e-001 2.16528967e-001 8.61504525e-002 1.24661624e-001
      9.69169661e-002 6.20284937e-002 7.37828240e-002 4.22140621e-002
      5.78488670e-002 8.20512772e-002 8.06564987e-002 1.10975489e-001
      2.64653385e-001 2.64653385e-001 2.64653385e-001 2.64653385e-001
      2.16343910e-001 1.25089839e-001 9.23013911e-002 7.66061172e-002
      1.31013751e-001 9.39980820e-002 5.07708974e-002 5.33914603e-002
      2.65424609e-001 2.76023559e-002 4.81133349e-002 1.22882463e-001
      1.61750257e-001 1.33865386e-001 1.87899917e-001 2.66126245e-001
      2.66126245e-001 2.36015230e-001 1.35003164e-001 4.31244373e-002
      9.58740711e-002 1.43522382e-001 2.66126245e-001 2.66126245e-001
      1.12551987e-001 7.14964643e-002 2.66126245e-001 3.05261314e-002
      4.18624915e-002 8.62947032e-002 2.32485205e-001 2.60832936e-001
      2.66126245e-001 2.66126245e-001 1.53310254e-001 6.37868121e-002
      2.86477860e-002 3.83861139e-002 6.85023442e-002 1.09545991e-001
      1.69524565e-001 2.52882630e-001 2.52882630e-001 2.52882630e-001
      2.34429181e-001 1.95429683e-001 1.65642649e-001 1.46637708e-001
      1.61339447e-001 1.48579732e-001 1.30576804e-001 1.07966393e-001
      7.84442276e-002 1.81553572e-001 1.11790277e-001 8.47016275e-002
      1.15828194e-001 1.57824203e-001 1.61616892e-001 1.29580259e-001
      1.17893860e-001 1.15984462e-001 2.52882630e-001 2.36128032e-001
      1.82056770e-001 1.74209014e-001 1.68548107e-001 1.13144703e-001
      9.78446975e-002 8.02523643e-002 9.92252678e-002 2.52882630e-001
      2.10229844e-001 1.13523498e-001 1.06645331e-001 8.90606120e-002</_>
    <_>
      7.16597214e-002 1.05670720e-001 9.05778930e-002 8.27791393e-002
      8.85096341e-002 1.18990906e-001 8.77674446e-002 5.70372865e-002
      5.36017567e-002 3.07616591e-001 3.07616591e-001 1.61978573e-001
      1.28173620e-001 1.19671501e-001 1.62741542e-001 1.19428068e-001
      6.63440153e-002 1.06814988e-001 1.75311208e-001 3.07616591e-001
      3.07616591e-001 1.78770557e-001 9.33290347e-002 9.23277363e-002
      6.17164522e-002 4.74121682e-002 5.00415787e-002 3.07616591e-001
      3.07616591e-001 3.07616591e-001 1.44140229e-001 1.02176152e-001
      1.00110576e-001 6.45029396e-002 7.20609128e-002 1.21341921e-001
      1.40169382e-001 8.73222798e-002 7.42059797e-002 4.79917862e-002
      6.19593039e-002 3.98320779e-002 1.09137610e-001 2.62173563e-001
      3.03362578e-001 1.05920129e-001 4.76864986e-002 6.16411529e-002
      8.93557593e-002 1.30583137e-001 9.72161517e-002 1.45560071e-001
      1.57843143e-001 1.29843786e-001 2.34026268e-001 8.49772170e-002
      8.45372900e-002 7.42435083e-002 7.10685775e-002 5.63974306e-002
      3.03362578e-001 3.03362578e-001 3.03362578e-001 9.64247361e-002
      5.99064045e-002 5.95700629e-002 1.04706459e-001 1.54762879e-001
      1.92067370e-001 3.03362578e-001 3.03362578e-001 1.94372013e-001
      4.43368591e-002 3.29949372e-002 4.81000692e-002 1.06866851e-001
      2.20787853e-001 2.92517722e-001 2.92517722e-001 2.01819807e-001
      8.59530866e-002 7.83551410e-002 7.92068765e-002 5.82509451e-002
      3.86794060e-002 8.93796235e-002 1.10656463e-001 2.02958569e-001
      2.07125336e-001 1.51996702e-001 9.48871076e-002 5.09483628e-002
      4.50546071e-002 5.51159121e-002 7.86584392e-002 2.05724716e-001
      2.92517722e-001 2.92517722e-001 1.51113287e-001 1.53181836e-001
      9.13588479e-002 5.43631352e-002 3.47112529e-002 8.45693126e-002
      9.26724598e-002 2.92517722e-001 2.92517722e-001 2.92517722e-001
      1.36125147e-001 2.21493363e-001 2.30995417e-001 7.09510818e-002
      6.15370795e-002 3.80321108e-002 5.68299443e-002 7.24457875e-002
      1.13556057e-001 9.39806849e-002 2.80752182e-001 2.86915123e-001
      2.86915123e-001 2.56445855e-001 9.60970372e-002 6.13736920e-002
      4.37393710e-002 6.90502450e-002 2.86915123e-001 2.86915123e-001
      2.86915123e-001 5.95912598e-002 6.63304701e-002 3.17281671e-002
      4.13186885e-002 7.48091936e-002 1.23201750e-001 1.29526436e-001
      2.86915123e-001 2.86915123e-001 1.47745848e-001 1.00269422e-001
      3.04497685e-002 3.66903730e-002 6.42762780e-002 9.32561755e-002</_>
    <_>
      7.63344988e-002 1.07342653e-001 1.05602376e-001 7.42428228e-002
      1.02263696e-001 7.92598799e-002 9.32157412e-002 5.37008904e-002
      7.08931163e-002 2.99088567e-001 2.99088567e-001 2.13846892e-001
      1.19509645e-001 1.33277595e-001 1.28432125e-001 1.38782144e-001
      7.70868734e-002 1.34744391e-001 1.16493188e-001 2.99088567e-001
      2.99088567e-001 1.74449712e-001 1.06839761e-001 6.32188469e-002
      5.83998486e-002 5.04199862e-002 7.74502009e-002 2.99088567e-001
      2.99088567e-001 2.99088567e-001 1.39277652e-001 1.15404308e-001
      1.27921999e-001 8.82000700e-002 8.00984651e-002 1.76664859e-001
      1.35294393e-001 7.09269419e-002 5.98180592e-002 4.79995273e-002
      6.26045465e-002 3.23246382e-002 9.71788317e-002 3.00976992e-001
      3.00976992e-001 1.09445214e-001 3.64353135e-002 4.69764359e-002
      8.65309164e-002 1.43457890e-001 1.26276433e-001 1.47490069e-001
      2.08577588e-001 1.27391234e-001 2.34363198e-001 1.03449114e-001
      6.12197444e-002 5.25665246e-002 7.55667016e-002 6.47534654e-002
      3.00976992e-001 3.00976992e-001 3.00976992e-001 8.03233311e-002
      5.27787954e-002 4.35653590e-002 8.55591074e-002 1.66008875e-001
      1.67901903e-001 3.00976992e-001 3.00976992e-001 1.48312762e-001
      4.10142280e-002 4.60163802e-002 3.54892835e-002 7.90827721e-002
      2.05782682e-001 2.93985605e-001 2.93985605e-001 1.72855496e-001
      6.42212853e-002 6.93544447e-002 5.59617281e-002 4.06525470e-002
      5.33365160e-002 6.14168607e-002 1.00850984e-001 2.91468561e-001
      2.80174762e-001 1.37708828e-001 5.20120040e-002 5.58882691e-002
      4.83301133e-002 6.31676465e-002 1.00236587e-001 1.87251762e-001
      2.93985605e-001 2.93985605e-001 9.23774689e-002 1.10633068e-001
      6.13208562e-002 5.31052537e-002 5.03015034e-002 5.78304529e-002
      7.15204179e-002 2.93985605e-001 2.93985605e-001 2.93985605e-001
      1.74719587e-001 2.52431095e-001 1.64723650e-001 6.01033978e-002
      4.39485908e-002 4.00464572e-002 6.93711564e-002 6.15023002e-002
      1.16553642e-001 1.26514986e-001 2.81110018e-001 2.81110018e-001
      2.81110018e-001 2.46573985e-001 9.71341431e-002 5.82352504e-002
      4.16581370e-002 5.82965352e-002 2.81110018e-001 2.81110018e-001
      2.78310567e-001 6.75531626e-002 4.52186204e-002 4.95458096e-002
      4.51873653e-002 4.98997606e-002 1.49588823e-001 1.80055931e-001
      2.81110018e-001 2.81110018e-001 1.72472864e-001 7.36568198e-002
      5.76353483e-002 5.00116609e-002 7.04877228e-002 8.21226314e-002</_>
    <_>
      1.23424381e-001 1.79532513e-001 2.54960507e-001 2.26939514e-001
      2.07962289e-001 8.87365267e-002 6.40784651e-002 3.57149653e-002
      5.35864905e-002 2.54960507e-001 2.54960507e-001 2.03869686e-001
      9.13104042e-002 5.01677766e-002 5.24675064e-002 9.57719311e-002
      1.10528089e-001 1.63287863e-001 1.26671642e-001 2.54960507e-001
      2.54960507e-001 2.31382892e-001 2.54960507e-001 1.38919264e-001
      7.42582306e-002 5.12447730e-002 6.66634962e-002 2.54960507e-001
      2.54960507e-001 2.54960507e-001 1.09339438e-001 5.26741073e-002
      4.60696481e-002 4.76255380e-002 9.82997864e-002 1.43507063e-001
      1.31890759e-001 8.20058659e-002 6.44876659e-002 7.98574612e-002
      7.67681971e-002 1.43316075e-001 2.73758620e-001 2.73758620e-001
      2.73758620e-001 6.72793984e-002 7.64893442e-002 9.41678211e-002
      6.50472865e-002 7.58559257e-002 8.58459920e-002 1.30261213e-001
      1.43928036e-001 8.52129236e-002 1.56316623e-001 1.19681530e-001
      7.38105997e-002 1.14265569e-001 1.13293566e-001 2.73758620e-001
      2.73758620e-001 2.73758620e-001 2.73758620e-001 5.77416979e-002
      7.51165152e-002 8.44639987e-002 7.00149387e-002 1.25804335e-001
      2.53158331e-001 2.73758620e-001 2.73758620e-001 9.54466388e-002
      8.43120664e-002 5.37824109e-002 6.87720850e-002 2.24546328e-001
      2.75352240e-001 2.75352240e-001 1.57714188e-001 1.10359170e-001
      9.65445787e-002 1.80797204e-001 1.13871291e-001 1.00698367e-001
      1.26851156e-001 1.63242817e-001 1.37130931e-001 1.31920561e-001
      1.66677147e-001 2.10063294e-001 6.63651079e-002 4.44035158e-002
      5.12381382e-002 9.82631743e-002 2.75352240e-001 2.75352240e-001
      2.75352240e-001 1.54291838e-001 9.53493118e-002 1.41426533e-001
      8.31550509e-002 9.26822126e-002 9.92013216e-002 1.78654328e-001
      1.87419519e-001 2.75352240e-001 1.79633409e-001 1.67173594e-001
      1.68584377e-001 1.43306881e-001 1.96644664e-001 1.89628974e-001
      1.55412197e-001 1.09259814e-001 1.02240667e-001 9.84359980e-002
      1.56434804e-001 1.35508940e-001 5.96422814e-002 1.15470961e-001
      2.71960825e-001 2.71960825e-001 2.71960825e-001 1.06496908e-001
      1.02500387e-001 1.84952810e-001 1.51571363e-001 1.60633340e-001
      2.09218562e-001 1.84755415e-001 1.27206832e-001 1.00742474e-001
      9.11312997e-002 7.95729086e-002 1.07589990e-001 1.33138090e-001
      1.30666062e-001 2.71960825e-001 2.71960825e-001 2.71960825e-001
      1.35422274e-001 7.27208182e-002 7.95743242e-002 1.17983848e-001</_>
    <_>
      9.66346487e-002 1.72667757e-001 2.41703212e-001 1.39515609e-001
      7.09954947e-002 3.67820524e-002 2.47505251e-002 3.78081501e-002
      4.71444391e-002 2.51979768e-001 2.51979768e-001 2.51979768e-001
      1.02550656e-001 9.27138329e-002 5.89734837e-002 1.16991863e-001
      1.43210620e-001 1.76085860e-001 9.51169208e-002 1.82205707e-001
      2.51979768e-001 2.51979768e-001 1.95177644e-001 6.73030764e-002
      4.73701954e-002 6.48153275e-002 6.68304041e-002 2.24274039e-001
      2.51979768e-001 2.51979768e-001 2.46560320e-001 1.89537078e-001
      1.32970735e-001 1.42030329e-001 1.79898441e-001 1.56598389e-001
      4.65848297e-002 5.28887287e-002 4.80291322e-002 7.48834759e-002
      1.01299733e-001 1.54771626e-001 2.49981105e-001 2.81962603e-001
      1.06835216e-001 4.48777862e-002 7.02555999e-002 7.74721727e-002
      9.61023271e-002 9.24675837e-002 7.07466602e-002 9.69705433e-002
      8.02953020e-002 6.03268929e-002 1.15402609e-001 8.26118886e-002
      1.22870460e-001 1.40769824e-001 2.80019522e-001 2.81962603e-001
      2.81962603e-001 2.81962603e-001 2.81962603e-001 1.01896860e-001
      7.63432756e-002 8.93895850e-002 1.05626218e-001 1.15218118e-001
      1.32943749e-001 2.81929225e-001 2.81962603e-001 2.54306287e-001
      1.21637776e-001 1.10590443e-001 1.03854515e-001 2.47440249e-001
      2.47440249e-001 2.47440249e-001 1.46352366e-001 1.03953384e-001
      8.92907232e-002 1.80216491e-001 1.65982321e-001 1.39556453e-001
      1.65892348e-001 1.78273961e-001 1.47096664e-001 1.66030750e-001
      1.61063477e-001 1.70577779e-001 7.34956637e-002 1.09932482e-001
      9.57527235e-002 1.70345411e-001 2.47440249e-001 2.47440249e-001
      2.47440249e-001 1.38714388e-001 6.47879764e-002 1.38193995e-001
      1.49151459e-001 1.39391333e-001 1.76703602e-001 1.80341750e-001
      1.74199104e-001 1.67936966e-001 1.68214887e-001 1.36498347e-001
      1.20333210e-001 1.15733281e-001 2.05124542e-001 2.49224812e-001
      2.49224812e-001 1.41832918e-001 8.92400518e-002 9.53087136e-002
      1.08881786e-001 1.64961293e-001 1.45235628e-001 1.37399882e-001
      1.39661014e-001 1.68185934e-001 1.33542225e-001 1.49843201e-001
      1.38866886e-001 1.52070671e-001 1.47061706e-001 1.41366526e-001
      2.42209896e-001 2.49224812e-001 2.49224812e-001 1.11040056e-001
      1.03407323e-001 1.59169808e-001 2.05617160e-001 1.54335022e-001
      1.75800309e-001 1.51338175e-001 1.73679039e-001 1.99314147e-001
      1.17675871e-001 1.59426287e-001 1.65774599e-001 1.65037706e-001</_>
    <_>
      8.07700604e-002 8.39555040e-002 2.34065950e-001 2.60428995e-001
      2.60428995e-001 9.10477191e-002 5.85012399e-002 6.68810979e-002
      7.83141926e-002 1.25916764e-001 1.17304951e-001 1.56059638e-001
      1.94744870e-001 1.86406001e-001 1.16449296e-001 1.35634691e-001
      1.65757164e-001 1.33199498e-001 1.10987745e-001 9.02635679e-002
      1.49950996e-001 2.60428995e-001 2.60428995e-001 1.90454051e-001
      1.22814961e-001 1.17444962e-001 1.15592174e-001 1.94703475e-001
      1.66008264e-001 1.59186170e-001 1.76698968e-001 2.04897940e-001
      1.20880924e-001 1.74790382e-001 2.39105463e-001 2.09279284e-001
      8.69671926e-002 1.10467702e-001 1.23035327e-001 1.64707750e-001
      2.41524458e-001 2.41524458e-001 2.29504436e-001 2.28870824e-001
      1.45906255e-001 1.03935681e-001 8.61083493e-002 8.35056752e-002
      7.33290017e-002 9.03471708e-002 1.05979331e-001 2.21134409e-001
      2.41524458e-001 2.41524458e-001 9.81935263e-002 1.44326493e-001
      1.54474586e-001 2.41524458e-001 2.41524458e-001 2.41524458e-001
      1.26246095e-001 9.34247896e-002 9.47630703e-002 1.41039625e-001
      1.55711308e-001 1.40846089e-001 1.19716823e-001 1.36705279e-001
      1.40441716e-001 1.24944739e-001 1.94637671e-001 2.09317863e-001
      6.48472384e-002 6.74407780e-002 6.70019537e-002 8.64984840e-002
      2.21336678e-001 2.30810523e-001 2.30810523e-001 2.12926000e-001
      7.69323260e-002 1.95745260e-001 2.00344399e-001 1.86873063e-001
      1.79385230e-001 1.35802537e-001 1.89552322e-001 2.24929795e-001
      2.23485753e-001 1.94915220e-001 7.56697953e-002 4.53828126e-002
      2.73259543e-002 4.45830934e-002 1.00624152e-001 1.94583729e-001
      2.03737602e-001 2.11736679e-001 1.15181364e-001 2.30810523e-001
      2.20735610e-001 1.06245540e-001 1.06625207e-001 7.69953579e-002
      1.19652860e-001 1.82739943e-001 2.05088973e-001 2.30750903e-001
      2.51855224e-001 2.11495891e-001 1.59686238e-001 2.10144863e-001
      1.95907280e-001 8.22328106e-002 1.13110684e-001 1.31730631e-001
      2.51855224e-001 2.51855224e-001 1.74798653e-001 9.71757770e-002
      1.05234645e-001 1.53355315e-001 9.74365324e-002 1.82209507e-001
      1.75082982e-001 2.51855224e-001 2.51855224e-001 2.37838209e-001
      8.69097114e-002 6.90151975e-002 7.45342076e-002 3.85518931e-002
      7.43970424e-002 8.37647393e-002 2.51855224e-001 2.51855224e-001
      1.32821694e-001 5.76307401e-002 6.75911754e-002 7.83791617e-002
      5.93227297e-002 1.24416493e-001 1.15181617e-001 2.51855224e-001</_>
    <_>
      1.43776312e-001 8.96584317e-002 5.81215061e-002 3.71844880e-002
      8.20343569e-002 1.24006093e-001 2.54039228e-001 2.54039228e-001
      1.84744030e-001 3.30881812e-002 2.80853584e-002 3.23050246e-002
      3.95004675e-002 9.01874527e-002 1.58738732e-001 2.54039228e-001
      2.54039228e-001 1.14620522e-001 1.13407046e-001 9.55351442e-002
      8.46940875e-002 1.06466338e-001 2.18482360e-001 2.54039228e-001
      2.54039228e-001 2.08002716e-001 1.63533345e-001 6.62244335e-002
      6.20825998e-002 7.51245692e-002 1.07903704e-001 2.54039228e-001
      2.54039228e-001 2.54039228e-001 2.54039228e-001 1.66343853e-001
      8.14110413e-002 1.26309678e-001 1.25499174e-001 1.52145594e-001
      1.66157544e-001 1.54578209e-001 1.34421661e-001 1.35707989e-001
      1.06062420e-001 1.07373610e-001 1.09830603e-001 9.18118358e-002
      1.38036773e-001 1.91583946e-001 1.52262822e-001 1.61039427e-001
      1.59803182e-001 1.09594852e-001 1.98725566e-001 1.54643938e-001
      1.43230915e-001 2.03651011e-001 1.76572472e-001 2.10445002e-001
      2.21633524e-001 2.42944643e-001 2.42944643e-001 2.01981664e-001
      1.51252896e-001 1.51464999e-001 2.42944643e-001 2.04532251e-001
      1.47269934e-001 1.76637620e-001 1.46738946e-001 1.80248752e-001
      1.61121756e-001 1.09967977e-001 1.77245930e-001 2.58396178e-001
      2.73511171e-001 1.19507693e-001 1.09823018e-001 9.10776481e-002
      9.15125832e-002 1.18924171e-001 8.08636695e-002 2.19165355e-001
      2.76763290e-001 2.76763290e-001 1.52857602e-001 7.48799890e-002
      6.27682060e-002 6.59914985e-002 9.19530839e-002 8.67619812e-002
      2.58002490e-001 2.76763290e-001 2.01528773e-001 7.95478895e-002
      6.62454590e-002 7.36929104e-002 8.45588520e-002 9.03342515e-002
      7.83120692e-002 2.76763290e-001 2.76763290e-001 2.76763290e-001
      7.57912546e-002 4.78067063e-002 6.53013214e-002 6.75190166e-002
      1.65880337e-001 1.77907899e-001 1.55212104e-001 1.69798344e-001
      1.65752396e-001 1.58547208e-001 1.55684084e-001 1.45869404e-001
      1.58557147e-001 1.46907464e-001 1.69467956e-001 1.23250581e-001
      2.23891959e-001 2.31634304e-001 2.31634304e-001 2.07861871e-001
      1.84733436e-001 1.43675074e-001 1.33699208e-001 1.52985126e-001
      1.59345940e-001 1.66842312e-001 1.61462799e-001 1.43939331e-001
      1.32690758e-001 1.14717565e-001 9.40898210e-002 1.09422080e-001
      1.44768760e-001 2.07731768e-001 2.31634304e-001 2.31634304e-001
      2.11332679e-001 1.17807195e-001 9.67431739e-002 9.60036293e-002</_>
    <_>
      7.65475184e-002 7.01401457e-002 6.66190907e-002 1.07005954e-001
      2.21568570e-001 2.48419732e-001 1.26635715e-001 9.38554555e-002
      1.07920960e-001 5.84355332e-002 9.38608721e-002 8.42858106e-002
      1.81208178e-001 2.83657461e-001 2.83657461e-001 1.50979504e-001
      1.08434156e-001 7.99735337e-002 1.42166108e-001 1.16645902e-001
      1.28383383e-001 2.11117342e-001 2.83657461e-001 1.68664634e-001
      1.50283173e-001 1.26683518e-001 1.29039034e-001 9.62746888e-002
      1.18360378e-001 1.37172982e-001 2.83657461e-001 2.83657461e-001
      2.83657461e-001 1.19787306e-001 9.11955312e-002 6.28861263e-002
      1.16400674e-001 8.61179754e-002 8.17276984e-002 6.14902563e-002
      8.67544785e-002 6.41950741e-002 1.84661537e-001 2.39547402e-001
      2.39547402e-001 1.15439653e-001 8.90268385e-002 7.75277987e-002
      8.12103897e-002 1.13430478e-001 6.24672472e-002 9.12434980e-002
      2.01856181e-001 1.79157540e-001 1.92332610e-001 1.71461090e-001
      1.53599814e-001 1.75942034e-001 1.60696432e-001 1.38654917e-001
      1.99451923e-001 2.39547402e-001 2.39547402e-001 1.93945616e-001
      1.33011147e-001 1.13262549e-001 1.76018357e-001 2.31609911e-001
      2.08594695e-001 2.05665946e-001 2.39547402e-001 2.39547402e-001
      1.52568370e-001 1.86846599e-001 2.61297613e-001 2.61297613e-001
      1.16747893e-001 5.62983118e-002 7.12571740e-002 7.95609504e-002
      1.10052183e-001 1.76610619e-001 2.00522438e-001 2.61297613e-001
      2.61297613e-001 1.54976740e-001 6.01285137e-002 4.80714515e-002
      6.47905916e-002 1.24812506e-001 2.61297613e-001 2.61297613e-001
      2.61297613e-001 2.01042593e-001 5.58229126e-002 4.42654602e-002
      4.80127595e-002 6.52357116e-002 1.27856612e-001 2.57069439e-001
      2.61297613e-001 2.10664526e-001 1.55327633e-001 6.05836660e-002
      4.20048945e-002 3.64738330e-002 5.45142516e-002 1.37183681e-001
      2.38033652e-001 2.38033652e-001 1.72604069e-001 1.31597623e-001
      1.32816985e-001 1.43921807e-001 1.54798150e-001 1.44437566e-001
      2.38033652e-001 2.04939827e-001 2.38033652e-001 2.38033652e-001
      2.38033652e-001 1.69477418e-001 1.18757896e-001 8.79687667e-002
      9.98684615e-002 1.33868039e-001 2.38033652e-001 1.73023120e-001
      1.07621074e-001 1.02876849e-001 9.43458825e-002 8.86109471e-002
      1.03452973e-001 1.41282976e-001 2.38033652e-001 1.91814631e-001
      2.05292791e-001 2.14988798e-001 1.36520535e-001 9.96398106e-002
      7.35371262e-002 7.87390172e-002 9.70146880e-002 1.39032736e-001</_>
    <_>
      1.51166365e-001 1.96767226e-001 2.40841582e-001 2.24749446e-001
      1.21870019e-001 9.76713598e-002 8.03277791e-002 8.24491680e-002
      1.17876783e-001 1.55815333e-001 8.71644989e-002 8.56898949e-002
      9.07462984e-002 2.15986073e-001 2.40841582e-001 2.40841582e-001
      1.91154882e-001 1.68486968e-001 1.45105913e-001 1.21536531e-001
      1.84712738e-001 2.13861242e-001 2.16567844e-001 1.54644340e-001
      1.02859728e-001 1.08346030e-001 1.60512879e-001 1.58486798e-001
      9.18444246e-002 1.05622679e-001 1.38112545e-001 2.40841582e-001
      2.40841582e-001 1.78640813e-001 1.21598847e-001 1.99634656e-001
      1.03964806e-001 6.54813647e-002 7.63699859e-002 7.77628794e-002
      9.53719690e-002 1.22423209e-001 2.56941885e-001 2.72414297e-001
      1.94718212e-001 8.97796527e-002 7.06554726e-002 6.65594637e-002
      6.50807843e-002 8.33118781e-002 6.48786798e-002 1.04730934e-001
      1.31505400e-001 1.16655633e-001 2.32017845e-001 1.53538480e-001
      1.61024526e-001 9.72673073e-002 1.46786094e-001 1.87450305e-001
      2.72414297e-001 2.72414297e-001 2.72414297e-001 2.20958203e-001
      1.07945912e-001 1.10328257e-001 7.10204095e-002 9.82070267e-002
      9.91473943e-002 2.35885903e-001 2.72414297e-001 2.72414297e-001
      1.12433612e-001 1.13947317e-001 1.36018246e-001 9.41478834e-002
      1.63952395e-001 1.67630747e-001 1.63905084e-001 1.35087222e-001
      1.57615736e-001 1.18483715e-001 1.40684023e-001 2.57534355e-001
      2.57534355e-001 2.57534355e-001 1.00574993e-001 9.46425721e-002
      1.13488786e-001 1.10001445e-001 1.52986333e-001 1.41808450e-001
      1.08042665e-001 9.69978198e-002 1.47103757e-001 1.84723213e-001
      2.09039450e-001 2.18252227e-001 1.63870171e-001 1.78840682e-001
      2.57534355e-001 2.57534355e-001 2.57534355e-001 1.94718212e-001
      7.02501461e-002 6.93193004e-002 1.08437687e-001 1.17181376e-001
      1.67365268e-001 1.28144681e-001 1.16976663e-001 1.15946740e-001
      1.57390133e-001 1.29975498e-001 1.54615194e-001 1.49910629e-001
      1.74892083e-001 1.92875341e-001 1.87244385e-001 1.36012971e-001
      1.85354412e-001 1.83739632e-001 1.69297382e-001 1.73237890e-001
      1.17809333e-001 1.80079430e-001 2.41035134e-001 1.59010142e-001
      1.07496709e-001 1.00915872e-001 1.31858677e-001 1.37442455e-001
      1.67999029e-001 1.78240716e-001 2.41035134e-001 2.41035134e-001
      2.15292692e-001 1.42758280e-001 1.45581231e-001 1.52578518e-001
      1.26680255e-001 1.47257969e-001 1.37543768e-001 2.41035134e-001</_>
    <_>
      1.98860899e-001 1.65655866e-001 1.41988382e-001 7.84798786e-002
      8.98005441e-002 8.85076150e-002 1.05019920e-001 1.32209897e-001
      2.21620500e-001 2.12877035e-001 2.85317749e-001 2.85317749e-001
      8.53191167e-002 8.36682096e-002 7.15947598e-002 5.91645725e-002
      9.02364179e-002 1.80432141e-001 1.55676633e-001 2.54184961e-001
      2.85317749e-001 2.17526779e-001 1.10546507e-001 1.00807942e-001
      7.58349895e-002 9.54002738e-002 1.75239235e-001 1.66168958e-001
      2.85317749e-001 2.85317749e-001 2.15373069e-001 5.28575778e-002
      3.40187028e-002 2.49340292e-002 3.91056202e-002 1.00801237e-001
      3.35969031e-001 3.35969031e-001 8.64689797e-002 2.80546956e-002
      2.95094401e-002 2.04376914e-002 3.00806500e-002 5.58440126e-002
      1.64499924e-001 3.35969031e-001 2.90989280e-001 6.85408488e-002
      2.69970261e-002 3.31551284e-002 9.91882477e-003 1.78501699e-002
      4.98610027e-002 2.93556094e-001 3.04350644e-001 2.81850010e-001
      1.42515644e-001 8.34927782e-002 4.81897593e-002 3.45187299e-002
      3.83910462e-002 4.40446548e-002 8.24631825e-002 3.35969031e-001
      2.49300972e-001 1.50930986e-001 6.76913112e-002 5.08774258e-002
      2.67356653e-002 2.40343735e-002 4.59911264e-002 1.25059262e-001
      3.43691893e-002 3.60673293e-002 4.18029800e-002 1.61504939e-001
      2.95938313e-001 2.95938313e-001 2.10939750e-001 4.34183218e-002
      4.70000580e-002 8.49719252e-003 8.91343597e-003 3.77046764e-002
      1.03406556e-001 2.85797417e-001 2.95938313e-001 1.49280533e-001
      4.07661200e-002 1.30587248e-002 8.19458887e-002 5.65756373e-002
      4.80059385e-002 6.16410263e-002 2.14583576e-001 2.95938313e-001
      2.95938313e-001 1.72132328e-001 1.05252661e-001 1.41911991e-002
      1.09998649e-002 1.66130643e-002 3.09347194e-002 1.44973740e-001
      2.95938313e-001 2.95938313e-001 2.44320229e-001 4.45059165e-002
      6.93639964e-002 8.84035453e-002 1.01540260e-001 1.23987615e-001
      1.87013626e-001 1.99933141e-001 1.58585414e-001 1.54827431e-001
      1.11020155e-001 1.88235283e-001 1.52132481e-001 1.81326956e-001
      1.59633085e-001 1.90172657e-001 2.26336345e-001 1.76658839e-001
      1.97935358e-001 2.03294948e-001 7.43773580e-002 6.95514381e-002
      6.79409206e-002 7.94033483e-002 1.62613899e-001 1.88193306e-001
      2.26336345e-001 2.26336345e-001 1.87025696e-001 1.47774249e-001
      1.01288751e-001 1.28978267e-001 9.62849930e-002 1.61799610e-001
      2.22276166e-001 2.24401101e-001 2.26336345e-001 2.26336345e-001</_>
    <_>
      6.01886585e-002 1.42045438e-001 3.02447081e-001 3.02447081e-001
      2.15620205e-001 6.59474730e-002 3.48206870e-002 1.71431433e-002
      4.47129607e-002 3.85216773e-002 1.70874655e-001 3.02447081e-001
      3.02447081e-001 1.24326728e-001 3.13050486e-002 1.74825080e-002
      8.58040806e-003 1.62761118e-002 4.30153124e-002 4.23977487e-002
      1.68172583e-001 3.02447081e-001 3.02447081e-001 2.38280296e-001
      5.79676442e-002 2.05015279e-002 3.80080231e-002 1.26622971e-002
      2.53211670e-002 1.37568548e-001 3.02447081e-001 3.02447081e-001
      1.48695007e-001 5.56386635e-002 1.83704384e-002 8.46465584e-003
      1.84786737e-001 1.84775621e-001 1.81420624e-001 2.07795918e-001
      1.82707995e-001 8.09202045e-002 8.22009146e-002 7.17161447e-002
      9.20690149e-002 2.23908707e-001 2.23379627e-001 1.79944113e-001
      1.67100132e-001 1.79292753e-001 1.24617532e-001 1.22818828e-001
      1.27038017e-001 2.12283149e-001 1.07155696e-001 9.22037363e-002
      1.09659024e-001 1.76189423e-001 2.12540641e-001 1.64095119e-001
      1.24539010e-001 1.02019317e-001 8.54172111e-002 2.23908707e-001
      1.49819627e-001 1.21887766e-001 1.68447867e-001 2.23908707e-001
      2.23908707e-001 2.11149901e-001 1.72067419e-001 2.23908707e-001
      1.13833338e-001 8.71837288e-002 6.12623021e-002 5.12921996e-002
      9.48945656e-002 1.37302056e-001 3.05175781e-001 2.35390559e-001
      1.30458102e-001 4.33436856e-002 3.74356434e-002 2.94860490e-002
      3.06854788e-002 4.80420552e-002 1.33241013e-001 3.05175781e-001
      3.05175781e-001 1.29590541e-001 1.11490749e-001 9.97459069e-002
      7.27275908e-002 1.15497708e-001 1.30922735e-001 1.35381177e-001
      2.66694516e-001 2.51954883e-001 1.67815328e-001 1.65221378e-001
      1.25041261e-001 7.88355917e-002 1.03804201e-001 1.11114524e-001
      9.18929949e-002 3.05175781e-001 3.05175781e-001 2.05314994e-001
      5.78369647e-002 2.42324192e-002 1.25402659e-002 8.60089529e-003
      2.87927650e-002 4.34758924e-002 8.87019783e-002 2.97223419e-001
      2.88100630e-001 1.17097415e-001 2.33523510e-002 1.71363726e-002
      1.33276237e-002 2.61407867e-002 6.27837256e-002 9.83799696e-002
      2.36972883e-001 3.28444660e-001 1.90585524e-001 6.16428666e-002
      2.59833504e-002 1.40161868e-002 2.90264525e-002 4.39101756e-002
      1.07438073e-001 3.50067466e-001 3.50067466e-001 3.50067466e-001
      5.60570285e-002 2.24033110e-002 1.16758943e-002 2.18899306e-002
      2.57254001e-002 4.70104218e-002 2.54391849e-001 3.50067466e-001</_>
    <_>
      2.85387188e-001 3.25311393e-001 2.71316111e-001 4.35433611e-002
      5.42595983e-002 5.11578657e-002 3.45452167e-002 5.70041835e-002
      9.97123718e-002 3.25311393e-001 3.25311393e-001 1.92826122e-001
      2.52493974e-002 3.50981802e-002 2.33830009e-002 3.21856290e-002
      5.81880063e-002 1.06965311e-001 1.51795313e-001 3.25311393e-001
      3.25311393e-001 9.76584107e-002 4.81717288e-002 2.66549606e-002
      1.37069570e-002 1.65609587e-002 3.99612188e-002 2.15033337e-001
      3.25311393e-001 1.85724944e-001 6.41953200e-002 4.84426208e-002
      2.91092247e-002 2.72442792e-002 3.96166667e-002 3.73246931e-002
      3.43502164e-001 1.82042703e-001 4.97229733e-002 1.76733360e-002
      2.45358758e-002 7.09482748e-003 1.07270516e-002 5.36115319e-002
      3.43502164e-001 3.43502164e-001 1.16593935e-001 2.78678816e-002
      1.24858962e-002 1.56040043e-002 6.47671288e-003 2.69953962e-002
      1.47335857e-001 3.43502164e-001 3.09112608e-001 2.17558146e-001
      9.08852890e-002 4.49890643e-002 2.38524824e-002 2.03394610e-002
      2.38258764e-002 4.87249307e-002 1.63978949e-001 3.43502164e-001
      1.61105618e-001 8.31737742e-002 5.45919314e-002 3.22921574e-002
      2.32700370e-002 3.66172008e-002 9.71856415e-002 3.12380493e-001
      5.35604693e-002 5.76416478e-002 1.06328800e-001 1.53835952e-001
      2.29918614e-001 2.35688880e-001 1.95024699e-001 9.84462276e-002
      6.31420612e-002 6.27641231e-002 7.09094107e-002 1.30337492e-001
      2.04402238e-001 2.17543915e-001 2.34166458e-001 1.72354266e-001
      1.09460786e-001 9.15745422e-002 7.17294514e-002 6.44595027e-002
      6.07892573e-002 7.50602111e-002 1.82493910e-001 2.72230387e-001
      2.72230387e-001 2.72230387e-001 1.49523914e-001 8.36347938e-002
      7.96182379e-002 7.43518844e-002 1.10107079e-001 1.65596962e-001
      2.14737445e-001 2.72230387e-001 2.72230387e-001 1.63295418e-001
      1.72698036e-001 1.26890391e-001 1.79302767e-001 1.03871107e-001
      8.61372724e-002 1.49365574e-001 1.85238644e-001 1.72940597e-001
      2.04484075e-001 2.23747641e-001 1.71722353e-001 2.12690264e-001
      1.24702960e-001 1.11393400e-001 1.14903629e-001 2.02111706e-001
      2.09911361e-001 2.23747641e-001 1.62764251e-001 9.26990137e-002
      1.09276034e-001 6.60348460e-002 1.26227051e-001 1.68407008e-001
      2.23747641e-001 2.07075045e-001 2.06667557e-001 2.23747641e-001
      1.31998464e-001 9.46932957e-002 6.14359453e-002 1.15492918e-001
      1.05687894e-001 2.22064957e-001 1.91729486e-001 2.23747641e-001</_>
    <_>
      1.11271985e-001 2.58367091e-001 2.58367091e-001 2.58367091e-001
      2.10473120e-001 9.83951762e-002 6.32855371e-002 5.33294119e-002
      7.81844929e-002 1.16353944e-001 2.02712819e-001 2.25059316e-001
      2.58367091e-001 2.29274780e-001 9.44885537e-002 7.60916248e-002
      7.57776350e-002 8.17203075e-002 5.51667400e-002 7.07615092e-002
      1.71464711e-001 2.58367091e-001 2.58367091e-001 1.80162355e-001
      1.10504337e-001 8.02425593e-002 5.59015870e-002 7.76409730e-002
      9.08860043e-002 1.86980978e-001 2.58367091e-001 2.58367091e-001
      1.82299465e-001 1.18842497e-001 7.55622908e-002 7.12521747e-002
      2.24072605e-001 2.13452578e-001 1.53301358e-001 8.73713940e-002
      1.01048797e-001 8.29752758e-002 1.02930062e-001 1.27057090e-001
      1.94783583e-001 2.25824028e-001 2.25824028e-001 1.68443978e-001
      1.17818058e-001 9.69413966e-002 9.43919867e-002 9.73018259e-002
      1.06657818e-001 2.25824028e-001 1.82248175e-001 1.29883856e-001
      1.62977785e-001 1.08432092e-001 1.11325189e-001 1.40570134e-001
      1.63232580e-001 1.88336059e-001 2.17527330e-001 2.25824028e-001
      2.16588512e-001 2.25824028e-001 1.52380303e-001 1.25560090e-001
      1.33467317e-001 1.68680623e-001 1.98811114e-001 2.25824028e-001
      3.39695923e-002 1.47306677e-002 1.60271134e-002 1.53243830e-002
      2.40091216e-002 5.69523498e-002 3.29324991e-001 3.29324991e-001
      1.71716034e-001 4.99206334e-002 1.86550468e-002 1.16869919e-002
      1.53007070e-002 2.60370690e-002 3.53100523e-002 1.52391657e-001
      3.29324991e-001 2.51741707e-001 1.34828985e-001 1.07300974e-001
      8.86461958e-002 5.48414513e-002 5.99847585e-002 4.36093621e-002
      1.86507717e-001 3.29324991e-001 2.83643842e-001 1.42201513e-001
      7.29765743e-002 4.67007421e-002 2.39899643e-002 5.76747023e-002
      5.72876409e-002 1.51226953e-001 3.29324991e-001 3.29324991e-001
      2.00752556e-001 3.37107815e-002 1.20185688e-002 1.52150970e-002
      4.14013453e-002 3.98158729e-002 6.77540898e-002 1.45258799e-001
      3.13087493e-001 3.46267819e-001 9.75824445e-002 1.47533081e-002
      1.81845389e-002 2.77963802e-002 2.70915572e-002 6.41921088e-002
      1.21141918e-001 2.92654604e-001 3.63287389e-001 5.90585507e-002
      1.32992417e-002 1.45156076e-002 2.45990753e-002 1.79341603e-002
      2.98648831e-002 1.29121393e-001 3.63287389e-001 3.63287389e-001
      1.65790841e-001 2.06333529e-002 1.95735358e-002 2.18305010e-002
      1.13011254e-002 3.28646414e-002 1.06602192e-001 3.63287389e-001</_>
    <_>
      3.62266153e-001 1.45866230e-001 2.60943454e-002 1.37265883e-002
      3.13857086e-002 3.21762748e-002 4.87342849e-002 1.64373606e-001
      3.62266153e-001 3.62266153e-001 5.88401929e-002 1.80282630e-002
      1.27333328e-002 3.79153155e-002 3.91497239e-002 8.14268067e-002
      3.16428661e-001 3.62266153e-001 1.93841830e-001 8.57945830e-002
      4.66811955e-002 3.09186559e-002 5.87383211e-002 8.34806710e-002
      1.11175604e-001 1.79314137e-001 2.29857042e-001 1.15603596e-001
      5.00228703e-002 3.20919231e-002 3.63609605e-002 7.49608204e-002
      1.01987228e-001 1.38240784e-001 2.24950150e-001 2.10728481e-001
      8.34964961e-002 7.04906434e-002 5.39853312e-002 3.89072448e-002
      5.31697646e-002 6.66486248e-002 3.01703483e-001 3.01703483e-001
      1.94763526e-001 1.00013420e-001 7.06000030e-002 6.18158318e-002
      6.85157403e-002 9.20872986e-002 1.25413433e-001 3.01703483e-001
      2.89639443e-001 1.31065264e-001 2.13016365e-002 1.35530746e-002
      1.70422941e-002 2.09881179e-002 7.14391023e-002 1.76022381e-001
      3.01703483e-001 3.01703483e-001 7.63273463e-002 7.41868019e-002
      4.20582816e-002 3.78235355e-002 4.55517396e-002 1.65230587e-001
      3.01703483e-001 3.01703483e-001 2.43249595e-001 9.44873840e-002
      2.77528793e-001 1.95849478e-001 9.23187211e-002 6.93696886e-002
      6.31622747e-002 3.52916718e-002 3.38907391e-002 5.10319248e-002
      1.60799980e-001 2.65800267e-001 1.83537394e-001 1.31151587e-001
      8.10974464e-002 8.65671784e-002 5.39949015e-002 3.59122828e-002
      3.82389054e-002 1.09493271e-001 3.45440358e-001 2.29676530e-001
      5.33102602e-002 2.39761434e-002 4.33823131e-002 1.44361379e-002
      2.16942765e-002 1.14318170e-001 3.45440358e-001 3.45440358e-001
      3.36196244e-001 9.96729881e-002 4.66824658e-002 5.07551543e-002
      2.07955614e-002 1.56385005e-002 4.70931679e-002 3.45440358e-001
      7.34106600e-002 2.88088679e-001 2.88088679e-001 2.18673348e-001
      6.76641911e-002 2.91429963e-002 1.87564418e-002 1.48535026e-002
      2.42876690e-002 8.78670663e-002 2.12217778e-001 2.88088679e-001
      2.88088679e-001 1.23925753e-001 6.69558719e-002 3.52297761e-002
      3.76914367e-002 7.07251057e-002 2.18631282e-001 2.88088679e-001
      2.88088679e-001 8.79370049e-002 5.63069955e-002 4.81435582e-002
      4.33116071e-002 6.15011342e-002 8.10327008e-002 2.00358018e-001
      2.78377801e-001 2.88088679e-001 1.22313678e-001 1.02183491e-001
      9.19516087e-002 8.88065845e-002 1.13974355e-001 1.74585059e-001</_>
    <_>
      1.26140282e-001 2.28749380e-001 2.82009214e-001 2.82009214e-001
      1.89541250e-001 7.83230290e-002 5.98614365e-002 6.82260618e-002
      8.95484462e-002 1.85907930e-001 2.82009214e-001 2.82009214e-001
      1.60088778e-001 5.94046339e-002 5.50468005e-002 5.28255478e-002
      9.75183323e-002 1.56975612e-001 6.11408986e-002 1.57637507e-001
      2.82009214e-001 2.82009214e-001 1.69681057e-001 5.60714342e-002
      3.99405025e-002 3.88850495e-002 5.29529899e-002 8.62160176e-002
      2.08223522e-001 2.82009214e-001 2.82009214e-001 6.61495924e-002
      3.85432951e-002 4.20632623e-002 4.54987846e-002 6.14532530e-002
      1.16140977e-001 1.11295886e-001 1.20247453e-001 1.24771580e-001
      2.12436661e-001 2.37115428e-001 2.37115428e-001 1.94133297e-001
      1.35343999e-001 1.15244828e-001 1.34824827e-001 1.61590159e-001
      1.96232647e-001 2.37115428e-001 2.23935470e-001 1.83867723e-001
      2.19735801e-001 1.71575442e-001 7.90808722e-002 9.61919576e-002
      8.68342966e-002 1.16775900e-001 2.37115428e-001 2.37115428e-001
      1.82241589e-001 9.66126323e-002 6.95566013e-002 1.06308743e-001
      1.11842342e-001 1.50183603e-001 1.92362115e-001 2.37115428e-001
      1.80085808e-001 1.22092105e-001 1.16323590e-001 1.31114841e-001
      3.59080546e-002 4.29485403e-002 6.12205043e-002 3.14326912e-001
      3.14326912e-001 3.14326912e-001 6.16940409e-002 3.80934775e-002
      2.32564155e-002 2.33490672e-002 4.97372337e-002 9.35291424e-002
      1.83785200e-001 3.14326912e-001 1.55525386e-001 6.10166006e-002
      2.78041493e-002 1.71348695e-002 5.25770709e-002 4.65830900e-002
      4.40523177e-002 1.21806771e-001 3.14326912e-001 3.14326912e-001
      2.16611579e-001 3.01745143e-002 2.63943225e-002 3.84679139e-002
      5.96928000e-002 1.10761933e-001 1.21535972e-001 2.97225326e-001
      3.07606816e-001 1.63449228e-001 5.77833839e-002 3.88329029e-002
      5.15931062e-002 4.37185094e-002 1.29525453e-001 4.15990561e-001
      4.15990561e-001 1.23208456e-001 8.44601467e-002 8.04313049e-002
      5.07787727e-002 4.70802672e-002 5.56934774e-002 8.90091807e-002
      1.54806271e-001 1.82080433e-001 7.91212022e-002 8.67002904e-002
      7.03712478e-002 4.57439944e-002 7.93530867e-002 6.30544573e-002
      2.40515873e-001 4.15990561e-001 3.84935915e-001 1.05537981e-001
      7.41773620e-002 6.53884858e-002 6.41300678e-002 9.96278077e-002
      6.68367147e-002 9.36886221e-002 1.67530671e-001 1.44885167e-001
      5.77767752e-002 5.64479828e-002 7.51566961e-002 8.41465369e-002</_>
    <_>
      3.46531458e-002 9.06270519e-002 3.28230828e-001 3.28230828e-001
      3.28230828e-001 9.27410945e-002 5.07636778e-002 4.11009714e-002
      3.89672928e-002 5.74278422e-002 8.50856826e-002 2.18574956e-001
      3.23547184e-001 1.79750770e-001 6.58642873e-002 4.96034287e-002
      3.35676931e-002 5.72346561e-002 3.44600491e-002 6.44257069e-002
      1.26825467e-001 3.28230828e-001 3.28230828e-001 1.39453873e-001
      6.98159337e-002 4.22525369e-002 3.10835559e-002 3.04222014e-002
      6.58545271e-002 1.37066320e-001 2.45297581e-001 2.81363845e-001
      1.04957186e-001 5.28497659e-002 2.87015978e-002 3.49513143e-002
      6.00827970e-002 5.48252426e-002 8.07453021e-002 1.56804636e-001
      3.93577576e-001 3.93577576e-001 1.00453608e-001 5.09216413e-002
      5.55903092e-002 1.04277156e-001 7.66039565e-002 1.18511513e-001
      1.38514861e-001 2.07678974e-001 1.30304039e-001 1.21728152e-001
      1.38115615e-001 1.54147103e-001 3.58941741e-002 3.16985101e-002
      6.91917092e-002 3.93577576e-001 3.93577576e-001 2.26886585e-001
      8.07639360e-002 5.58331981e-002 3.57760862e-002 5.63434139e-002
      3.98880243e-002 5.79738729e-002 1.00120962e-001 1.73631445e-001
      1.04736522e-001 1.06844455e-001 1.04345873e-001 6.45679832e-002
      6.16591759e-002 3.27939726e-002 3.41366827e-002 5.58825098e-002
      1.59387469e-001 2.48553976e-001 2.48553976e-001 1.29698887e-001
      9.49218422e-002 1.73646495e-001 1.51058286e-001 1.63451359e-001
      7.20067322e-002 7.82470256e-002 1.79416686e-001 2.25597546e-001
      1.47037536e-001 1.73894078e-001 1.20022744e-001 7.77017325e-002
      5.90491034e-002 1.06109276e-001 1.58168554e-001 2.06631035e-001
      2.48553976e-001 2.03129888e-001 2.10299537e-001 2.48553976e-001
      2.48553976e-001 1.89381287e-001 8.98754820e-002 1.06048413e-001
      1.27216265e-001 2.01930255e-001 1.99902818e-001 2.48553976e-001
      1.50215521e-001 1.42995223e-001 2.29459569e-001 2.29459569e-001
      1.71446800e-001 6.37965798e-002 7.04071149e-002 9.35560241e-002
      1.16721787e-001 1.35201871e-001 1.00357205e-001 1.09601572e-001
      9.64401662e-002 1.17147841e-001 4.67523858e-002 5.68110235e-002
      8.08655694e-002 1.51474282e-001 2.04390839e-001 1.83054611e-001
      1.88314661e-001 1.60162777e-001 1.97287351e-001 1.80350021e-001
      1.45613253e-001 1.82854950e-001 1.98578134e-001 1.93159163e-001
      1.95675656e-001 2.00194806e-001 2.29459569e-001 2.29459569e-001
      1.93991408e-001 1.65217847e-001 2.23217681e-001 2.29459569e-001</_>
    <_>
      1.94943562e-001 2.20444724e-001 2.06416160e-001 2.04796612e-001
      2.20444724e-001 2.20444724e-001 1.66703016e-001 1.94044590e-001
      2.11678326e-001 1.83058381e-001 1.50587693e-001 1.32789135e-001
      2.12926820e-001 2.01376021e-001 1.42153859e-001 1.37511611e-001
      2.02298209e-001 2.12530166e-001 1.39844537e-001 1.62431881e-001
      1.37497857e-001 1.39069453e-001 1.96180135e-001 2.20444724e-001
      1.86857045e-001 1.53053433e-001 1.29338562e-001 1.25688419e-001
      8.93850476e-002 8.28975961e-002 1.18488617e-001 1.46651983e-001
      6.35902882e-002 5.01322672e-002 6.27053082e-002 1.06075473e-001
      2.23417282e-001 2.57038683e-001 2.57038683e-001 1.28238767e-001
      7.85727352e-002 7.73114190e-002 1.27260596e-001 1.29945517e-001
      1.83746710e-001 1.52701557e-001 1.23904645e-001 7.19457865e-002
      5.97602315e-002 1.13126397e-001 2.51013756e-001 2.57038683e-001
      2.24944577e-001 2.05522954e-001 7.64932334e-002 1.28026694e-001
      2.57038683e-001 2.57038683e-001 1.46233648e-001 1.23782061e-001
      1.22434132e-001 6.35353252e-002 5.99202141e-002 5.95966503e-002
      4.62621227e-002 4.62055467e-002 8.86152238e-002 2.56252885e-001
      2.57038683e-001 2.57038683e-001 8.46551880e-002 5.87700158e-002
      1.13518164e-001 1.29119232e-001 1.75514162e-001 2.07741767e-001
      2.18241602e-001 1.77899182e-001 1.82816565e-001 1.72715202e-001
      1.71645045e-001 7.94453993e-002 9.34396684e-002 1.18988633e-001
      1.53254747e-001 2.18241602e-001 1.45313531e-001 1.11691765e-001
      1.40925154e-001 1.19547568e-001 1.06689662e-001 1.80148676e-001
      1.90349296e-001 1.92211896e-001 2.18241602e-001 1.99187309e-001
      1.57686710e-001 1.54037908e-001 1.08546086e-001 1.41877890e-001
      1.36529729e-001 1.63197026e-001 2.18241602e-001 2.18241602e-001
      2.18241602e-001 1.24931470e-001 1.93536386e-001 1.67920098e-001
      5.89168184e-002 1.04493342e-001 1.91694275e-001 1.65304750e-001
      1.42683014e-001 1.72627538e-001 1.02326930e-001 4.99168783e-002
      5.19534945e-002 4.03554663e-002 1.04904898e-001 2.79558033e-001
      2.79558033e-001 1.88484818e-001 7.37957582e-002 2.60524582e-002
      3.37976031e-002 4.25257199e-002 1.65123031e-001 2.50531435e-001
      2.79558033e-001 1.02924347e-001 7.18613490e-002 1.35858998e-001
      2.21655056e-001 1.87525213e-001 2.19600737e-001 1.32194206e-001
      2.79558033e-001 2.79558033e-001 2.79558033e-001 1.83034182e-001
      5.56853227e-002 5.21156304e-002 5.57471067e-002 1.00512035e-001</_>
    <_>
      7.56535530e-002 1.67643368e-001 2.19324157e-001 1.64304450e-001
      7.40656257e-002 4.05451767e-002 4.52103317e-002 3.58728990e-002
      5.45803048e-002 1.50434524e-001 1.94097698e-001 1.84744239e-001
      1.12670541e-001 8.12052563e-002 1.53892726e-001 2.39456058e-001
      1.78420871e-001 1.72444195e-001 6.77630231e-002 1.64131731e-001
      2.39456058e-001 2.39456058e-001 2.39456058e-001 8.23833942e-002
      8.08632895e-002 6.37944490e-002 4.47879806e-002 1.27431497e-001
      2.11866856e-001 2.39456058e-001 2.39456058e-001 2.39456058e-001
      2.39456058e-001 2.39456058e-001 1.81605920e-001 1.23167261e-001
      6.75378218e-002 4.53923419e-002 5.09000234e-002 7.46610463e-002
      9.33598280e-002 9.17060673e-002 2.16237426e-001 2.80583471e-001
      1.54435337e-001 5.35500944e-002 6.04222603e-002 8.67673308e-002
      1.12546161e-001 1.20954253e-001 8.26166645e-002 8.97166356e-002
      9.38538238e-002 7.87102580e-002 1.63759679e-001 8.89012665e-002
      8.49658325e-002 6.46918565e-002 9.23366472e-002 1.35236755e-001
      3.37822944e-001 3.37822944e-001 3.37822944e-001 1.47979900e-001
      6.54939264e-002 8.78486633e-002 8.59893784e-002 9.87734869e-002
      6.37839958e-002 2.13233039e-001 3.37822944e-001 3.37822944e-001
      7.83761367e-002 9.87465307e-002 1.35004163e-001 1.68998867e-001
      2.67815024e-001 2.67815024e-001 6.84191436e-002 6.58314303e-002
      6.21383153e-002 1.32363379e-001 1.20364934e-001 1.65601104e-001
      2.13266060e-001 2.58625865e-001 1.65368631e-001 1.49954468e-001
      1.30784839e-001 9.53770503e-002 6.10035658e-002 5.48611134e-002
      6.65289760e-002 1.23864375e-001 2.67815024e-001 2.67815024e-001
      1.47049591e-001 7.58307278e-002 5.65656200e-002 1.07120618e-001
      1.34839132e-001 2.26580665e-001 2.67815024e-001 2.67815024e-001
      1.95749938e-001 1.89433590e-001 1.50163576e-001 9.36011076e-002
      1.31071240e-001 1.12710379e-001 1.65072411e-001 1.54610351e-001
      2.05572307e-001 2.00794667e-001 1.80033132e-001 1.24012411e-001
      1.70207366e-001 1.47723332e-001 8.23042989e-002 1.47879422e-001
      1.56915486e-001 1.98411524e-001 1.36521965e-001 1.43258438e-001
      1.40676573e-001 2.14953348e-001 1.73904106e-001 1.49755239e-001
      1.78439990e-001 1.72000125e-001 2.13131666e-001 1.78688049e-001
      1.56038657e-001 1.12198763e-001 1.84182420e-001 2.13432193e-001
      1.27488807e-001 1.40562415e-001 1.40293926e-001 2.14953348e-001
      1.69098988e-001 1.64628536e-001 1.61871985e-001 2.14953348e-001</_>
    <_>
      1.04868136e-001 4.54900824e-002 3.60866450e-002 4.81878594e-002
      1.27488390e-001 1.96790770e-001 2.61968851e-001 2.61968851e-001
      1.74018219e-001 5.83984889e-002 2.70415712e-002 3.34190428e-002
      4.67226133e-002 7.11827725e-002 8.42362493e-002 2.61968851e-001
      2.61968851e-001 1.11639462e-001 1.00958817e-001 6.61088899e-002
      8.11879188e-002 9.63167846e-002 2.61968851e-001 2.61968851e-001
      2.61968851e-001 2.23635837e-001 1.25517651e-001 1.07437760e-001
      6.43395334e-002 5.64742498e-002 7.05679506e-002 1.79511443e-001
      2.30705634e-001 2.61968851e-001 2.61968851e-001 2.00528979e-001
      7.50309527e-002 1.00246981e-001 1.31825492e-001 1.37387902e-001
      1.61314741e-001 1.52741089e-001 1.34013891e-001 8.37615281e-002
      8.71554241e-002 1.30182385e-001 7.61799067e-002 1.36845574e-001
      1.15216993e-001 1.45670369e-001 1.21524446e-001 1.15355588e-001
      7.90160745e-002 1.23557605e-001 1.97016746e-001 1.61815420e-001
      1.89963177e-001 1.43710226e-001 1.32635459e-001 1.45629153e-001
      2.23167002e-001 2.76290983e-001 2.76290983e-001 2.23372594e-001
      1.50160626e-001 1.76653922e-001 1.50458574e-001 1.78620338e-001
      1.88609987e-001 2.19994962e-001 2.37293676e-001 2.76290983e-001
      9.21273530e-002 1.00681104e-001 1.48059964e-001 2.58727998e-001
      2.58727998e-001 2.51434445e-001 8.93717408e-002 9.95689556e-002
      1.06484160e-001 8.73260275e-002 1.02500685e-001 1.39553726e-001
      2.13709906e-001 2.58727998e-001 2.37128168e-001 8.54108036e-002
      1.09422967e-001 8.52623135e-002 8.87890905e-002 1.19982257e-001
      2.58727998e-001 2.58727998e-001 2.58727998e-001 1.64005265e-001
      7.28842616e-002 6.87290877e-002 8.08233842e-002 7.14062974e-002
      1.24150522e-001 1.99321166e-001 2.58727998e-001 2.58727998e-001
      1.45229489e-001 7.18053058e-002 7.99041465e-002 6.49758130e-002
      1.17450640e-001 8.70205462e-002 1.22243352e-001 1.34656236e-001
      1.63003728e-001 1.38860047e-001 1.59960330e-001 1.68775991e-001
      1.52340099e-001 1.06991708e-001 7.65154883e-002 1.40823230e-001
      2.61334330e-001 2.61334330e-001 2.41126344e-001 2.22097546e-001
      1.49393857e-001 1.16294071e-001 1.59551263e-001 1.48390502e-001
      1.53597832e-001 1.34103894e-001 1.58226609e-001 1.56435132e-001
      1.46440923e-001 1.66210249e-001 1.80708170e-001 1.23250112e-001
      1.25010788e-001 2.61334330e-001 2.61334330e-001 2.61334330e-001
      1.34944692e-001 9.54650193e-002 9.85247046e-002 9.87629518e-002</_>
    <_>
      7.38749951e-002 5.92969172e-002 1.08913891e-001 1.59725457e-001
      2.68905371e-001 2.68905371e-001 1.35384604e-001 9.10735950e-002
      6.85016215e-002 9.24656168e-002 6.17645942e-002 1.07971407e-001
      1.24713339e-001 2.68905371e-001 2.68905371e-001 1.52916089e-001
      1.63120121e-001 1.36481971e-001 6.14341833e-002 5.65818772e-002
      1.29440114e-001 2.45280415e-001 2.68905371e-001 2.68905371e-001
      1.35443643e-001 1.17239408e-001 7.45590329e-002 1.07922912e-001
      6.98984265e-002 1.04438864e-001 1.92931384e-001 2.68905371e-001
      2.68905371e-001 1.43194079e-001 1.10573895e-001 1.18477963e-001
      2.01546058e-001 9.09658670e-002 5.69133908e-002 6.15823977e-002
      9.55994874e-002 6.73753545e-002 1.47697732e-001 2.42334485e-001
      2.42334485e-001 1.82804585e-001 7.65813515e-002 7.99201950e-002
      9.44036543e-002 1.17854483e-001 1.36641800e-001 2.05741301e-001
      2.42334485e-001 2.42334485e-001 1.52696416e-001 1.04906991e-001
      1.19457640e-001 1.11162975e-001 1.47665486e-001 1.31890848e-001
      1.68859586e-001 1.71284288e-001 2.12604493e-001 1.53415173e-001
      1.09015048e-001 1.21605292e-001 2.22484529e-001 2.42334485e-001
      2.37921864e-001 2.42334485e-001 1.81520745e-001 1.78504631e-001
      1.89564720e-001 2.57047474e-001 2.57047474e-001 2.57047474e-001
      2.41007015e-001 9.45750922e-002 5.75462095e-002 5.18106632e-002
      7.02899322e-002 2.57047474e-001 2.57047474e-001 1.73810035e-001
      1.84994042e-001 1.48016632e-001 6.63405210e-002 5.43633364e-002
      6.53389245e-002 1.57025576e-001 2.57047474e-001 2.57047474e-001
      2.42654696e-001 2.07595870e-001 9.27338377e-002 3.13039348e-002
      3.61086689e-002 4.12179008e-002 7.63978660e-002 2.57047474e-001
      2.57047474e-001 1.27815202e-001 5.49062267e-002 6.22376353e-002
      3.47353779e-002 3.64745036e-002 5.12126796e-002 1.32156283e-001
      2.58847922e-001 2.53891289e-001 1.96582168e-001 9.79800001e-002
      1.13673985e-001 1.60591915e-001 8.95448029e-002 2.21369848e-001
      2.58847922e-001 2.58847922e-001 2.58847922e-001 2.58847922e-001
      2.58847922e-001 1.34421170e-001 9.59034860e-002 5.07404655e-002
      1.04014352e-001 1.91878930e-001 2.58847922e-001 1.44754365e-001
      1.04702570e-001 5.69742955e-002 9.32931826e-002 8.68938863e-002
      6.79500103e-002 1.26186296e-001 2.26749942e-001 1.65605649e-001
      1.39335454e-001 1.36819661e-001 6.90419823e-002 8.06995332e-002
      9.50841457e-002 7.57300034e-002 9.36729163e-002 1.36815846e-001</_>
    <_>
      1.19295366e-001 1.60583764e-001 2.00055957e-001 1.98053509e-001
      1.71158150e-001 2.18457311e-001 2.17955515e-001 1.50884867e-001
      1.21597752e-001 6.68328330e-002 6.98208064e-002 6.36288971e-002
      1.02733925e-001 2.48737246e-001 2.48737246e-001 2.48737246e-001
      2.43996605e-001 1.08262472e-001 1.13821164e-001 8.17130432e-002
      1.53630272e-001 1.96218088e-001 2.44767129e-001 1.82843074e-001
      1.38605431e-001 8.45037699e-002 1.33263290e-001 7.83578753e-002
      6.25569075e-002 9.04832035e-002 1.70336515e-001 2.48737246e-001
      2.48737246e-001 1.69064984e-001 9.75691602e-002 8.41070041e-002
      1.06463879e-001 4.81078066e-002 5.53507768e-002 6.67705163e-002
      6.30343854e-002 7.26423338e-002 1.14950292e-001 2.93398768e-001
      2.93398768e-001 1.04424350e-001 7.13587552e-002 9.48812589e-002
      7.01607242e-002 6.90199062e-002 9.37617719e-002 9.09105688e-002
      2.34495372e-001 2.70068824e-001 1.29561663e-001 8.02250579e-002
      1.01453379e-001 1.21828780e-001 1.45663098e-001 1.21810101e-001
      2.01389804e-001 2.93398768e-001 2.93398768e-001 2.32075259e-001
      1.14253536e-001 1.14730507e-001 9.81931612e-002 9.01435390e-002
      8.52814615e-002 1.64871499e-001 2.93398768e-001 2.93398768e-001
      8.92985016e-002 8.85051042e-002 1.39866933e-001 2.09153876e-001
      2.18734875e-001 1.57177269e-001 1.08280830e-001 9.70479250e-002
      9.35407281e-002 8.45554247e-002 1.17015578e-001 2.42548004e-001
      2.48561665e-001 2.48561665e-001 1.69371277e-001 7.80314654e-002
      7.74515420e-002 8.34438503e-002 1.50492474e-001 1.34093940e-001
      2.48561665e-001 2.48561665e-001 1.58853725e-001 1.72171310e-001
      1.47609711e-001 1.00257851e-001 1.03541173e-001 2.00834796e-001
      2.48561665e-001 2.48561665e-001 2.48561665e-001 2.19363436e-001
      1.30348101e-001 6.02710918e-002 3.95189039e-002 8.57956931e-002
      1.35377407e-001 1.31274104e-001 1.45909116e-001 1.06813200e-001
      1.35681182e-001 1.56464100e-001 1.25008747e-001 1.38798863e-001
      1.39736623e-001 1.78478837e-001 1.33510709e-001 1.32770076e-001
      1.11041784e-001 1.38501644e-001 1.30491570e-001 1.09920114e-001
      1.22437231e-001 1.61313549e-001 2.79286861e-001 2.53810436e-001
      1.33220792e-001 9.09756422e-002 1.13282472e-001 1.49112165e-001
      9.66094956e-002 1.77098706e-001 2.79286861e-001 2.79286861e-001
      2.79286861e-001 1.77134126e-001 8.05715472e-002 8.67128149e-002
      1.05247162e-001 9.77462381e-002 2.01157317e-001 2.79286861e-001</_>
    <_>
      1.20200135e-001 5.61047904e-002 6.44286498e-002 1.36669084e-001
      3.20630491e-001 3.20630491e-001 1.13494806e-001 6.39674515e-002
      1.34801045e-001 1.37838200e-001 7.37598538e-002 1.26279905e-001
      1.53961033e-001 2.44398087e-001 1.82652235e-001 1.04305357e-001
      1.28652573e-001 1.67506233e-001 4.99423668e-002 3.81662697e-002
      5.76119907e-002 3.20630491e-001 3.20630491e-001 2.98684478e-001
      7.32964426e-002 4.97834869e-002 5.21931909e-002 6.63727373e-002
      4.95084226e-002 5.58431260e-002 1.50714755e-001 3.20630491e-001
      1.54354781e-001 1.04336902e-001 1.13025613e-001 8.54484960e-002
      2.23285601e-001 1.68335959e-001 1.56729698e-001 1.24989219e-001
      9.69106779e-002 9.15285498e-002 1.04875289e-001 1.27888545e-001
      2.23285601e-001 2.23285601e-001 1.68285742e-001 2.09796026e-001
      1.74343705e-001 1.49463415e-001 1.51777938e-001 1.65009722e-001
      1.38181493e-001 2.23285601e-001 1.34967551e-001 1.50452659e-001
      1.06666468e-001 1.11049421e-001 1.23768494e-001 9.49556977e-002
      1.23605765e-001 1.47874430e-001 1.40539795e-001 2.11305395e-001
      2.23285601e-001 2.08621353e-001 2.14360967e-001 1.87900349e-001
      1.67642102e-001 1.70325875e-001 1.74128145e-001 1.94297358e-001
      1.62466094e-001 1.48142412e-001 2.29535088e-001 2.29535088e-001
      2.06228971e-001 8.63940865e-002 7.99438879e-002 1.57966331e-001
      2.09214568e-001 1.55959129e-001 1.62182122e-001 1.30386710e-001
      1.76448017e-001 1.57763571e-001 8.57447237e-002 7.68545419e-002
      1.13917120e-001 1.69268221e-001 2.11273536e-001 1.81939259e-001
      1.66516393e-001 1.52541354e-001 2.29535088e-001 1.37085587e-001
      1.17094703e-001 1.48316875e-001 2.09970549e-001 1.93432331e-001
      1.78093523e-001 1.79291859e-001 1.52917743e-001 1.78975239e-001
      1.62273496e-001 1.27030313e-001 1.45049810e-001 2.00325459e-001
      1.01656698e-001 8.38176832e-002 7.87101015e-002 7.78190196e-002
      1.33400276e-001 5.56863099e-002 5.89891449e-002 8.17731917e-002
      1.05808049e-001 1.54041603e-001 1.74902901e-001 1.69021249e-001
      2.10578576e-001 2.30052307e-001 1.95544094e-001 1.56679273e-001
      1.90349743e-001 1.59027159e-001 1.58667043e-001 1.63399562e-001
      1.37957767e-001 1.50626808e-001 1.87368423e-001 1.54282674e-001
      1.59422740e-001 1.71111092e-001 1.71958685e-001 1.98104128e-001
      2.14729369e-001 2.03037038e-001 1.71309978e-001 2.30052307e-001
      2.30052307e-001 2.30052307e-001 1.88162729e-001 1.85729101e-001</_>
    <_>
      3.45423184e-002 3.37230675e-002 6.59408271e-002 3.26071769e-001
      3.40037346e-001 1.81285858e-001 4.98290621e-002 3.29090394e-002
      2.82910783e-002 3.97253819e-002 4.75290008e-002 6.99464679e-002
      2.07417265e-001 3.40037346e-001 1.24243572e-001 7.02533647e-002
      6.42770380e-002 3.87463979e-002 3.90553623e-002 4.46065217e-002
      1.55442208e-001 3.40037346e-001 3.40037346e-001 7.20812529e-002
      4.17764522e-002 3.22134346e-002 3.22931148e-002 5.39556332e-002
      5.15291989e-002 1.16244435e-001 3.40037346e-001 3.40037346e-001
      7.55810142e-002 8.37377310e-002 6.50526285e-002 4.61208038e-002
      1.10075168e-001 7.63657689e-002 1.44925997e-001 1.21712841e-001
      2.09690139e-001 1.37515038e-001 1.69618055e-001 1.81752071e-001
      2.04311803e-001 2.50213951e-001 2.09522620e-001 1.37606502e-001
      1.24328211e-001 2.50213951e-001 1.47009194e-001 2.11508915e-001
      2.41435945e-001 2.50213951e-001 9.47131887e-002 6.83570877e-002
      1.03826761e-001 7.86580518e-002 2.26797119e-001 8.74541029e-002
      1.13534786e-001 8.48450884e-002 1.22355111e-001 2.50213951e-001
      1.49403602e-001 1.26871124e-001 7.81162605e-002 2.04806104e-001
      9.57268178e-002 1.17733195e-001 1.64601594e-001 2.50213951e-001
      2.16541812e-001 1.72940969e-001 2.30309844e-001 1.36987150e-001
      2.30309844e-001 9.03093293e-002 9.84560698e-002 1.88416794e-001
      2.30309844e-001 2.26756990e-001 1.07073516e-001 1.08180426e-001
      1.13752812e-001 1.24001943e-001 1.06290087e-001 1.19750507e-001
      1.56775817e-001 2.15105876e-001 1.94639221e-001 2.01318875e-001
      1.53441325e-001 1.28227577e-001 2.30309844e-001 1.15098968e-001
      1.15018964e-001 1.31961644e-001 1.47046760e-001 2.05443218e-001
      1.82116345e-001 1.62965611e-001 1.71784967e-001 2.13982850e-001
      1.45776019e-001 1.66640282e-001 1.07142121e-001 1.24821968e-001
      1.32757291e-001 1.00591160e-001 7.86169395e-002 6.36020154e-002
      1.00451618e-001 9.03039500e-002 8.26324672e-002 1.85270801e-001
      1.85008913e-001 1.74346313e-001 1.16661206e-001 1.22288533e-001
      8.28068927e-002 1.01450883e-001 7.75101781e-002 9.73135680e-002
      1.45584092e-001 2.10365146e-001 1.74337804e-001 1.35158136e-001
      1.76570415e-001 1.74137965e-001 1.97804540e-001 1.83771744e-001
      1.34315312e-001 2.12881327e-001 1.93056449e-001 2.31337547e-001
      1.79387450e-001 2.31337547e-001 1.89203307e-001 2.31337547e-001
      1.94836363e-001 2.27684945e-001 2.31337547e-001 2.31337547e-001</_>
    <_>
      1.17808223e-001 2.62268394e-001 2.62268394e-001 1.96487010e-001
      2.62268394e-001 1.70813695e-001 1.38525650e-001 1.39353797e-001
      1.42410249e-001 1.68347254e-001 2.62268394e-001 2.62268394e-001
      1.20429926e-001 1.07737429e-001 8.10788497e-002 8.03885683e-002
      8.82106870e-002 7.37935975e-002 6.82920814e-002 2.17858613e-001
      2.62268394e-001 2.62268394e-001 1.93863556e-001 1.07547529e-001
      7.69602805e-002 7.76533559e-002 9.56934094e-002 6.24178387e-002
      2.62268394e-001 2.62268394e-001 1.53554350e-001 4.62428518e-002
      3.58347446e-002 3.85903828e-002 3.37841734e-002 3.37018222e-002
      2.19596520e-001 9.48962644e-002 7.62301013e-002 4.82159555e-002
      5.61527200e-002 5.35308160e-002 1.46443382e-001 2.93387264e-001
      2.93387264e-001 1.28786847e-001 1.07925706e-001 1.21389113e-001
      7.96115175e-002 9.56733823e-002 1.55143142e-001 2.93387264e-001
      2.93387264e-001 2.35164300e-001 1.20283462e-001 1.08075015e-001
      1.14867881e-001 7.02048391e-002 3.63877043e-002 3.17753181e-002
      1.24218211e-001 2.17608199e-001 1.73429728e-001 1.13670811e-001
      1.32260457e-001 1.18042998e-001 5.93395159e-002 6.72928169e-002
      2.03485161e-001 2.93387264e-001 2.93387264e-001 1.29154325e-001
      5.71744926e-002 5.39050773e-002 8.30759928e-002 1.60581797e-001
      3.06245297e-001 3.06245297e-001 1.58268437e-001 6.13136739e-002
      6.90403879e-002 3.67606767e-002 4.05638553e-002 3.91651653e-002
      4.56434935e-002 1.62189782e-001 1.70265734e-001 7.75504485e-002
      5.30522987e-002 3.67977098e-002 1.67288840e-001 1.60844475e-001
      1.78401381e-001 1.60043359e-001 3.06245297e-001 3.06245297e-001
      3.06245297e-001 1.55308142e-001 1.38969883e-001 4.11448143e-002
      4.56308387e-002 4.83281575e-002 3.98353301e-002 1.24281093e-001
      3.05229604e-001 3.06245297e-001 1.29475951e-001 4.34669778e-002
      7.84157068e-002 6.15428500e-002 7.68929869e-002 1.32068112e-001
      1.84774980e-001 2.45200038e-001 2.27153838e-001 1.29930750e-001
      6.75268248e-002 7.44044259e-002 3.42985950e-002 9.89070237e-002
      1.55980185e-001 1.81371644e-001 2.41481841e-001 2.45200038e-001
      2.45200038e-001 1.58121660e-001 1.25730947e-001 1.02846727e-001
      1.14985853e-001 8.81481096e-002 1.13926314e-001 1.46776408e-001
      1.58444107e-001 1.64680809e-001 1.34475231e-001 1.65003449e-001
      1.94724858e-001 2.45200038e-001 2.45200038e-001 1.29307717e-001
      1.32141709e-001 1.91851705e-001 2.45200038e-001 2.25743771e-001</_>
    <_>
      3.15499127e-001 3.15499127e-001 2.50806600e-001 8.70226473e-002
      5.05401902e-002 6.14244305e-002 4.98047583e-002 8.55486915e-002
      2.20681176e-001 3.15499127e-001 2.39126444e-001 9.92367044e-002
      6.16176352e-002 6.04793914e-002 6.19112216e-002 7.21283555e-002
      2.38366976e-001 3.15499127e-001 1.77611172e-001 2.96393573e-001
      1.88646168e-001 8.17695111e-002 4.29238789e-002 4.14477251e-002
      3.52260508e-002 4.34703007e-002 1.01227775e-001 2.08813667e-001
      1.29998028e-001 1.29396543e-001 1.06373742e-001 5.98256811e-002
      4.39067110e-002 5.48575968e-002 1.07716091e-001 1.89103603e-001
      1.20360948e-001 1.28550887e-001 1.54138893e-001 1.19389929e-001
      7.94827417e-002 1.40009552e-001 2.42078781e-001 2.21925914e-001
      1.61865458e-001 2.03300193e-001 1.64414123e-001 1.90674722e-001
      1.59560949e-001 2.18296573e-001 1.54159427e-001 1.57197654e-001
      1.85876936e-001 2.42078781e-001 7.26537779e-002 6.62582815e-002
      6.61296919e-002 5.66243529e-002 7.26989731e-002 2.42078781e-001
      2.42078781e-001 1.84566855e-001 8.42447132e-002 1.53853029e-001
      1.00351475e-001 1.44773021e-001 1.38120785e-001 1.26550987e-001
      2.42078781e-001 2.42078781e-001 1.43739030e-001 2.01401725e-001
      1.23825707e-001 1.66031554e-001 1.50066867e-001 1.34499714e-001
      1.89587757e-001 1.35972694e-001 1.45014688e-001 1.29992500e-001
      1.21804684e-001 1.58549830e-001 1.55444697e-001 1.71370640e-001
      1.86318755e-001 2.31726930e-001 2.31726930e-001 2.27934733e-001
      1.41077280e-001 1.28419653e-001 1.11561894e-001 1.49051294e-001
      1.09105267e-001 1.11591145e-001 1.67425230e-001 1.40048027e-001
      2.15193883e-001 1.61861822e-001 1.18799143e-001 1.73518270e-001
      1.66628778e-001 1.46348387e-001 1.73653662e-001 2.30387881e-001
      1.88918322e-001 2.15477347e-001 1.77800491e-001 1.68248996e-001
      3.62569094e-002 1.80481616e-002 8.86411369e-002 2.56044805e-001
      2.78663307e-001 1.12998784e-001 4.93539087e-002 8.13269317e-002
      7.20782354e-002 1.16092697e-001 5.52927069e-002 9.87221524e-002
      2.78663307e-001 2.78663307e-001 1.62616923e-001 1.01517200e-001
      7.51436204e-002 9.10128057e-002 9.44863856e-002 9.75946784e-002
      2.78663307e-001 2.78663307e-001 2.45404392e-001 7.88614750e-002
      4.20343988e-002 8.74817967e-002 1.00247242e-001 1.77249178e-001
      1.09782375e-001 2.46133834e-001 2.78663307e-001 2.78663307e-001
      1.63197666e-001 1.13666095e-001 1.06280647e-001 1.23882726e-001</_>
    <_>
      1.28846943e-001 1.65984124e-001 1.72775447e-001 1.59679770e-001
      1.98252439e-001 1.02999076e-001 1.14820212e-001 1.10299788e-001
      1.13094568e-001 1.22316204e-001 2.09274292e-001 2.40279272e-001
      2.40279272e-001 2.40279272e-001 1.56031698e-001 1.41417861e-001
      1.20736487e-001 1.20498851e-001 1.02223717e-001 1.15388595e-001
      1.57285929e-001 1.70056984e-001 2.16161385e-001 1.43323466e-001
      1.43757313e-001 1.31690562e-001 1.39690951e-001 1.00338988e-001
      1.29167929e-001 1.94246054e-001 2.40279272e-001 2.40279272e-001
      2.40279272e-001 1.97162718e-001 1.28975958e-001 9.61085483e-002
      6.39461279e-002 6.90096170e-002 7.99582303e-002 6.09570593e-002
      1.98969230e-001 2.85246730e-001 2.85246730e-001 7.65715539e-002
      4.94642407e-002 1.31326765e-001 7.90830329e-002 1.25101820e-001
      1.40703112e-001 2.85246730e-001 2.85246730e-001 2.66800642e-001
      1.25728548e-001 1.78356349e-001 2.74496786e-002 2.26950217e-002
      4.83885482e-002 1.07022889e-001 2.85246730e-001 2.74401963e-001
      6.74891844e-002 4.50336710e-002 4.79753949e-002 9.39671919e-002
      6.97375014e-002 9.23385993e-002 1.77932918e-001 2.85246730e-001
      2.85246730e-001 1.06478274e-001 9.26512033e-002 9.96704251e-002
      6.80104271e-002 2.88829356e-002 1.98463742e-002 2.27131024e-002
      4.75621335e-002 4.81345654e-002 1.48301214e-001 3.14151049e-001
      2.02797607e-001 1.85456350e-001 9.10661370e-002 3.74960005e-002
      3.83665487e-002 5.84322959e-002 5.07386215e-002 3.86372283e-002
      1.00983754e-001 2.24798426e-001 2.21946016e-001 7.66228512e-002
      6.00154363e-002 4.54312973e-002 4.78095450e-002 1.16018094e-001
      2.74211824e-001 3.14151049e-001 3.14151049e-001 3.14151049e-001
      1.99909776e-001 6.58500120e-002 7.73632154e-002 9.92355645e-002
      9.99352336e-002 1.26803756e-001 2.78612882e-001 3.14151049e-001
      9.78732631e-002 1.99397132e-001 2.31625542e-001 2.31625542e-001
      1.00655116e-001 7.22184405e-002 7.28507489e-002 6.83510527e-002
      8.37066621e-002 1.55806854e-001 1.28007263e-001 2.09998742e-001
      2.31625542e-001 1.57177404e-001 1.35671794e-001 1.20957255e-001
      1.17108092e-001 1.36810124e-001 1.30330071e-001 2.08088174e-001
      2.31625542e-001 1.67171374e-001 1.72857717e-001 1.79938406e-001
      2.31625542e-001 1.88968599e-001 1.63810462e-001 1.56682998e-001
      1.42456710e-001 1.79073721e-001 2.31625542e-001 1.78597957e-001
      1.72315121e-001 1.61841169e-001 1.36930540e-001 1.50665864e-001</_>
    <_>
      1.60627097e-001 2.61277288e-001 2.61277288e-001 1.83323115e-001
      2.47747660e-001 1.79552346e-001 1.51978284e-001 1.11555628e-001
      1.15638815e-001 2.14630961e-001 2.61277288e-001 2.61277288e-001
      1.13256685e-001 8.81845206e-002 5.86499348e-002 6.48029968e-002
      6.06517829e-002 5.96902929e-002 1.17498368e-001 2.04453066e-001
      2.61277288e-001 2.61277288e-001 1.73911363e-001 1.23559073e-001
      1.08788311e-001 8.94755274e-002 8.16513821e-002 8.02779272e-002
      2.61277288e-001 2.61277288e-001 1.65210232e-001 4.02556174e-002
      3.36738303e-002 3.58067751e-002 3.61846909e-002 3.25458907e-002
      2.53953427e-001 9.41554606e-002 6.44530654e-002 4.74331416e-002
      4.70059738e-002 2.80122329e-002 1.02343693e-001 2.96007425e-001
      2.96007425e-001 1.33781105e-001 8.46816525e-002 1.37290522e-001
      7.91063011e-002 6.84541091e-002 1.09737962e-001 2.96007425e-001
      2.96007425e-001 2.75344521e-001 1.12377629e-001 1.22048892e-001
      9.52388793e-002 3.80093418e-002 3.80308032e-002 1.60628725e-002
      6.40742630e-002 2.12522939e-001 2.07997695e-001 1.08549394e-001
      1.80307910e-001 1.16608486e-001 4.67348136e-002 5.76931536e-002
      1.37090266e-001 2.96007425e-001 2.96007425e-001 1.44551396e-001
      5.21019027e-002 2.91068610e-002 5.67389205e-002 2.13682830e-001
      3.21481258e-001 3.21481258e-001 1.23536877e-001 5.92920482e-002
      5.13756201e-002 2.82425825e-002 2.98708975e-002 4.38642129e-002
      6.12166449e-002 1.66528910e-001 1.93277761e-001 7.63517395e-002
      4.05066945e-002 2.94584911e-002 1.14562906e-001 1.25242770e-001
      1.09642804e-001 1.58689052e-001 3.18831384e-001 3.21481258e-001
      3.21481258e-001 1.29616141e-001 9.71244872e-002 2.49113273e-002
      2.64918953e-002 2.94368733e-002 4.70837951e-002 1.05516367e-001
      3.21481258e-001 3.21481258e-001 1.08132534e-001 3.01271230e-002
      5.33227883e-002 6.15273193e-002 6.45790175e-002 1.00295827e-001
      2.01424822e-001 2.37301752e-001 2.14801863e-001 1.50204897e-001
      7.11203068e-002 7.49624372e-002 4.50900160e-002 5.59189841e-002
      9.85716432e-002 1.73798054e-001 2.36006960e-001 2.37301752e-001
      2.37301752e-001 1.68309197e-001 1.12760916e-001 1.16657145e-001
      9.42929089e-002 7.85496458e-002 1.11544393e-001 1.60757154e-001
      1.93923518e-001 1.56614691e-001 1.02087706e-001 1.68688715e-001
      2.30902508e-001 2.37301752e-001 2.37301752e-001 1.48728773e-001
      1.45237446e-001 2.37301752e-001 2.37301752e-001 2.37301752e-001</_>
    <_>
      4.31367233e-002 9.31784660e-002 3.34576249e-001 3.34576249e-001
      3.34576249e-001 9.25868526e-002 6.33933693e-002 4.18801233e-002
      5.70702143e-002 4.37293164e-002 8.95176977e-002 2.61819005e-001
      3.23722243e-001 1.32025659e-001 3.84187065e-002 4.10787240e-002
      4.94289994e-002 5.36137410e-002 4.75853719e-002 3.10329963e-002
      1.00259267e-001 3.34576249e-001 3.34576249e-001 2.96124756e-001
      5.67712002e-002 5.00548929e-002 4.78465371e-002 3.26162726e-002
      4.14092243e-002 5.59356287e-002 1.59405589e-001 2.01408759e-001
      9.06082541e-002 6.72719032e-002 6.28977045e-002 4.54005674e-002
      9.36533660e-002 2.28072241e-001 2.34613970e-001 2.34613970e-001
      1.38783947e-001 4.98364232e-002 5.54427728e-002 6.37357086e-002
      8.46114680e-002 1.73036128e-001 2.34613970e-001 2.34613970e-001
      2.34613970e-001 1.54250175e-001 1.90802440e-001 2.34613970e-001
      9.86568332e-002 9.82841700e-002 5.61374798e-002 9.83332396e-002
      1.74495161e-001 2.34613970e-001 2.34613970e-001 2.30743825e-001
      1.36353150e-001 8.63357633e-002 7.50785992e-002 5.59367798e-002
      1.13160357e-001 1.55033842e-001 2.20292628e-001 2.03751326e-001
      2.34613970e-001 1.42155811e-001 1.05883040e-001 7.92050660e-002
      1.31131306e-001 1.74666822e-001 1.66911557e-001 1.01761922e-001
      1.02864757e-001 2.38061026e-001 2.51812458e-001 1.69960558e-001
      1.05432183e-001 3.84682603e-002 3.01520862e-002 2.34359410e-002
      3.08966618e-002 4.73551415e-002 1.48659825e-001 2.51812458e-001
      2.51812458e-001 9.43990871e-002 2.27702618e-001 2.00624719e-001
      1.97193474e-001 1.46509632e-001 1.87798843e-001 1.79119021e-001
      2.15118140e-001 1.78214669e-001 1.60770223e-001 1.04356349e-001
      7.74423108e-002 6.24185130e-002 8.75718743e-002 1.12387463e-001
      1.48110673e-001 2.51812458e-001 2.51812458e-001 2.51812458e-001
      2.00286835e-001 2.47448772e-001 8.83001462e-002 3.40015590e-002
      3.20902243e-002 3.80856059e-002 3.23349312e-002 5.31452820e-002
      7.66987130e-002 1.37885824e-001 2.94384003e-001 2.94384003e-001
      1.28419340e-001 5.37379421e-002 3.24019417e-002 3.90455201e-002
      5.21642044e-002 6.64488673e-002 2.94384003e-001 2.94384003e-001
      1.05813920e-001 6.40849471e-002 7.11629018e-002 9.08333063e-002
      8.36451203e-002 1.46540642e-001 2.34683141e-001 2.79346317e-001
      2.94384003e-001 2.94384003e-001 1.21043004e-001 1.21123113e-001
      1.22442096e-001 1.66059256e-001 1.77890375e-001 1.12773210e-001</_>
    <_>
      3.23660940e-001 3.23660940e-001 2.25667402e-001 5.47792949e-002
      5.44230901e-002 3.35890427e-002 5.52754663e-002 8.01503062e-002
      2.21946999e-001 3.23660940e-001 2.41315797e-001 9.04706195e-002
      3.87654826e-002 5.68944737e-002 2.86365487e-002 5.57501912e-002
      2.18460977e-001 3.23660940e-001 2.26844147e-001 3.23660940e-001
      1.69198632e-001 3.74365337e-002 4.19968329e-002 3.29175927e-002
      3.42845023e-002 4.03424762e-002 8.84613916e-002 2.24568844e-001
      1.55506328e-001 7.48761743e-002 4.43326086e-002 3.65561172e-002
      2.28266846e-002 2.80901566e-002 7.91777819e-002 2.17604414e-001
      1.06690519e-001 1.58743232e-001 1.57551587e-001 1.14057451e-001
      7.95475319e-002 1.12079732e-001 2.48988017e-001 2.48988017e-001
      1.33895040e-001 1.99044093e-001 2.30489850e-001 1.90010101e-001
      1.35093644e-001 2.04698563e-001 1.53583124e-001 1.55051351e-001
      1.71842337e-001 1.78897709e-001 6.04582503e-002 9.89627689e-002
      5.81294708e-002 4.20296565e-002 8.45156386e-002 2.48988017e-001
      2.48988017e-001 2.22797543e-001 7.51380920e-002 1.40576661e-001
      1.24632135e-001 1.05428644e-001 1.02546386e-001 1.78998992e-001
      2.48988017e-001 2.48988017e-001 1.43622816e-001 1.59786239e-001
      8.14191774e-002 8.99549648e-002 1.46736711e-001 1.57630756e-001
      1.77156061e-001 1.80106089e-001 1.72386736e-001 1.08738534e-001
      1.21041328e-001 1.18682958e-001 1.04473636e-001 1.83931872e-001
      2.02678099e-001 2.34946296e-001 2.34946296e-001 2.34946296e-001
      1.15174249e-001 1.45208716e-001 8.62656832e-002 6.00607358e-002
      7.19509348e-002 1.25248834e-001 1.85351729e-001 1.96254179e-001
      2.34946296e-001 1.89905554e-001 1.35138214e-001 1.65216297e-001
      1.18726008e-001 9.22942236e-002 1.63297519e-001 2.27602020e-001
      2.34946296e-001 2.29939193e-001 1.77299529e-001 1.85690045e-001
      4.56088632e-002 1.87232532e-002 6.25057817e-002 2.46653423e-001
      2.89380491e-001 1.03305578e-001 6.20316118e-002 8.64322484e-002
      7.93717206e-002 9.35482830e-002 7.00132772e-002 1.09525792e-001
      2.89380491e-001 2.89380491e-001 1.42953604e-001 9.05212760e-002
      8.04098919e-002 9.51500386e-002 9.06192437e-002 1.03280932e-001
      2.89380491e-001 2.89380491e-001 1.97517529e-001 5.25725894e-002
      6.85994551e-002 1.13407493e-001 1.09339751e-001 1.24924503e-001
      9.37655494e-002 2.57687360e-001 2.89380491e-001 2.89380491e-001
      1.49403512e-001 1.14883162e-001 1.21303871e-001 1.20181419e-001</_>
    <_>
      1.67642310e-001 1.76992506e-001 1.74199075e-001 1.19099468e-001
      1.76293373e-001 1.43660277e-001 1.18669927e-001 1.23144686e-001
      1.08675241e-001 1.86709896e-001 2.31312618e-001 2.31312618e-001
      2.08986729e-001 1.84643075e-001 1.09960146e-001 1.19429305e-001
      9.98645872e-002 1.24566816e-001 1.23381749e-001 1.19959332e-001
      1.27303362e-001 1.96071476e-001 2.07721949e-001 1.48736745e-001
      1.92795530e-001 1.66878551e-001 1.08498074e-001 1.40259579e-001
      1.60962090e-001 1.83303818e-001 2.31312618e-001 2.31312618e-001
      2.12637559e-001 2.10339651e-001 1.16104513e-001 1.18374862e-001
      6.43083453e-002 8.59514177e-002 6.77202120e-002 4.79408763e-002
      1.78217411e-001 2.90284008e-001 2.90284008e-001 6.23121075e-002
      4.56152931e-002 9.61941332e-002 6.86766431e-002 9.52858999e-002
      1.51892200e-001 2.90284008e-001 2.90284008e-001 2.81325787e-001
      1.08094595e-001 1.36589617e-001 2.91580372e-002 3.69308889e-002
      3.72754671e-002 8.93920138e-002 2.90284008e-001 2.85955727e-001
      5.40855676e-002 3.00637130e-002 3.52495462e-002 9.64735225e-002
      8.01878050e-002 1.13960788e-001 2.09802434e-001 2.90284008e-001
      2.90284008e-001 1.20641954e-001 5.49112819e-002 8.22149441e-002
      5.06702475e-002 1.99657828e-002 2.61286795e-002 2.08336469e-002
      3.39648835e-002 5.70727587e-002 1.60830811e-001 3.20777684e-001
      2.06920043e-001 2.02862784e-001 9.09545496e-002 3.79346162e-002
      3.99249271e-002 4.30020504e-002 4.85513248e-002 6.13831878e-002
      1.22108214e-001 1.86273411e-001 2.09263563e-001 6.91105649e-002
      3.93868051e-002 3.68978232e-002 6.04787655e-002 1.10299036e-001
      2.09477961e-001 3.20777684e-001 3.20777684e-001 3.20777684e-001
      2.26495221e-001 5.78477196e-002 7.16417804e-002 1.04250103e-001
      7.40863457e-002 9.98778120e-002 3.12712640e-001 3.20777684e-001
      1.04229085e-001 2.43682250e-001 2.43682250e-001 2.43682250e-001
      8.67221281e-002 4.67832647e-002 4.35380489e-002 5.80187216e-002
      6.55228049e-002 1.44717216e-001 1.32549003e-001 2.38801479e-001
      2.43682250e-001 1.50843397e-001 1.25391737e-001 9.79014859e-002
      1.05138935e-001 1.09361194e-001 1.26063451e-001 2.43682250e-001
      2.43682250e-001 1.91188440e-001 1.55243382e-001 1.78739876e-001
      1.38755172e-001 1.70363456e-001 1.33830160e-001 1.55883655e-001
      1.38205126e-001 2.02958420e-001 2.03497708e-001 2.13610142e-001
      1.88067704e-001 1.16716713e-001 1.47957027e-001 1.65345088e-001</_>
    <_>
      7.31063411e-002 1.77873075e-001 2.00539678e-001 1.56937480e-001
      7.91595429e-002 4.19559442e-002 3.63150537e-002 2.90599111e-002
      4.55945581e-002 2.46301010e-001 2.46301010e-001 2.46301010e-001
      1.53392851e-001 7.53943175e-002 6.74959049e-002 1.08627789e-001
      1.41094729e-001 1.73260719e-001 1.11300424e-001 2.14765966e-001
      2.46301010e-001 2.46301010e-001 2.19590619e-001 7.51434639e-002
      4.71150726e-002 4.15964238e-002 8.13133642e-002 2.46301010e-001
      2.46301010e-001 2.46301010e-001 2.46301010e-001 1.67231783e-001
      1.25296220e-001 1.25197813e-001 1.27307057e-001 2.08516181e-001
      5.42403050e-002 3.91322151e-002 5.88808581e-002 8.70892256e-002
      1.55878395e-001 1.62422940e-001 2.97365636e-001 2.89880425e-001
      9.11621377e-002 6.36265948e-002 5.00181206e-002 6.96130171e-002
      7.46907219e-002 1.05914868e-001 7.17110783e-002 9.05611515e-002
      8.41641873e-002 5.22065535e-002 1.04244828e-001 6.01232201e-002
      7.80123919e-002 9.93718803e-002 3.00790548e-001 3.00790548e-001
      3.00790548e-001 3.00790548e-001 1.94090992e-001 1.17599443e-001
      7.17599019e-002 7.20279589e-002 5.09805903e-002 8.72564316e-002
      1.21443294e-001 3.00790548e-001 3.00790548e-001 1.96430698e-001
      7.98975155e-002 7.09594488e-002 9.04778466e-002 2.59079516e-001
      2.59079516e-001 2.59079516e-001 1.18409775e-001 1.05478697e-001
      1.07784525e-001 1.46578148e-001 1.48550302e-001 1.21506304e-001
      1.43392399e-001 1.77342743e-001 1.67009234e-001 1.51467726e-001
      1.78873852e-001 1.78659543e-001 9.11008120e-002 6.08728230e-002
      7.79613182e-002 1.53087378e-001 2.59079516e-001 2.59079516e-001
      2.00112313e-001 1.41891867e-001 1.09000877e-001 1.69500068e-001
      1.12814561e-001 1.02272920e-001 1.36663735e-001 2.13121057e-001
      2.00551301e-001 1.64302006e-001 1.99290887e-001 2.09350765e-001
      7.83593208e-002 1.04141749e-001 1.84533924e-001 2.69021153e-001
      2.69021153e-001 1.72617719e-001 1.25960231e-001 1.33144096e-001
      9.27155614e-002 1.13790706e-001 1.61399677e-001 1.69180766e-001
      1.63124174e-001 1.50976092e-001 1.28112331e-001 1.57426506e-001
      1.53740421e-001 1.77295223e-001 8.38735998e-002 1.30332783e-001
      2.52207339e-001 2.69021153e-001 2.69021153e-001 1.18894063e-001
      8.99184346e-002 9.20274481e-002 9.88975540e-002 1.31850243e-001
      1.76735654e-001 1.73378631e-001 1.81264505e-001 2.24705443e-001
      1.17448635e-001 1.30145803e-001 1.38599366e-001 1.77301615e-001</_>
    <_>
      7.97291026e-002 9.99896601e-002 2.24949211e-001 2.61836559e-001
      2.61836559e-001 9.95028913e-002 5.58708310e-002 5.26089482e-002
      6.51409999e-002 2.00812891e-001 1.99838012e-001 1.82510421e-001
      2.44409531e-001 1.85599625e-001 1.03601016e-001 9.79728550e-002
      1.04339041e-001 1.83109239e-001 8.66863206e-002 7.01714978e-002
      1.24839470e-001 2.61836559e-001 2.61836559e-001 2.23858565e-001
      1.09933317e-001 8.57022032e-002 7.38513842e-002 1.89451516e-001
      2.04992309e-001 1.51652798e-001 1.87566534e-001 1.91775426e-001
      1.42967105e-001 1.39506176e-001 1.40989885e-001 1.67291626e-001
      8.06416869e-002 5.55920564e-002 7.70445168e-002 1.70423567e-001
      2.64242202e-001 2.64242202e-001 2.45582849e-001 2.15166152e-001
      1.09756276e-001 9.29094702e-002 8.19441006e-002 1.01329237e-001
      8.40559229e-002 7.22506121e-002 8.65988061e-002 2.26875082e-001
      2.64242202e-001 1.87766835e-001 8.05119425e-002 7.73451030e-002
      1.12852551e-001 2.64242202e-001 2.64242202e-001 2.64242202e-001
      1.56322986e-001 1.30286112e-001 1.03833631e-001 1.07082143e-001
      1.30924329e-001 1.60900041e-001 1.52702793e-001 1.18809298e-001
      1.19647190e-001 1.73345760e-001 2.06445947e-001 1.63562894e-001
      7.76823759e-002 3.04256473e-002 6.50528446e-002 8.55835676e-002
      1.82809502e-001 2.39468530e-001 2.39468530e-001 2.00513527e-001
      8.97738561e-002 2.39468530e-001 1.67367235e-001 1.68345839e-001
      1.40127227e-001 1.60297424e-001 2.01275170e-001 2.39468530e-001
      2.37487167e-001 2.38114417e-001 6.62360713e-002 2.97264252e-002
      2.75822431e-002 4.77804281e-002 6.61911294e-002 1.38742402e-001
      2.39468530e-001 2.00835332e-001 8.93046036e-002 2.39468530e-001
      2.16620162e-001 1.12689361e-001 6.43749908e-002 6.57140240e-002
      8.27082992e-002 2.01007858e-001 2.39468530e-001 2.12391719e-001
      2.46421218e-001 2.08370745e-001 2.29671150e-001 2.46421218e-001
      1.75483331e-001 1.31802976e-001 7.43572786e-002 1.15870543e-001
      2.30978549e-001 2.46421218e-001 1.83040082e-001 1.15209974e-001
      1.56442136e-001 1.61756471e-001 1.08195625e-001 8.99642706e-002
      1.79858163e-001 2.46421218e-001 2.46421218e-001 2.24431127e-001
      1.41008481e-001 7.81853646e-002 6.68566376e-002 5.67230992e-002
      4.28764708e-002 8.49289522e-002 2.46421218e-001 2.46421218e-001
      1.14307396e-001 5.64982109e-002 5.80501519e-002 6.72728866e-002
      4.48453166e-002 7.41433874e-002 1.44148752e-001 2.46421218e-001</_>
    <_>
      1.46208420e-001 1.17257252e-001 1.17726378e-001 1.34321496e-001
      2.01231435e-001 1.76895663e-001 1.10629879e-001 9.49160680e-002
      1.27027541e-001 9.42426175e-002 8.61079246e-002 9.48923826e-002
      2.03083232e-001 2.92997509e-001 2.92997509e-001 1.89386711e-001
      8.99877325e-002 7.53767565e-002 1.51366502e-001 1.40930817e-001
      1.19704701e-001 1.71695083e-001 2.23883808e-001 1.87275022e-001
      9.22562853e-002 1.14981145e-001 1.57115087e-001 9.94465277e-002
      7.20141828e-002 1.17877968e-001 2.92997509e-001 2.92997509e-001
      2.92997509e-001 9.83898193e-002 7.94675723e-002 1.10836692e-001
      1.28942177e-001 9.70219970e-002 9.83622298e-002 7.53308535e-002
      7.62867630e-002 9.71964747e-002 1.87351048e-001 2.48617247e-001
      2.48617247e-001 1.13589466e-001 7.84851983e-002 9.30108503e-002
      5.42494021e-002 9.40582454e-002 7.95192048e-002 1.21363595e-001
      2.26433516e-001 1.81581110e-001 1.61223233e-001 1.46849290e-001
      1.67043656e-001 1.56632885e-001 1.46045581e-001 1.52819917e-001
      2.48617247e-001 2.48617247e-001 2.48617247e-001 1.21299595e-001
      9.78871956e-002 1.03117518e-001 1.01978391e-001 1.93063289e-001
      2.47044206e-001 2.48617247e-001 2.48617247e-001 1.99936479e-001
      2.07483575e-001 2.34788045e-001 2.55031079e-001 2.55031079e-001
      1.30718663e-001 7.74122402e-002 4.77744751e-002 7.47507289e-002
      1.44734472e-001 1.70907691e-001 1.85366079e-001 2.55031079e-001
      2.55031079e-001 1.38838395e-001 9.03560370e-002 5.13641089e-002
      5.28286211e-002 9.49496776e-002 2.55031079e-001 2.55031079e-001
      2.55031079e-001 1.14556223e-001 7.40167126e-002 3.03087980e-002
      3.29136364e-002 5.81139438e-002 1.48543090e-001 2.55031079e-001
      2.55031079e-001 2.55031079e-001 1.38697207e-001 6.55349866e-002
      4.14276049e-002 3.86290029e-002 3.61982025e-002 1.31978869e-001
      2.36202985e-001 2.36202985e-001 1.77797556e-001 2.23300710e-001
      2.18199044e-001 1.12259716e-001 1.17250636e-001 1.36411890e-001
      2.36202985e-001 1.90133631e-001 2.36202985e-001 2.36202985e-001
      2.36202985e-001 2.36202985e-001 1.10675536e-001 1.02013625e-001
      7.18594491e-002 1.33973971e-001 2.36202985e-001 1.61043450e-001
      1.08667456e-001 1.02742448e-001 1.17764883e-001 5.42234518e-002
      8.94808769e-002 1.20544091e-001 2.36202985e-001 1.74998373e-001
      2.14430571e-001 1.24554858e-001 1.31955475e-001 1.23588279e-001
      5.61569855e-002 7.29979947e-002 6.55345693e-002 1.19669974e-001</_>
    <_>
      8.26398283e-002 1.10062949e-001 1.04342371e-001 9.68696252e-002
      9.84551758e-002 7.15149343e-002 8.47159922e-002 6.33560494e-002
      7.23138154e-002 1.72160819e-001 2.22309083e-001 1.93605632e-001
      1.71954975e-001 1.21969126e-001 8.88549909e-002 9.63634104e-002
      9.67536345e-002 1.02588326e-001 1.72570363e-001 2.85330266e-001
      2.49732345e-001 1.56785950e-001 1.00504607e-001 6.43202886e-002
      7.72138834e-002 8.87317657e-002 1.19789764e-001 2.85330266e-001
      2.85330266e-001 2.85330266e-001 2.85330266e-001 1.57113478e-001
      8.11618567e-002 1.03769608e-001 1.97431237e-001 2.85330266e-001
      2.22284555e-001 1.90031514e-001 1.67051941e-001 1.08183697e-001
      1.49180114e-001 9.81231257e-002 1.09201357e-001 1.93970725e-001
      2.22284555e-001 1.55056134e-001 1.14911176e-001 1.17316075e-001
      1.01597697e-001 1.94103152e-001 1.84390739e-001 2.22284555e-001
      2.22284555e-001 2.07341507e-001 1.33527204e-001 1.23510875e-001
      1.34196192e-001 1.13212265e-001 2.15110183e-001 1.05708800e-001
      1.19261771e-001 1.68874204e-001 1.77098259e-001 1.19248532e-001
      1.36769041e-001 1.88497111e-001 1.84179366e-001 2.22284555e-001
      2.07464382e-001 2.12903947e-001 1.42565876e-001 1.05056271e-001
      6.99556693e-002 6.18492924e-002 1.29159555e-001 2.40913138e-001
      2.40913138e-001 2.14404643e-001 1.93007573e-001 1.02688961e-001
      9.69116762e-002 1.46931201e-001 1.10586204e-001 1.46832645e-001
      1.85185656e-001 1.78719923e-001 1.62830308e-001 1.63906261e-001
      1.50000259e-001 1.54662192e-001 7.80380741e-002 5.73095977e-002
      4.80995700e-002 1.33142039e-001 2.40913138e-001 2.40913138e-001
      2.40913138e-001 2.07070112e-001 1.07691035e-001 1.36194333e-001
      1.16793737e-001 1.15782775e-001 1.62307590e-001 1.76470399e-001
      2.00654566e-001 2.40913138e-001 2.19696239e-001 1.54552355e-001
      1.00766636e-001 8.46389458e-002 7.97457695e-002 1.10745609e-001
      2.41945460e-001 2.35340282e-001 2.41945460e-001 2.13626966e-001
      1.48796380e-001 5.40117808e-002 6.71076328e-002 8.42967257e-002
      1.45127133e-001 2.41945460e-001 2.41945460e-001 2.41945460e-001
      1.63263947e-001 7.54891634e-002 1.53417632e-001 1.27842426e-001
      1.79050744e-001 1.80557922e-001 2.41945460e-001 1.61917627e-001
      1.36030823e-001 1.06724046e-001 1.22813851e-001 9.58137289e-002
      1.07120119e-001 1.45986363e-001 2.38115191e-001 2.41945460e-001
      2.30579928e-001 1.43636778e-001 8.44620913e-002 7.37484843e-002</_>
    <_>
      1.41709775e-001 1.52962163e-001 1.50256246e-001 1.55270249e-001
      1.64970696e-001 1.35532469e-001 1.20929323e-001 8.82780701e-002
      8.63098130e-002 1.63594082e-001 1.72138229e-001 1.68939605e-001
      1.92635253e-001 1.99735194e-001 1.56213865e-001 1.43332064e-001
      1.28149301e-001 1.44869536e-001 1.75903395e-001 1.86149523e-001
      1.55446991e-001 1.46246761e-001 1.47044078e-001 1.40973002e-001
      1.48725986e-001 1.07935660e-001 1.20324701e-001 2.36709878e-001
      2.36709878e-001 2.36709878e-001 2.15064690e-001 1.70733407e-001
      1.93015128e-001 2.20807672e-001 1.86820984e-001 1.49753526e-001
      1.91249907e-001 2.32731059e-001 2.32731059e-001 1.26587942e-001
      1.24443159e-001 7.04149157e-002 8.30926374e-002 1.08608089e-001
      1.18357010e-001 2.32731059e-001 2.32731059e-001 2.26862311e-001
      1.29297793e-001 1.50890172e-001 7.48557448e-002 8.36940780e-002
      2.01195240e-001 2.32731059e-001 1.46142662e-001 2.32731059e-001
      2.32731059e-001 1.81076303e-001 1.95439294e-001 1.12701938e-001
      1.11626431e-001 1.35380968e-001 1.01433851e-001 1.40745878e-001
      1.76833943e-001 1.81976750e-001 1.77367330e-001 2.12330237e-001
      1.17480263e-001 9.61959064e-002 1.35716781e-001 1.42827004e-001
      7.64254555e-002 2.04370007e-001 2.44664788e-001 2.44664788e-001
      2.19013259e-001 8.04716051e-002 5.15997708e-002 4.53378893e-002
      5.25989421e-002 1.67399228e-001 2.44664788e-001 2.44664788e-001
      2.01862916e-001 1.93666071e-001 1.30382612e-001 1.07400328e-001
      1.42547220e-001 1.14616163e-001 7.14900494e-002 7.58912936e-002
      1.63114190e-001 2.44664788e-001 2.44664788e-001 2.12732077e-001
      1.30584583e-001 5.81277907e-002 4.92310971e-002 1.04047954e-001
      1.30024090e-001 1.83709338e-001 1.93515792e-001 2.41623491e-001
      1.73534214e-001 1.72575429e-001 1.58617094e-001 1.12392373e-001
      1.73613876e-001 8.12587589e-002 8.88077244e-002 9.53882337e-002
      1.28627628e-001 1.49166912e-001 2.44444847e-001 2.44444847e-001
      2.44444847e-001 1.17817171e-001 6.53065369e-002 6.14580363e-002
      8.93543512e-002 1.17912807e-001 2.08139375e-001 2.44444847e-001
      2.44444847e-001 2.44444847e-001 1.51861385e-001 1.09186903e-001
      1.09073386e-001 8.71737450e-002 1.70168623e-001 1.48900390e-001
      1.65909901e-001 1.09195545e-001 1.24684326e-001 1.72852740e-001
      1.38695538e-001 1.13131307e-001 1.15783066e-001 1.93436161e-001
      2.44444847e-001 2.44444847e-001 2.17114925e-001 1.39254570e-001</_>
    <_>
      1.03637554e-001 1.37523904e-001 1.31787702e-001 8.50360170e-002
      7.21778646e-002 4.63904552e-002 6.07581176e-002 4.68791686e-002
      6.54110238e-002 2.35517561e-001 2.79757351e-001 2.65282899e-001
      1.24015577e-001 1.11721717e-001 7.14782625e-002 8.21285918e-002
      8.44135880e-002 1.61177933e-001 1.68785319e-001 2.69261688e-001
      2.79757351e-001 2.40190595e-001 1.16871551e-001 6.08956069e-002
      5.11228032e-002 5.74621633e-002 9.99982953e-002 2.79757351e-001
      2.79757351e-001 2.79757351e-001 2.09947199e-001 1.23833358e-001
      9.58732069e-002 1.03336230e-001 1.25560179e-001 2.20058709e-001
      1.39373481e-001 1.15255862e-001 9.42995846e-002 9.26436856e-002
      9.31935608e-002 8.00880939e-002 1.59371883e-001 2.70392746e-001
      2.71256745e-001 1.19448990e-001 1.12893410e-001 1.07036732e-001
      1.15958780e-001 1.60357326e-001 7.99502879e-002 1.20731719e-001
      1.67212352e-001 1.43421203e-001 2.11897254e-001 7.51356781e-002
      5.69489188e-002 8.63830969e-002 9.85424370e-002 1.14437945e-001
      2.71256745e-001 2.71256745e-001 2.71256745e-001 1.37533098e-001
      1.05846912e-001 9.60138589e-002 1.05834067e-001 1.27656624e-001
      1.42870441e-001 2.71256745e-001 2.71256745e-001 2.71256745e-001
      6.32783696e-002 5.15796319e-002 8.42392594e-002 1.79254755e-001
      2.48589903e-001 2.48589903e-001 2.48589903e-001 1.08228512e-001
      7.15458021e-002 1.09443933e-001 9.10421833e-002 1.22207433e-001
      1.42034635e-001 2.27581397e-001 2.36472681e-001 2.31294990e-001
      1.81782946e-001 1.08829536e-001 5.68504073e-002 5.18654175e-002
