<?xml version="1.0"?>
<opencv_storage>
<my_svm type_id="opencv-ml-svm">
  <svm_type>C_SVC</svm_type>
  <kernel><type>LINEAR</type></kernel>
  <C>1.</C>
  <term_criteria><epsilon>2.2204460492503131e-016</epsilon>
    <iterations>100000</iterations></term_criteria>
  <var_all>4096</var_all>
  <var_count>4096</var_count>
  <class_count>2</class_count>
  <class_labels type_id="opencv-matrix">
    <rows>1</rows>
    <cols>2</cols>
    <dt>i</dt>
    <data>
      -1 1</data></class_labels>
  <sv_total>1</sv_total>
  <support_vectors>
    <_>
      6.39431179e-004 3.46756948e-004 -3.48317844e-004 -1.05552527e-003
      -4.14491864e-004 9.76149650e-008 1.13790302e-005 7.32845865e-006
      3.49766401e-006 1.20942661e-006 1.88321280e-006 6.99721068e-006 0.
      0. 0. 0. 2.27498604e-004 1.93429500e-004 1.93862114e-004
      -5.57273852e-005 -7.61481817e-004 -6.56836724e-004
      -1.51686458e-004 2.35385887e-005 1.61482785e-005 5.51713993e-006
      4.44021180e-006 8.34290040e-006 1.53835958e-006 1.34568984e-006 0.
      0. 1.20230261e-005 4.57514107e-005 3.86785450e-006 1.10939407e-004
      1.15042370e-004 1.23882448e-004 9.04330518e-005 5.11430444e-005
      3.41258019e-005 2.01853472e-005 3.22965570e-005 4.03706963e-006
      8.07413926e-006 9.41982853e-006 4.03706963e-006 0. 0.
      2.54324550e-006 2.10198941e-005 1.81301784e-005 5.25553369e-005
      1.02039419e-004 1.60355485e-004 1.38960357e-004 1.14680544e-004
      8.80213483e-005 7.38744056e-005 2.55681061e-005 6.72844908e-006
      1.21112089e-005 1.34568982e-005 9.41982853e-006 0. 0.
      3.39099392e-006 2.03246191e-006 1.23695372e-005 2.91138331e-005
      4.87726502e-005 2.10939717e-004 2.48500117e-004 1.96511202e-004
      2.61892419e-004 1.06170963e-004 2.69137963e-005 5.38275935e-006
      6.72844908e-006 8.07413926e-006 0. 0. 0. 0. 2.35658445e-006
      1.26716286e-005 9.86178020e-006 1.71804713e-005 2.45430070e-004
      4.25096834e-004 1.59274961e-004 1.52062945e-004 9.15069104e-005
      5.38275935e-006 2.69137968e-006 0. 0. 0. 0. 0. 7.72737181e-008 0.
      2.55681061e-005 1.59198644e-005 2.44278708e-005 5.26754375e-005
      8.73652825e-005 9.15069104e-005 7.13215632e-005 4.70991436e-005
      1.34568984e-006 0. 0. 0. 0. 0. 0. 0. 2.69137968e-006
      6.45138198e-006 5.38275935e-006 5.65625987e-006 5.28254714e-006
      5.51732846e-005 2.55681061e-005 2.42224178e-005 1.21112089e-005 0.
      0. 0. 0. 0. 0. 0. 0. 0. 2.69137968e-006 1.34568984e-006
      1.22453514e-007 0. 9.41982853e-006 0. 1.34568984e-006 0. 0. 0. 0.
      0. 0. 0. 0. 0. 0. 0. 0. 0. 0. 0. 0. 0. 0. 0. 0. 0. 0. 0. 0. 0. 0.
      0. 0. 0. 0. 0. 0. 0. 0. 0. 0. 0. 0. 0. 0. 0. 0. 0. 0. 0. 0. 0. 0.
      0. 0. 0. 0. 0. 0. 0. 0. 0. 0. 0. 0. 0. 0. 0. 0. 0. 0. 0. 0. 0. 0.
      0. 0. 0. 0. 0. 0. 0. 0. 0. 0. 0. 0. 0. 0. 0. 0. 0. 0. 0. 0. 0. 0.
      0. 0. 0. 0. 0. 0. 0. 0. 0. 0. 0. 0. 0. 0. 0. 0. 0. 0. 0. 0. 0.
      2.80837878e-004 9.01925087e-005 8.46966759e-006 1.74101103e-006
      2.78312746e-006 4.68879171e-006 1.31408742e-005 1.42359477e-005
      1.32752557e-005 8.76058311e-006 1.09507291e-005 0. 0. 0. 0. 0.
      2.57897074e-004 9.82657541e-004 4.02321166e-004 5.78008730e-005
      -2.11282866e-004 -9.50308895e-005 3.36457424e-006 1.68566876e-005
      1.03427465e-005 3.66833387e-006 2.72766874e-006 1.97660583e-007
      1.40697728e-006 2.86420254e-006 0. 0. 3.92241491e-005
      6.31429502e-005 8.14015220e-005 1.14009039e-004 -4.43334808e-004
      -3.92893242e-004 -5.45783783e-004 -4.57017130e-004 6.47941197e-005
      4.61538802e-005 3.71602232e-006 1.34380741e-007 1.34380741e-007
      4.73937416e-006 5.42403825e-007 0. 3.16399252e-007 2.35816260e-005
      5.74452824e-005 5.62578462e-005 1.22914935e-004 1.13214206e-004
      8.89392104e-005 2.11844352e-004 1.79699258e-004 1.89347775e-005
      7.38147082e-006 6.31284820e-006 1.34568984e-006 0. 0.
      5.38275935e-006 0. 0. 1.33936428e-005 6.20386127e-005
      4.17238407e-005 6.67735949e-005 1.43186990e-004 8.53472447e-005
      1.40026707e-004 1.91245359e-004 1.14765928e-004 8.77373986e-006
      2.69137968e-006 4.29018883e-006 1.40896964e-006 6.72844908e-006 0.
      0. 0. 5.76604589e-006 9.45900774e-006 5.23006611e-006
      1.73024237e-005 7.47582817e-005 8.31118305e-005 8.69735086e-005
      1.10048168e-004 1.28506406e-004 5.66855961e-005 5.38275935e-006
      5.44603927e-006 2.69137968e-006 0. 0. 0. 0. 4.14238599e-007
      5.05447360e-006 4.00517320e-006 1.82787044e-005 6.92251488e-005
      1.12594302e-004 1.76023124e-004 1.25494174e-004 6.24939348e-005
      5.01406357e-005 6.72844908e-006 1.40896964e-006 0. 0. 0. 0. 0.
      7.72737181e-008 1.10196856e-006 4.37403423e-006 1.90332248e-005
      5.31909063e-005 1.85604891e-004 1.41731565e-004 1.58791401e-004
      4.30620748e-005 4.57534552e-005 8.07413926e-006 0. 0. 0. 0. 0. 0.
      0. 3.36964888e-007 1.20715617e-006 2.69137968e-006 1.67313337e-005
      4.22045705e-005 4.02691840e-005 2.96051767e-005 4.97905239e-005
      3.90250061e-005 0. 0. 0. 0. 0. 0. 0. 0. 0. 2.69137968e-006 0. 0.
      9.73087390e-006 1.21112089e-005 2.69137968e-006 1.88396571e-005 0.
      0. 0. 0. 0. 0. 0. 0. 0. 0. 0. 1.20715617e-006 0. 2.55284613e-006
      0. 0. 0. 0. 0. 0. 0. 0. 0. 0. 0. 0. 0. 0. 0. 1.20715617e-006 0. 0.
      0. 0. 0. 0. 0. 0. 0. 0. 0. 0. 0. 0. 0. 0. 0. 0. 0. 0. 0. 0. 0. 0.
      0. 0. 0. 0. 0. 0. 0. 0. 0. 0. 0. 0. 0. 0. 0. 0. 0. 0. 0. 0. 0. 0.
      0. 0. 0. 0. 0. 0. 0. 0. 0. 0. 0. 0. 0. 0. 0. 0. 0. 0. 0. 0.
      -7.93141007e-005 5.84143936e-006 1.26559698e-007 0. 0. 0.
      1.09507289e-006 7.66551057e-006 1.53310211e-005 2.08063848e-005
      3.39472608e-005 1.86162397e-005 1.09507289e-006 0. 0. 0.
      2.31781480e-004 -2.96682963e-004 1.19572222e-004 4.87577672e-005
      2.83716727e-005 8.09467929e-006 1.10833116e-005 1.91625368e-005
      5.04209129e-005 6.24191525e-005 1.02936850e-004 1.00746707e-004
      1.75211662e-005 4.66312088e-007 0. 0. -9.83381597e-006
      9.13640033e-005 3.43878753e-004 2.13676482e-004 -7.75329318e-005
      -2.64557602e-004 -3.78320983e-004 -2.07866018e-004 2.29604830e-005
      1.28915737e-004 4.17693263e-005 4.87776060e-006 8.06284447e-007
      7.87555655e-006 2.79299711e-005 3.09146844e-006 1.26559698e-007
      8.74791731e-005 1.34385875e-004 1.10267672e-006 8.15554740e-005
      1.33971544e-005 -5.09338461e-005 -1.18322838e-004 -4.96198081e-005
      9.30006063e-005 1.13993156e-004 2.68307394e-006 2.92903678e-007
      8.06284447e-007 2.76950395e-005 6.18561535e-005 0. 2.69444809e-005
      1.02224898e-004 1.75566063e-004 1.97219648e-004 1.02348655e-004
      5.15084175e-005 7.47210797e-005 5.06224023e-005 2.85198221e-005
      9.47304397e-006 3.62146875e-006 6.32798489e-008 0. 0.
      2.30241585e-005 0. 8.22638015e-007 3.79679079e-007 1.66742793e-005
      6.98820440e-005 7.86957389e-005 -2.42385559e-005 7.75940498e-005
      8.59999564e-005 4.09748391e-005 1.64554367e-005 1.32835994e-005
      9.96413860e-007 0. 6.32798489e-008 0. 0. 0. 0. 0. 2.88818865e-006
      1.81205014e-005 2.55431842e-005 1.49422685e-005 6.50081492e-005
      6.35064061e-005 3.96389660e-005 3.27950547e-005 2.42972583e-005
      8.21459344e-006 2.69137968e-006 4.83755912e-006 0. 0. 0. 0. 0.
      5.19112575e-007 1.72898144e-005 6.51227856e-006 2.63848433e-005
      5.17447770e-005 5.58954271e-005 1.14409682e-004 7.37748196e-005
      1.29946720e-005 4.10034954e-006 4.03706963e-006 0. 0. 0. 0. 0.
      7.72737181e-008 7.72737181e-008 2.77299296e-006 5.60420062e-007
      1.66834961e-005 3.04661298e-005 8.43982707e-005 1.20853132e-004
      6.62498496e-005 3.36422454e-005 4.03706945e-005 0. 0. 0. 0. 0. 0.
      0. 0. 0. 0. 2.97809197e-006 3.61159277e-006 7.71789928e-006
      2.15310374e-005 1.48025883e-005 7.80500122e-005 0. 0. 0. 0. 0. 0.
      0. 0. 0. 0. 4.03706963e-006 1.34568984e-006 0. 2.69137968e-006
      2.01853472e-005 6.99758748e-005 0. 0. 0. 0. 0. 0. 0. 0. 0. 0. 0.
      0. 0. 0. 1.34568984e-006 1.48025883e-005 0. 0. 0. 0. 0. 0. 0. 0.
      0. 0. 0. 0. 0. 0. 0. 0. 0. 0. 0. 0. 0. 0. 0. 0. 0. 0. 0. 0. 0. 0.
      0. 0. 0. 0. 0. 0. 0. 0. 0. 0. 0. 0. 0. 0. 0. 0. 0. 0. 0. 0. 0. 0.
      0. 0. 0. 0. 0. 0. 0. 0. 0. 0. 0. 0. 6.16058969e-005 0. 0. 0. 0. 0.
      0. 0. 0. 0. 0. 0. 1.09507289e-006 0. 0. 0. -5.07965160e-004
      1.69239684e-005 1.91454765e-005 1.05672061e-005 0. 0. 0.
      8.76058311e-006 6.89895896e-005 9.63664133e-005 1.07317144e-004
      1.45644692e-004 1.13887581e-004 5.91339376e-005 4.38029156e-006 0.
      -6.97815849e-005 7.46987571e-005 3.53532494e-004 1.90627863e-004
      6.30853465e-005 4.19686403e-005 1.98220241e-005 1.10162300e-005
      4.99138368e-005 4.55845875e-005 6.59308644e-005 8.21304639e-005
      2.85351744e-005 5.80740561e-006 1.04321680e-005 1.58199623e-006
      3.37291422e-005 9.92279151e-004 2.69662298e-004 2.68096774e-004
      -2.89916614e-004 -1.36010422e-005 4.93948683e-005 2.24905652e-005
      1.37563238e-005 3.76138087e-005 7.94401349e-005 8.68179086e-006
      2.61052719e-006 4.43524368e-006 1.69539871e-005 6.48041823e-005 0.
      4.82544128e-004 4.87126235e-004 6.01389329e-005 3.50151007e-004
      3.19710700e-004 8.13246952e-005 8.35419050e-005 9.13168988e-005
      3.09751194e-005 1.06847538e-005 2.94013466e-006 7.24266300e-008
      1.20942661e-006 1.61256889e-006 7.96434688e-005 0. 4.42958935e-007
      8.28385455e-005 1.06027677e-004 2.28235862e-004 9.05886045e-005
      -3.82211401e-005 8.03768999e-005 9.12819669e-005 2.92955319e-005
      1.75817840e-005 2.41431235e-006 6.32798489e-008 0. 6.32798489e-008
      1.84601304e-004 0. 0. 1.89839540e-007 4.04694944e-008
      4.23751844e-005 1.50150314e-004 9.84842045e-005 1.32405330e-004
      -7.58344977e-005 5.36578227e-005 1.67465478e-005 1.20715622e-005
      2.41431235e-006 6.32798489e-008 4.00244744e-007 6.73929776e-007 0.
      0. 0. 0. 0. 7.53588256e-006 1.39699041e-004 8.80710577e-005
      2.05457491e-005 7.77372697e-005 6.19745042e-005 1.71479078e-005
      9.58774945e-006 1.51820086e-006 0. 1.68265478e-006 0. 0. 0. 0. 0.
      0. 2.33088417e-006 9.69679240e-005 6.47428169e-005 3.94120798e-005
      3.38808131e-005 3.69758491e-005 5.88687981e-005 3.25060901e-005
      4.34811409e-006 7.03949399e-006 0. 0. 0. 0. 0. 0. 0.
      7.23333471e-007 4.12085228e-006 2.21805089e-006 9.85499628e-006
      1.38571613e-005 3.05847534e-005 5.92103534e-005 2.24641717e-005
      2.15310374e-005 0. 0. 0. 0. 0. 0. 0. 0. 7.72737181e-008 0.
      1.20715617e-006 1.46717343e-006 3.54855433e-006 5.38275935e-006
      2.01853472e-005 6.32474257e-005 0. 0. 0. 0. 0. 0. 0. 0. 0. 0. 0.
      0. 2.41431235e-006 1.34568984e-006 8.07413926e-006 1.38606047e-004
      0. 0. 0. 0. 0. 0. 0. 0. 0. 0. 0. 0. 0. 0. 0. 4.44077632e-005 0. 0.
      0. 0. 0. 0. 0. 0. 0. 0. 0. 0. 0. 0. 0. 1.34568984e-006 0. 0. 0. 0.
      0. 0. 0. 0. 0. 0. 0. 0. 0. 0. 0. 0. 0. 0. 0. 0. 0. 0. 0. 0. 0. 0.
      0. 0. 0. 0. 0. 0. 3.33766438e-005 0. 0. 0. 0. 0. 0. 0. 0. 0. 0. 0.
      0. 0. 0. 0. -9.98605858e-004 2.84765265e-005 0. 0. 0. 0. 0. 0. 0.
      0. 1.09507289e-006 4.38029156e-006 1.42359477e-005 3.94226226e-005
      4.38029156e-006 0. -3.21366941e-004 1.23943115e-004
      2.30431979e-004 3.15906364e-005 1.56014994e-005 9.22467279e-006
      3.28236638e-006 0. 3.20738072e-005 5.58487191e-005 4.16127696e-005
      7.44649587e-005 6.35142278e-005 6.24191525e-005 1.20458017e-005 0.
      2.97730348e-005 7.24681813e-005 1.00076559e-003 8.51415156e-004
      -7.57664966e-004 -5.23130293e-004 2.41094967e-005 2.41874895e-005
      -5.78449453e-006 -3.98350167e-005 2.69258344e-005 4.41947268e-005
      3.96955002e-005 1.05708123e-005 1.83025645e-006 8.06284447e-007 0.
      2.16226646e-004 2.79111409e-004 1.29869010e-003 1.77523281e-004
      -4.36528266e-004 -3.20232939e-005 2.01185267e-005 9.74343402e-006
      6.55803888e-006 9.74376781e-006 8.61484477e-006 5.47512718e-006
      4.15016075e-006 3.28841747e-006 2.41287944e-005 0. 0.
      2.73063324e-005 2.89651252e-005 2.12892628e-004 1.93295549e-004
      1.64656944e-004 1.39128068e-004 4.53417706e-005 4.29115680e-005
      1.10482924e-005 4.98895724e-006 1.00538875e-006 1.97660583e-007 0.
      7.77024161e-006 0. 0. 6.32798489e-008 2.48708534e-006
      1.57526520e-005 4.12526279e-005 -6.64541130e-006 1.14690018e-004
      -2.70769979e-005 5.50497025e-005 2.23112274e-005 1.24705030e-005
      2.41431235e-006 6.32798489e-008 0. 0. 0. 0. 0. 0. 2.02347472e-008
      1.80491334e-005 5.22085829e-005 6.18928752e-005 1.36037334e-005
      1.76376911e-004 6.21812505e-005 2.79408641e-006 0. 1.20715617e-006
      0. 0. 0. 0. 0. 0. 0. 0. 1.15530447e-005 1.27377396e-004
      1.48321909e-004 4.43299759e-005 7.85709271e-005 3.61997336e-005
      4.34811409e-006 3.76000230e-006 1.34568984e-006 1.34568984e-006 0.
      0. 0. 0. 0. 0. 7.72737181e-008 3.84848863e-006 5.69812000e-005
      2.09760019e-005 4.13825437e-005 4.62872049e-005 2.03911950e-005
      5.14472595e-005 1.34568982e-005 1.34568984e-006 0. 0. 0. 0. 0. 0.
      0. 3.09094872e-007 1.95971302e-006 8.52292942e-006 2.69571910e-006
      1.09430202e-005 2.02831197e-005 2.68829353e-005 4.80322778e-005
      1.48025883e-005 0. 0. 0. 0. 0. 0. 0. 0. 0. 0. 4.91512310e-007
      1.34568984e-006 2.55284613e-006 5.71972441e-006 4.03706963e-006
      6.45931141e-005 0. 0. 0. 0. 0. 0. 0. 0. 0. 0. 0. 0. 0.
      1.20715617e-006 2.69137968e-006 1.07655185e-004 0. 0. 0. 0. 0. 0.
      0. 0. 0. 0. 0. 0. 0. 0. 0. 5.28188684e-005 0. 0. 0. 0. 0. 0. 0. 0.
      0. 0. 0. 0. 0. 0. 0. 1.68482450e-006 0. 0. 0. 0. 0. 0. 0. 0. 0. 0.
      0. 0. 0. 0. 0. 0. 0. 0. 0. 0. 0. 0. 0. 0. 0. 0. 0. 0. 0. 0. 0. 0.
      -8.97363119e-004 9.53963627e-006 0. 0. 0. 0. 0. 0. 0. 0. 0. 0. 0.
      0. 0. 0. -4.90562001e-004 7.38448725e-005 1.03700850e-005
      6.49190861e-006 3.15334046e-006 0. 0. 0. -1.34015988e-006 0.
      1.09507289e-006 0. 3.28521855e-006 8.76058311e-006 2.19014578e-006
      0. 6.64075105e-006 -3.31732590e-004 2.12952276e-004
      4.48693143e-004 7.82712159e-005 3.71084352e-005 2.32961247e-005
      6.29597116e-006 -1.55947564e-005 -3.36395460e-004 -2.62568676e-004
      -1.18864946e-005 4.32696215e-005 1.53310211e-005 9.85565566e-006
      1.09507289e-006 0. 3.41907034e-005 1.29934524e-005
      -1.26397796e-003 5.02916810e-004 9.50736194e-006 -5.11469843e-004
      -2.08402460e-004 -3.56838427e-004 -4.88669029e-004
      -5.78558946e-004 -2.62370129e-004 -2.83231377e-004 6.70481813e-006
      3.24220281e-007 9.01559986e-007 0. 0. 8.90436786e-005
      1.16786672e-004 6.14587625e-004 2.41222544e-004 1.10337161e-004
      -3.76651849e-004 -5.72640056e-005 6.58610588e-007 7.01237423e-006
      -4.56778565e-007 5.56369832e-006 4.59774174e-006 2.79924393e-006
      1.91403751e-006 0. 0. 0. 4.69398628e-006 -7.34013292e-006
      7.68217433e-004 4.58432129e-004 3.07744631e-004 6.26176625e-005
      4.85328492e-005 5.13513551e-005 6.84711449e-006 8.11384325e-006
      1.67357825e-006 8.06284447e-007 1.34380741e-007 0. 0. 0.
      5.31550722e-006 8.37705102e-006 7.76584966e-006 5.77252067e-005
      3.04863905e-004 2.99133419e-004 1.28268264e-004 6.28189082e-005
      3.11168296e-005 3.77293509e-006 1.34380741e-007 6.32798489e-008 0.
      0. 0. 0. 0. 0. 7.72737181e-008 5.62164541e-006 5.34416467e-005
      2.92133609e-005 -2.25752665e-005 2.19794703e-004 1.38554125e-004
      1.46838346e-007 2.41431235e-006 0. 0. 0. 0. 0. 0. 0. 0.
      1.78316736e-006 5.40023393e-006 4.31575427e-005 4.14972310e-005
      8.54242098e-005 8.26188989e-005 1.54547070e-005 4.03706963e-006 0.
      1.20715617e-006 0. 0. 0. 0. 0. 0. 0. 1.69775944e-006
      1.27413023e-005 5.07980876e-005 1.76053854e-005 6.65044936e-005
      5.02887306e-005 2.41085745e-005 2.96051767e-005 6.72844908e-006 0.
      0. 0. 0. 0. 0. 0. 0. 1.62048570e-006 2.68304643e-006
      6.19204548e-006 3.76217213e-006 2.17277393e-005 1.02603590e-005
      3.25414621e-005 2.69137963e-005 0. 0. 0. 0. 0. 0. 0. 0. 0. 0.
      1.54547436e-007 0. 0. 5.44265686e-006 5.38275935e-006
      3.36422454e-005 0. 0. 0. 0. 0. 0. 0. 0. 0. 0. 0. 0. 0.
      1.20715617e-006 1.88108606e-006 3.80444872e-005 0. 0. 0. 0. 0. 0.
      0. 0. 0. 0. 0. 0. 0. 0. 0. 2.52550089e-005 0. 0. 0. 0. 0. 0. 0. 0.
      0. 0. 0. 0. 0. 0. 0. 0. 0. 0. 0. 0. 0. 0. 0. 0. 0. 0. 0. 0. 0. 0.
      0. 0. -4.66961326e-004 0. 0. 0. 0. 0. 0. 0. 0. 0. 0. 0. 0. 0. 0.
      0. -3.25320783e-004 6.71244379e-006 1.22453514e-007 0. 0. 0. 0. 0.
      0. 0. 0. 0. 0. 0. 0. 0. -1.77903712e-006 -5.23843511e-004
      -1.28497515e-004 -1.02263775e-005 9.47082299e-006 3.01639216e-006
      0. 0. 0. -1.34015988e-006 -2.87591183e-006 3.14827048e-006 0.
      1.09507289e-006 3.28521855e-006 1.09507289e-006 3.14798558e-006
      9.65082654e-005 -5.49061340e-004 -1.67121983e-003 -1.53540386e-004
      6.02628061e-005 2.28663666e-005 1.22037754e-005 -1.94802815e-005
      -7.55473011e-005 -3.39214283e-004 -5.84322319e-004
      -7.64769909e-004 1.09507291e-005 9.85565566e-006 3.28521855e-006
      0. 0. 7.43229975e-005 -1.85813100e-004 -1.48260224e-004
      1.82190153e-004 -9.95121445e-005 -2.88097304e-004 -1.67671315e-004
      -1.04740961e-004 -6.04723209e-005 -1.71675929e-004
      -5.97866077e-004 -4.25584876e-005 2.56982480e-006 9.49197727e-007
      0. 0. 0. 5.83759320e-005 1.10235138e-004 3.13803088e-004
      1.02220860e-004 -2.93739664e-004 -2.88270501e-004 -6.78506913e-005
      -4.17168776e-005 -5.00464148e-006 -6.07117227e-006 2.48518313e-006
      1.75133448e-006 1.26559698e-007 0. 0. 0. 0. 1.00729139e-005
      -1.31345532e-005 8.68682473e-005 -4.06216786e-005 2.15028587e-004
      1.59234842e-005 3.54304939e-005 6.18837366e-005 0. 2.41431235e-006
      0. 1.34380741e-007 0. 0. 0. 0. 3.79679091e-006 5.81444192e-006
      1.02837230e-005 1.23950114e-004 -5.21660331e-005 1.77449838e-004
      1.72207219e-004 8.15798921e-005 1.06346206e-005 0. 0. 0. 0. 0. 0.
      0. 0. 0. 9.25022221e-007 5.78195431e-006 1.70576222e-005
      2.95484242e-005 4.49717627e-005 1.38045943e-004 4.95816421e-005
      1.99727225e-007 1.20715617e-006 1.20715617e-006 0. 0. 0. 0. 0. 0.
      0. 0. 1.17297686e-005 4.23552192e-005 4.38784591e-005
      1.65819642e-004 4.92204163e-005 9.20204820e-006 5.50521281e-006 0.
      0. 0. 0. 0. 0. 0. 0. 0. 3.85916110e-006 2.61418627e-005
      3.74461706e-005 2.82725632e-005 4.81885072e-005 5.08725352e-005
      2.61176810e-005 9.66473544e-006 0. 0. 0. 0. 0. 0. 0. 0. 0.
      1.70002181e-006 1.75576179e-006 3.52419647e-006 5.50255481e-006
      1.48228401e-005 1.37982024e-005 3.91474605e-005 0. 0. 0. 0. 0. 0.
      0. 0. 0. 0. 8.47748481e-007 7.72737181e-008 0. 2.05490483e-006
      9.59952195e-006 9.19458544e-005 0. 0. 0. 0. 0. 0. 0. 0. 0. 0. 0.
      0. 0. 0. 0. 5.35665713e-005 0. 0. 0. 0. 0. 0. 0. 0. 0. 0. 0. 0. 0.
      0. 0. 0. 0. 0. 0. 0. 0. 0. 0. 0. 0. 0. 0. 0. 0. 0. 0. 0.
      -4.74743756e-005 0. 0. 0. 0. 0. 0. 0. 0. 0. 0. 0. 0. 0. 0. 0.
      -7.97397865e-004 4.69709403e-006 0. 0. 0. 0. 0. 0. 0. 0. 0. 0. 0.
      0. 0. 0. -1.38808595e-004 -3.69404937e-004 3.37993515e-006
      -9.08493519e-007 0. 0. 0. 0. 0. 0. 0. 0. 0. 0. 0. 0.
      1.00724428e-005 -4.88385886e-005 -4.23853227e-004 -8.53522972e-004
      1.64856044e-006 6.16710122e-006 1.26080067e-005 0.
      -5.36591926e-007 -1.10057354e-005 -7.10957465e-005
      -4.75591769e-005 -1.56802344e-005 0. 0. 1.09507289e-006 0.
      1.61344342e-005 1.41928729e-004 -4.96349006e-004 -9.84996208e-004
      -4.07283114e-005 -2.33450446e-005 -1.21661806e-005
      -9.13197146e-005 -1.20021228e-004 -1.95992689e-004
      -2.20227303e-004 -6.85798295e-004 -9.64583887e-005 3.28521855e-006
      1.09507289e-006 0. 0. 2.60017259e-007 9.82029887e-005
      -1.64975445e-005 -4.43168217e-004 -2.62307440e-004
      -2.23870316e-004 -1.50601118e-004 -6.86598287e-005
      -3.98931516e-005 -6.01086431e-005 -1.91149316e-004
      -1.73449196e-004 -1.28101856e-005 2.44326520e-006 0. 0. 0. 0.
      3.40511542e-005 6.33997188e-005 5.84358524e-004 2.92780751e-004
      -3.64887092e-004 -1.45890954e-004 -1.63798293e-004
      -1.54243651e-004 -3.48484864e-005 -1.48194722e-005
      -4.37149856e-006 6.40619533e-007 0. 0. 0. 0. 6.32798489e-008
      8.09982066e-006 7.01923591e-006 8.23574155e-005 3.29653907e-004
      2.43533708e-004 8.65406619e-005 1.76345256e-005 3.86917782e-006
      1.09507289e-006 0. 0. 0. 0. 0. 0. 0. 8.22638015e-007
      2.65775361e-006 2.90162643e-006 1.69981402e-004 8.21362119e-005
      6.32697993e-005 1.80021510e-004 8.04984884e-005 4.06216441e-006 0.
      0. 0. 0. 0. 0. 0. 0. 0. 8.47748481e-007 6.09104927e-006
      7.90418107e-006 1.99929764e-005 8.32882579e-005 8.11498539e-005
      7.62650379e-005 7.72737181e-008 1.20715617e-006 0. 0. 0. 0. 0. 0.
      0. 0. 1.77277070e-006 1.89395687e-005 2.79566502e-005
      6.42380255e-005 1.59111994e-004 3.02019580e-005 1.24159187e-005 0.
      0. 0. 0. 0. 0. 0. 0. 0. 0. 3.70461362e-006 3.31715091e-005
      1.83379798e-005 1.52787798e-005 4.25517537e-005 3.58723701e-005
      2.20833936e-005 0. 0. 0. 0. 0. 0. 0. 0. 0. 0. 5.24103825e-006
      1.38866449e-006 1.01089472e-006 2.05490483e-006 1.35564205e-005
      9.76256124e-005 0. 0. 0. 0. 0. 0. 0. 0. 0. 0. 0. 8.47748481e-007
      0. 0. 1.20715617e-006 5.69318800e-005 0. 0. 0. 0. 0. 0. 0. 0. 0.
      0. 0. 0. 0. 0. 0. 2.69137968e-006 0. 0. 0. 0. 0. 0. 0. 0. 0. 0. 0.
      0. 0. 0. 0. 0. -1.34443178e-006 0. 0. 0. 0. 0. 0. 0. 0. 0. 0. 0.
      0. 0. 0. 0. -8.84453941e-004 7.10465073e-008 0. 0. 0. 0. 0. 0. 0.
      0. 0. 0. 0. 0. 0. 0. -4.41915821e-004 -3.45338121e-005
      6.19425691e-006 0. 0. 0. 0. 0. 0. 0. 0. 0. 0. 0. 0. 0.
      -2.98264399e-006 -6.59681740e-004 -1.97575122e-004
      -1.57630257e-006 0. 0. 0. 0. 0. 0. 0. 0. 0. 0. 0. 0. 0.
      1.29553344e-004 6.87473221e-004 2.43737042e-004 -1.55435682e-005
      2.30027435e-004 3.42572503e-006 6.29597116e-006 0.
      -2.68295958e-006 -2.14636771e-006 -3.66589234e-006
      -3.35649975e-006 -3.75614354e-006 0. 0. 0. 0. 6.58538338e-005
      1.89625309e-004 3.21602638e-005 -2.25908763e-004 -1.67445512e-004
      3.87418258e-005 1.36002418e-005 -6.96755296e-006 -1.59045419e-006
      -1.44464429e-005 -8.47508854e-005 -1.08683111e-004
      -1.71753036e-005 1.09507289e-006 0. 0. 0. 3.49797801e-006
      1.37021183e-004 3.12044140e-004 -9.13751646e-005 5.16052241e-004
      1.53240209e-004 8.20100377e-006 -4.95044951e-005 -3.54050608e-005
      -1.10654364e-004 -2.05133387e-004 -1.40344127e-004
      -4.90962702e-006 0. 0. 0. 0. 0. 1.94350141e-005 7.28110754e-005
      1.16844807e-004 1.19957062e-004 1.14533352e-004 -2.59538738e-005
      -8.71748125e-005 -1.19950171e-004 -1.23325182e-004
      -3.01942746e-005 -4.26895076e-006 0. 0. 0. 0. 0. 0.
      7.67085567e-006 -6.26205883e-006 -4.55625195e-005 2.07949328e-004
      1.54846988e-004 7.73354332e-005 1.46639086e-005 1.27688691e-005
      -5.33292678e-007 0. 0. 0. 0. 0. 0. 0. 6.96078359e-007
      7.10072186e-007 1.40214106e-005 6.81953179e-006 6.80393077e-006
      7.53164277e-005 9.96319504e-005 1.83372205e-004 4.85033597e-005 0.
      0. 0. 0. 0. 0. 0. 1.34380741e-007 1.34380741e-007 2.88928163e-007
      6.18382637e-006 9.56739132e-006 2.35382158e-005 7.85440643e-005
      1.44859470e-004 1.26761297e-004 5.40501190e-008 0. 0. 0. 0. 0. 0.
      0. 2.68761482e-007 0. 1.69549696e-006 1.81344367e-005
      2.34221279e-005 4.60711963e-005 1.02864127e-004 1.17265427e-005
      1.07970063e-005 0. 0. 0. 0. 0. 0. 0. 0. 0. 0. 9.25022232e-006
      1.55911912e-005 7.51203515e-006 1.75679270e-005 2.68026342e-005
      4.39138021e-005 0. 0. 0. 0. 0. 0. 0. 0. 0. 0. 0. 1.77277070e-006
      0. 7.72737181e-008 0. 3.33334865e-005 0. 0. 0. 0. 0. 0. 0. 0. 0.
      0. 0. 0. 0. 0. 0. 4.37403423e-006 0. 0. 0. 0. 0. 0. 0. 0. 0. 0. 0.
      0. 0. 0. 0. 0. 0. 0. 0. 0. 0. 0. 0. 0. 0. 0. 0. 0. 0. 0. 0. 0.
      -1.73951878e-004 0. 0. 0. 0. 0. 0. 0. 0. 0. 0. 0. 0. 0. 0. 0.
      -6.64221065e-004 -8.20238881e-007 2.60017259e-007 0. 0. 0. 0. 0.
      0. 0. 0. 0. 0. 0. 0. 0. -8.89406729e-005 -2.08586032e-004
      3.65399283e-005 7.04007516e-006 0. 0. 0. 0. 0. 0. 0. 0. 0. 0. 0.
      0. 0. -1.71156789e-005 -1.35052382e-004 6.98265649e-005
      -3.21135121e-005 5.33234088e-005 0. 0. 0. 0. 0. 0. 0. 0. 0. 0. 0.
      2.09951031e-006 3.91832116e-004 4.81146999e-004 4.15741466e-004
      -1.20744349e-004 -8.78721039e-005 3.16404999e-006 3.15334046e-006
      0. 0. 0. 0. 0. 0. 0. 0. 0. 7.29898034e-007 4.26093611e-005
      3.28857685e-004 2.40518821e-005 -4.23553196e-004 2.16123590e-004
      4.91041101e-005 1.65916954e-005 -1.31593382e-007 0.
      -1.00148654e-005 -6.63209576e-005 -1.00034682e-004
      -1.20353354e-006 0. 0. 0. 0. 8.70732251e-008 1.86368648e-004
      2.86118564e-004 1.25171471e-004 1.54799927e-004 1.63270830e-004
      2.13356689e-005 -8.10365964e-006 -5.20215690e-005 -1.82674281e-004
      -3.56031669e-004 -1.71893174e-004 0. 0. 0. 0. 0. 2.17683063e-008
      1.40960526e-006 2.89847121e-005 3.02059343e-004 1.38049742e-004
      2.04090131e-004 2.06452605e-005 -3.01659220e-005 -4.08512387e-005
      -7.01409663e-005 -5.14685235e-005 0. 0. 0. 0. 0. 0.
      6.32798489e-008 5.69518625e-006 8.66961636e-006 7.49476021e-005
      7.85099764e-005 4.62022326e-005 2.73022506e-005 1.82074582e-005
      1.38850937e-005 0. 0. 0. 0. 0. 0. 0. 0. 7.72737181e-008
      3.44386990e-007 4.16093717e-005 3.53127907e-005 4.12044537e-005
      6.35770775e-005 1.86485675e-004 5.47324307e-005 0. 0. 0. 0. 0. 0.
      0. 0. 1.34380741e-007 4.03142224e-007 4.80415906e-007
      5.14586054e-006 1.58327075e-005 7.45471407e-005 9.72140624e-005
      6.08838709e-005 2.70773739e-007 0. 0. 0. 0. 0. 0. 0. 0. 0. 0.
      7.72737181e-008 4.01597117e-006 6.66454889e-006 4.75568886e-005
      4.64578115e-005 8.62890829e-006 0. 0. 0. 0. 0. 0. 0. 0. 0. 0. 0.
      0. 2.85460283e-006 1.42513329e-006 1.40933516e-005 3.18384155e-005
      0. 0. 0. 0. 0. 0. 0. 0. 0. 0. 0. 0. 0. 0. 0. 7.40237920e-006 0. 0.
      0. 0. 0. 0. 0. 0. 0. 0. 0. 0. 0. 0. 0. 0. 0. 0. 0. 0. 0. 0. 0. 0.
      0. 0. 0. 0. 0. 0. 0. 0. 0. 0. 0. 0. 0. 0. 0. 0. 0. 0. 0. 0. 0. 0.
      0. 0. -4.48829611e-004 3.74446671e-007 0. 0. 0. 0. 0. 0. 0. 0. 0.
      0. 0. 0. 0. 0. -5.27247845e-004 -8.67687122e-005 9.86250598e-005
      -1.05867490e-004 0. 0. 0. 0. 0. 0. 0. 0. 0. 0. 0. 0.
      -8.38823780e-006 -1.86810707e-004 -1.75926762e-004
      -3.83507664e-004 6.24544191e-005 6.62515095e-006 0. 0. 0. 0. 0. 0.
      0. 0. 0. 0. 0. 9.41445194e-007 -2.92479435e-005 -5.81754284e-006
      -6.92394271e-004 -5.00203460e-004 -2.02232495e-005 0. 0. 0. 0. 0.
      0. 0. 0. 0. 0. 1.43356175e-007 1.14620248e-004 3.30986426e-004
      3.07874463e-004 -3.70534166e-004 3.14597964e-005 -6.34109092e-005
      3.14798558e-006 0. 0. 0. 0. 0. -1.36948188e-007 0. 0. 0. 0.
      4.47314733e-006 1.57771738e-005 1.98806592e-005 9.55983196e-005
      -2.55172170e-004 1.02680548e-004 2.11312799e-005 1.12196230e-005
      8.95308062e-007 0. -3.35649975e-006 -1.56423521e-005
      -3.47583155e-005 0. 0. 0. 0. 0. 6.99973384e-007 1.37203288e-005
      2.28863748e-004 3.42280371e-004 2.52964615e-004 7.20070166e-005
      2.01995335e-005 1.18290654e-006 -1.46214543e-005 -6.07883958e-005
      -1.34119837e-004 0. 0. 0. 0. 0. 8.47748481e-007 7.72737181e-008
      3.34606966e-006 4.46919330e-005 1.49818399e-004 1.12768706e-004
      1.56595648e-004 9.45311604e-006 -5.02869216e-006 -7.33302295e-006
      -2.56744581e-009 0. 0. 0. 0. 0. 0. 0. 0. 2.76301512e-006
      5.50500263e-005 3.52148272e-005 5.41362788e-005 5.37937158e-005
      1.36047438e-005 1.08554432e-005 3.53168275e-006 0. 0. 0. 0. 0. 0.
      0. 0. 0. 1.40553567e-007 2.18859550e-005 3.33116404e-005
      8.39127388e-005 1.95652101e-004 4.84661105e-005 1.42165172e-005 0.
      0. 0. 0. 0. 0. 0. 0. 0. 0. 4.23308904e-007 1.54547436e-007
      4.59887178e-006 7.07658182e-005 1.69204781e-004 1.51626637e-005 0.
      0. 0. 0. 0. 0. 0. 0. 0. 0. 8.76703226e-008 8.47748481e-007
      7.72737181e-008 1.42513329e-006 3.13117489e-005 3.78879304e-005 0.
      0. 0. 0. 0. 0. 0. 0. 0. 0. 0. 0. 0. 1.54547436e-007
      3.36964888e-007 1.46640550e-005 0. 0. 0. 0. 0. 0. 0. 0. 0. 0. 0.
      0. 0. 0. 0. 0. 0. 0. 0. 0. 0. 0. 0. 0. 0. 0. 0. 0. 0. 0. 0. 0. 0.
      0. 0. 0. 0. 0. 0. 0. 0. 0. 0. 0. 0. 0. 0. 0. -1.23857506e-004 0.
      0. 0. 0. 0. 0. 0. 0. 0. 0. 0. 0. 0. 0. 0. -6.30665338e-004
      -7.90840350e-005 0. 1.69549696e-006 0. 0. 0. 0. 0. 0. 0. 0. 0. 0.
      0. 0. -2.58993474e-004 -4.42607212e-004 -2.25344484e-005
      -1.13630993e-003 1.35428761e-003 5.64676375e-005 0. 0. 0. 0. 0. 0.
      0. 0. 0. 0. 0. -6.81224992e-005 -2.45521660e-004 1.66692561e-003
      1.46390637e-003 -3.26646705e-006 0. 0. 0. 0. 0. 0. 0. 0. 0. 0. 0.
      0. -1.69878388e-006 1.90063191e-004 -9.16132194e-005
      2.50575104e-005 -7.10532913e-005 0. 0. 0. 0. 0. 0. 0. 0. 0. 0. 0.
      2.86712350e-007 7.48169987e-005 1.57146758e-004 -2.45531664e-005
      -1.24839600e-004 -1.60240728e-004 -6.51248547e-006 0.
      8.47748481e-007 8.47748481e-007 0. 0. 0. 0. 0. 0. 0.
      5.25826920e-007 2.16744797e-006 3.04491482e-006 1.52949792e-006
      -4.69484257e-006 1.00743826e-004 7.71636405e-005 8.09374160e-006
      1.41687160e-005 0. 0. 0. -1.36948188e-007 0. 0. 0. 0. 0.
      8.47748481e-007 3.13444701e-007 2.28650497e-005 1.54824404e-004
      3.73346003e-004 -1.65102813e-006 7.62505733e-005 7.01909130e-006
      3.32041338e-007 1.26559698e-007 -5.71080818e-007 0. 0. 0. 0. 0. 0.
      0. 0. 3.16869318e-007 5.37600645e-005 1.18835414e-004
      2.21924682e-004 8.69441428e-005 6.11577389e-006 2.68761482e-007
      1.97660583e-007 0. 0. 0. 0. 0. 0. 0. 0. 0. 1.07575738e-006
      3.23579698e-005 5.83237852e-006 3.68710134e-005 7.56580703e-005
      1.22900974e-005 5.72182853e-006 0. 0. 0. 0. 0. 0. 0. 0. 0. 0.
      1.09507289e-006 1.48144147e-006 1.10048995e-005 1.42514968e-004
      3.67501867e-004 2.92623808e-005 0. 0. 0. 0. 0. 0. 0. 0. 0. 0. 0.
      1.75340645e-007 0. 1.17234663e-006 6.38709826e-005 8.42971858e-005
      0. 0. 0. 0. 0. 0. 0. 0. 0. 0. 0. 0. 0. 0. 0. 2.51593356e-005 0. 0.
      0. 0. 0. 0. 0. 0. 0. 0. 0. 0. 0. 0. 0. 0. 0. 0. 0. 0. 0. 0. 0. 0.
      0. 0. 0. 0. 0. 0. 0. 0. 0. 0. 0. 0. 0. 0. 0. 0. 0. 0. 0. 0. 0. 0.
      0. 0. 0. 0. 0. 0. 0. 0. 0. 0. 0. 0. 0. 0. 0. 0. 0. 0.
      -1.69360923e-004 -2.27939995e-006 0. 0. 0. 0. 0. 0. 0. 0. 0. 0. 0.
      0. 0. 0. -1.39381256e-004 -6.82956306e-005 5.99987334e-006
      -1.39605851e-004 1.13914666e-005 0. 0. 0. 0. 0. 0. 0. 0. 0. 0. 0.
      -7.80347875e-007 -1.99788221e-004 -1.48003252e-004
      -1.30907889e-003 -2.72017624e-003 9.34172349e-005 0. 0. 0. 0. 0.
      0. 0. 0. 0. 0. 0. -1.29965765e-005 -2.18115907e-004
      -1.74828179e-004 -8.56733313e-005 -5.83051988e-005
      -4.31399858e-005 0. 0. 0. 0. 0. 0. 0. 0. 0. 0. 0. 2.86712350e-007
      -1.33498324e-005 -1.33034089e-004 -8.77563944e-005
      -1.24508486e-004 -1.08056978e-004 0. 0. 0. 0. 0. 0. 0. 0. 0. 0.
      2.86712350e-007 1.42325973e-006 3.42438830e-006 1.20183504e-005
      -4.77801113e-005 -2.00601440e-004 -6.91063833e-005 8.47748481e-007
      0. 0. 0. 0. 0. 0. 0. 0. 0. 0. 0. 7.05714967e-007 1.91717618e-006
      9.87556723e-006 1.14922484e-004 1.49661981e-004 1.61329372e-005
      4.12247755e-006 7.72184558e-006 0. 0. 0. 0. 0. 0. 0. 0. 0. 0.
      7.72737181e-008 3.87614637e-006 2.94511818e-004 1.99597722e-004
      9.85530278e-005 1.51417180e-005 5.11156657e-007 0. 0. 0. 0. 0. 0.
      0. 0. 0. 0. 0. 1.12174030e-006 4.87647885e-005 1.39431213e-004
      1.24231359e-004 4.03607410e-005 1.60412992e-006 1.34380741e-007 0.
      0. 0. 0. 0. 0. 0. 0. 0. 7.72737181e-008 4.21660701e-007
      4.85861483e-006 7.01023328e-006 2.40100253e-005 4.68963481e-005
      4.26374982e-006 0. 0. 0. 0. 0. 0. 0. 0. 0. 0. 0. 0. 0.
      2.30009277e-006 1.57814342e-004 2.51003512e-004 0. 0. 0. 0. 0. 0.
      0. 0. 0. 0. 0. 0. 0. 0. 0. 5.90074815e-005 0. 0. 0. 0. 0. 0. 0. 0.
      0. 0. 0. 0. 0. 0. 0. 0. 0. 0. 0. 0. 0. 0. 0. 0. 0. 0. 0. 0. 0. 0.
      0. 0. 0. 0. 0. 0. 0. 0. 0. 0. 0. 0. 0. 0. 0. 0. 0. 0. 0. 0. 0. 0.
      0. 0. 0. 0. 0. 0. 0. 0. 0. 0. 0. 0. -1.56069575e-006 0. 0. 0. 0.
      0. 0. 0. 0. 0. 0. 0. 0. 0. 0. 0. -1.27350533e-004 0. 0.
      -3.86276006e-005 0. 0. 0. 0. 0. 0. 0. 0. 0. 0. 0. 0.
      -9.05136185e-005 -4.34147441e-005 -2.60609540e-005
      -2.59681512e-003 -5.35313925e-003 -1.00961159e-004 0. 0. 0. 0. 0.
      0. 0. 0. 0. 0. 0. -5.06958204e-005 -3.45801905e-004
      -8.80509979e-005 -1.30967400e-003 -1.15625735e-003
      -5.89461124e-005 0. 0. 0. 0. 0. 0. 0. 0. 0. 0. 0. -9.67522428e-005
      -5.19995556e-005 -6.65681873e-005 -2.56775005e-004
      -2.71083554e-004 -5.49932665e-005 0. 0. 0. 0. 0. 0. 0. 0. 0. 0.
      2.86712350e-007 7.34437151e-007 -1.34443178e-006 -3.45211593e-005
      -8.83995817e-005 -2.88689160e-004 -3.43114916e-005 0. 0. 0. 0. 0.
      0. 0. 0. 0. 0. 6.90085756e-007 2.16729859e-006 1.48542324e-006
      1.05618312e-006 -8.89524969e-008 -2.60119705e-005 -1.45825686e-006
      0. 0. 0. 0. 0. 0. 0. 0. 0. 0. 0. 0. 7.46456806e-007
      1.76719914e-006 1.12763928e-005 1.85802332e-004 1.82650561e-004
      1.56595488e-005 6.41222232e-006 0. 0. 0. 0. 0. 0. 0. 0. 0. 0.
      7.72737181e-008 8.70732251e-008 2.49357927e-005 1.75127949e-004
      2.55077204e-004 6.84456973e-005 1.76358499e-005 2.53518067e-007 0.
      0. 0. 0. 0. 0. 0. 0. 0. 0. 1.54547436e-007 2.46975446e-007
      2.88052306e-005 7.50567269e-005 9.52224364e-005 4.61069903e-005
      4.66422051e-007 0. 0. 0. 0. 0. 0. 0. 0. 0. 0. 0. 1.40553567e-007
      1.29261582e-006 7.92706578e-006 1.16211531e-005 2.02288084e-005 0.
      0. 0. 0. 0. 0. 0. 0. 0. 0. 0. 0. 0. 0. 9.27284646e-007
      1.78071452e-004 0. 0. 0. 0. 0. 0. 0. 0. 0. 0. 0. 0. 0. 0. 0. 0. 0.
      0. 0. 0. 0. 0. 0. 0. 0. 0. 0. 0. 0. 0. 0. 0. 0. 0. 0. 0. 0. 0. 0.
      0. 0. 0. 0. 0. 0. 0. 0. 0. 0. 0. 0. 0. 0. 0. 0. 0. 0. 0. 0. 0. 0.
      0. 0. 0. 0. 0. 0. 0. 0. 0. 0. 0. 0. 0. 0. 0. 0. 0. 0. 0.
      -7.80347875e-007 0. 0. 0. 0. 0. 0. 0. 0. 0. 0. 0. 0. 0. 0. 0.
      -9.12465548e-005 -6.24555014e-006 0. -4.17298375e-004
      -1.43990779e-004 -1.97429272e-005 0. 0. 0. 0. 0. 0. 0. 0. 0. 0.
      -2.33725768e-005 -8.53312740e-005 -2.14359989e-005
      -2.92648969e-004 -6.83113991e-004 -7.67613878e-004
      -3.29048780e-005 0. 0. 0. 0. 0. 0. 0. 0. 0. 0. -7.80347875e-007
      -2.32453211e-004 -7.85321390e-005 -2.34104368e-006
      -3.76455748e-004 -5.60508866e-004 -1.97429272e-005 0. 0. 0. 0. 0.
      0. 0. 0. 0. 0. 0. -2.12477971e-006 -1.18367743e-005
      -3.25197980e-005 -9.35803328e-005 -2.26980250e-004 0. 0. 0. 0. 0.
      0. 0. 0. 0. 0. 0. 7.10465073e-008 7.10465073e-008 -1.26715815e-006
      -1.08441463e-006 -4.73056434e-006 -4.99554562e-006 0. 0. 0. 0. 0.
      0. 0. 0. 0. 0. 0. 0. 3.31063745e-007 9.15679720e-007
      1.76275068e-006 1.51705945e-006 1.96733927e-005 6.36732921e-006 0.
      0. 0. 0. 0. 0. 0. 0. 0. 0. 0. 0. 6.24003292e-007 6.02457021e-006
      2.83559875e-005 2.47965741e-004 1.04553212e-004 2.61318564e-006
      1.84217754e-007 0. 0. 0. 0. 0. 0. 0. 0. 0. 0. 7.72737181e-008
      9.82603865e-007 6.46569315e-005 1.37094321e-004 1.05085324e-004
      4.83381118e-005 1.57323630e-005 2.21678803e-007 0. 0. 0. 0. 0. 0.
      0. 0. 0. 0. 0. 6.53049170e-008 1.53350938e-005 2.41924117e-005
      7.38281233e-005 8.15207022e-006 0. 0. 0. 0. 0. 0. 0. 0. 0. 0. 0.
      0. 0. 1.23891323e-006 5.11328244e-006 4.92063737e-005 0. 0. 0. 0.
      0. 0. 0. 0. 0. 0. 0. 0. 0. 0. 0. 0. 0. 0. 0. 0. 0. 0. 0. 0. 0. 0.
      0. 0. 0. 0. 0. 0. 0. 0. 0. 0. 0. 0. 0. 0. 0. 0. 0. 0. 0. 0. 0. 0.
      0. 0. 0. 0. 0. 0. 0. 0. 0. 0. 0. 0. 0. 0. 0. 0. 0. 0. 0. 0. 0. 0.
      0. 0. 0. 0. 0. 0. 0. 0. 0. 0. 0. 0. 0. 0. 0. 0. 0. 0. 0. 0. 0. 0.
      0. 0. 0. 0. 0. 0. 0. 0. 0. 0. 0. 0. 0. 0. 0. 0. 0. 0. 0. 0.
      -2.12477971e-006 -3.94120616e-005 0. 0. 0. 0. 0. 0. 0. 0. 0. 0. 0.
      0. 0. 0. 0. -1.30496501e-005 -3.98914381e-005 -3.68547558e-006 0.
      -8.59733263e-005 -2.84407724e-004 -1.97429272e-005 0. 0. 0. 0. 0.
      0. 0. 0. 0. 0. 0. -5.59399132e-006 -5.46243518e-006
      -5.09162373e-006 -2.91904609e-004 -2.14874075e-004 0. 0. 0. 0. 0.
      0. 0. 0. 0. 0. 0. 0. 0. -8.48844408e-008 -5.48526771e-007 0.
      -1.05645158e-005 0. 0. 0. 0. 0. 0. 0. 0. 0. 0. 0. 0.
      3.09094872e-007 1.46820059e-006 2.31821161e-007 4.08337485e-007
      8.47748481e-007 0. 0. 0. 0. 0. 0. 0. 0. 0. 0. 0. 0.
      7.72737181e-008 5.02279181e-006 1.05740446e-005 8.79185507e-007
      1.91007675e-005 5.13136627e-007 0. 0. 0. 0. 0. 0. 0. 0. 0. 0. 0.
      3.09094872e-007 2.31821161e-007 1.12930491e-006 9.61937913e-005
      1.52514229e-004 3.47381902e-005 1.18643743e-006 0. 0. 0. 0. 0. 0.
      0. 0. 0. 0. 0. 0. 6.72450312e-007 2.73091100e-005 6.60807636e-005
      5.70209049e-005 1.27915191e-005 2.41714815e-006 0. 0. 0. 0. 0. 0.
      0. 0. 0. 0. 0. 4.50614891e-007 4.35391712e-006 3.67844477e-005
      3.42142957e-005 9.63784347e-004</_></support_vectors>
  <decision_functions>
    <_>
      <sv_count>1</sv_count>
      <rho>-2.4706319342474362e-001</rho>
      <alpha>
        1.</alpha>
      <index>
        0</index></_></decision_functions></my_svm>
</opencv_storage>
